//Numpy array shape [1, 1, 64, 128]
//Min -0.171875000000
//Max 0.171875000000
//Number of zeros 396

#ifndef W100_H_
#define W100_H_

#ifndef __SYNTHESIS__
weight100_t w100[8192];
#else
weight100_t w100[8192] = {-0.109375, -0.046875, 0.046875, 0.109375, 0.140625, 0.062500, -0.078125, -0.109375, -0.156250, 0.109375, 0.062500, -0.125000, -0.015625, -0.125000, -0.078125, 0.015625, -0.093750, 0.078125, -0.062500, -0.031250, -0.046875, -0.093750, 0.109375, 0.125000, -0.171875, -0.015625, -0.156250, -0.140625, 0.015625, 0.031250, -0.171875, -0.109375, -0.156250, 0.015625, -0.109375, 0.109375, 0.000000, -0.171875, -0.171875, 0.078125, 0.031250, 0.046875, 0.078125, 0.046875, -0.093750, -0.093750, -0.046875, 0.171875, -0.078125, -0.078125, -0.156250, 0.171875, 0.093750, -0.093750, -0.062500, -0.046875, 0.125000, -0.125000, 0.046875, 0.125000, -0.140625, -0.046875, -0.046875, 0.015625, 0.078125, 0.171875, 0.171875, -0.156250, -0.171875, 0.046875, 0.078125, 0.031250, -0.078125, -0.140625, -0.093750, 0.031250, -0.156250, 0.062500, 0.046875, 0.140625, -0.078125, 0.109375, 0.062500, -0.125000, -0.093750, 0.015625, 0.140625, -0.171875, 0.171875, -0.062500, 0.046875, 0.062500, -0.015625, -0.156250, 0.031250, -0.109375, 0.109375, -0.125000, 0.078125, 0.078125, -0.109375, -0.109375, -0.062500, -0.046875, -0.078125, 0.000000, 0.171875, -0.062500, -0.015625, 0.171875, 0.031250, 0.000000, 0.125000, 0.156250, 0.031250, -0.046875, -0.140625, 0.156250, 0.140625, 0.156250, -0.171875, 0.093750, -0.125000, -0.171875, 0.031250, -0.140625, 0.015625, -0.093750, 0.109375, -0.015625, 0.109375, -0.125000, -0.156250, -0.125000, -0.093750, 0.140625, 0.062500, 0.125000, -0.140625, -0.015625, -0.062500, 0.156250, 0.000000, -0.046875, -0.140625, -0.140625, -0.031250, 0.000000, 0.078125, 0.125000, -0.015625, 0.062500, -0.171875, -0.109375, 0.078125, 0.031250, -0.015625, 0.062500, 0.156250, 0.109375, -0.171875, -0.109375, -0.062500, -0.093750, 0.031250, 0.000000, -0.031250, 0.078125, -0.093750, -0.109375, -0.015625, 0.125000, -0.109375, 0.156250, 0.015625, 0.171875, 0.015625, -0.109375, 0.000000, 0.078125, 0.109375, -0.046875, 0.062500, -0.109375, 0.078125, 0.125000, -0.093750, 0.000000, -0.156250, 0.000000, 0.156250, -0.015625, 0.093750, 0.000000, -0.078125, -0.171875, -0.125000, 0.078125, 0.156250, 0.109375, 0.000000, -0.078125, 0.171875, 0.031250, -0.125000, -0.109375, -0.093750, -0.031250, -0.015625, -0.156250, -0.125000, -0.156250, -0.109375, -0.078125, -0.031250, 0.046875, -0.093750, -0.140625, 0.156250, 0.156250, -0.109375, -0.125000, -0.046875, 0.046875, -0.093750, -0.031250, -0.109375, 0.031250, 0.062500, 0.015625, 0.140625, 0.109375, -0.125000, 0.125000, 0.078125, 0.015625, -0.078125, -0.171875, 0.046875, -0.093750, -0.109375, 0.156250, 0.046875, -0.062500, -0.109375, -0.171875, 0.140625, -0.062500, 0.140625, 0.078125, -0.046875, -0.125000, 0.109375, 0.015625, -0.140625, -0.171875, -0.046875, 0.000000, -0.078125, 0.125000, -0.046875, 0.109375, -0.171875, 0.031250, -0.046875, 0.156250, -0.140625, 0.140625, 0.093750, -0.015625, -0.140625, -0.031250, -0.140625, -0.062500, -0.140625, -0.109375, 0.046875, 0.140625, 0.000000, 0.015625, 0.109375, 0.000000, 0.078125, 0.093750, 0.046875, 0.046875, 0.062500, -0.078125, -0.093750, 0.093750, -0.078125, -0.156250, -0.125000, 0.078125, 0.109375, 0.125000, 0.109375, -0.062500, -0.078125, 0.109375, 0.140625, 0.078125, 0.031250, -0.140625, -0.078125, 0.000000, 0.140625, -0.093750, -0.140625, 0.000000, -0.046875, 0.109375, 0.156250, 0.093750, -0.140625, -0.078125, 0.093750, -0.062500, 0.031250, -0.031250, 0.125000, -0.031250, 0.000000, 0.140625, 0.062500, 0.046875, 0.156250, -0.093750, -0.031250, 0.171875, -0.015625, 0.015625, -0.031250, 0.015625, 0.000000, 0.000000, 0.093750, -0.015625, -0.062500, 0.093750, -0.171875, -0.078125, 0.125000, 0.062500, 0.125000, 0.046875, 0.125000, -0.140625, 0.140625, 0.078125, -0.156250, -0.093750, 0.031250, -0.109375, 0.000000, 0.000000, -0.062500, 0.140625, -0.031250, 0.015625, -0.109375, -0.171875, -0.046875, -0.078125, 0.031250, -0.062500, -0.171875, 0.046875, -0.093750, 0.062500, 0.093750, -0.109375, -0.140625, -0.125000, 0.078125, -0.093750, 0.000000, -0.140625, 0.171875, 0.046875, -0.078125, -0.125000, -0.125000, 0.015625, 0.109375, -0.109375, 0.093750, -0.156250, 0.031250, 0.015625, 0.171875, -0.015625, 0.062500, -0.156250, -0.171875, -0.125000, -0.093750, -0.078125, -0.031250, 0.015625, -0.046875, -0.156250, 0.078125, 0.093750, 0.156250, 0.062500, 0.156250, -0.125000, 0.046875, -0.109375, -0.015625, 0.171875, -0.125000, 0.171875, 0.156250, 0.109375, -0.062500, -0.093750, 0.140625, -0.125000, -0.140625, 0.093750, -0.171875, -0.078125, 0.046875, -0.109375, 0.109375, -0.015625, -0.078125, -0.140625, 0.171875, -0.015625, -0.015625, 0.015625, -0.062500, 0.000000, -0.109375, 0.171875, 0.015625, -0.140625, -0.093750, 0.156250, -0.015625, 0.031250, 0.156250, 0.031250, -0.109375, 0.125000, -0.109375, -0.140625, -0.093750, 0.156250, -0.125000, 0.125000, 0.062500, -0.125000, -0.062500, 0.156250, 0.000000, -0.062500, 0.000000, 0.109375, -0.046875, -0.078125, 0.093750, 0.062500, 0.156250, -0.156250, -0.031250, 0.125000, 0.046875, -0.031250, 0.000000, -0.171875, -0.156250, 0.109375, -0.062500, 0.156250, -0.125000, -0.093750, -0.140625, 0.156250, -0.156250, -0.015625, 0.015625, 0.046875, -0.140625, -0.062500, 0.078125, 0.140625, 0.140625, -0.015625, 0.078125, -0.015625, -0.062500, 0.125000, 0.062500, 0.156250, 0.140625, -0.031250, -0.046875, 0.171875, -0.062500, -0.062500, 0.046875, 0.062500, 0.125000, 0.046875, -0.078125, 0.156250, -0.031250, 0.031250, 0.125000, 0.156250, -0.109375, -0.125000, 0.093750, 0.062500, 0.078125, -0.062500, 0.156250, -0.109375, 0.140625, 0.171875, -0.093750, 0.046875, 0.109375, 0.062500, 0.031250, 0.109375, -0.140625, -0.062500, -0.031250, 0.140625, 0.109375, 0.156250, 0.000000, 0.109375, 0.078125, 0.046875, -0.078125, 0.093750, 0.031250, -0.171875, 0.031250, -0.015625, 0.000000, -0.078125, 0.031250, 0.093750, -0.031250, 0.109375, -0.015625, -0.062500, -0.109375, 0.140625, 0.062500, -0.125000, 0.109375, -0.140625, 0.062500, 0.000000, -0.093750, 0.046875, 0.156250, 0.156250, -0.156250, 0.093750, 0.109375, 0.093750, -0.031250, -0.125000, 0.000000, -0.046875, -0.156250, 0.093750, 0.015625, 0.156250, 0.093750, -0.125000, 0.125000, -0.109375, -0.140625, -0.046875, 0.171875, -0.046875, -0.093750, 0.062500, 0.078125, -0.062500, -0.093750, 0.156250, 0.140625, 0.156250, 0.062500, -0.093750, 0.109375, 0.062500, 0.125000, -0.015625, -0.109375, 0.156250, 0.031250, -0.046875, -0.093750, -0.078125, 0.046875, 0.062500, -0.031250, 0.109375, -0.093750, -0.156250, 0.140625, 0.140625, 0.031250, -0.125000, 0.140625, 0.078125, 0.156250, 0.171875, -0.125000, 0.093750, 0.140625, 0.156250, 0.015625, -0.015625, 0.046875, -0.109375, -0.031250, 0.093750, -0.109375, -0.171875, -0.078125, -0.125000, 0.062500, 0.125000, -0.171875, 0.109375, 0.093750, -0.031250, -0.125000, 0.109375, -0.156250, -0.140625, 0.000000, 0.078125, 0.046875, 0.000000, -0.109375, -0.125000, -0.046875, 0.140625, -0.078125, 0.078125, -0.109375, -0.046875, -0.140625, 0.031250, 0.046875, -0.171875, -0.156250, 0.171875, -0.093750, 0.046875, -0.062500, -0.109375, 0.125000, 0.015625, -0.156250, 0.015625, 0.031250, 0.046875, 0.000000, 0.031250, 0.031250, 0.093750, 0.015625, 0.046875, 0.093750, -0.031250, -0.156250, 0.093750, 0.125000, 0.015625, 0.062500, -0.109375, 0.140625, 0.093750, -0.156250, 0.109375, -0.125000, 0.140625, -0.046875, 0.093750, 0.093750, -0.109375, -0.140625, 0.015625, 0.109375, -0.093750, -0.125000, 0.156250, -0.109375, -0.078125, -0.140625, 0.093750, -0.093750, 0.046875, -0.109375, 0.078125, -0.031250, 0.031250, 0.093750, 0.125000, 0.031250, -0.015625, 0.015625, 0.031250, -0.078125, 0.109375, 0.140625, 0.125000, -0.140625, -0.078125, 0.156250, -0.078125, -0.140625, -0.109375, 0.078125, 0.000000, 0.156250, -0.031250, 0.031250, 0.015625, -0.078125, -0.062500, -0.015625, -0.093750, 0.125000, 0.046875, 0.000000, -0.140625, -0.171875, -0.156250, 0.171875, 0.125000, 0.015625, 0.000000, -0.031250, -0.078125, -0.140625, 0.046875, 0.125000, 0.156250, 0.062500, -0.125000, 0.093750, 0.000000, -0.093750, -0.078125, 0.062500, 0.015625, -0.046875, -0.046875, 0.078125, 0.000000, -0.109375, 0.046875, 0.093750, -0.171875, -0.015625, -0.062500, 0.109375, 0.000000, 0.046875, -0.109375, 0.015625, -0.093750, -0.046875, -0.015625, 0.015625, 0.093750, -0.046875, 0.062500, 0.109375, 0.046875, 0.093750, -0.031250, -0.171875, 0.125000, -0.109375, 0.156250, 0.000000, -0.140625, 0.000000, -0.062500, 0.171875, -0.062500, -0.031250, -0.156250, 0.000000, 0.140625, 0.031250, -0.109375, 0.125000, 0.093750, 0.015625, -0.093750, -0.093750, 0.031250, 0.140625, 0.093750, 0.078125, 0.109375, -0.156250, 0.015625, 0.140625, 0.125000, -0.015625, -0.093750, 0.171875, 0.031250, -0.078125, 0.031250, -0.093750, -0.125000, -0.078125, 0.000000, 0.046875, 0.000000, 0.000000, -0.171875, -0.109375, -0.015625, 0.046875, 0.093750, -0.171875, 0.109375, 0.062500, 0.015625, -0.140625, 0.093750, -0.046875, 0.031250, -0.046875, -0.046875, 0.062500, -0.171875, -0.109375, 0.031250, 0.015625, -0.078125, -0.125000, -0.031250, -0.093750, 0.093750, -0.109375, 0.031250, 0.078125, -0.015625, -0.140625, 0.031250, -0.046875, 0.015625, 0.171875, 0.031250, -0.171875, 0.015625, 0.015625, 0.156250, 0.015625, 0.109375, -0.156250, -0.156250, 0.046875, 0.171875, 0.093750, -0.062500, 0.015625, 0.000000, 0.015625, -0.140625, -0.156250, -0.031250, 0.078125, 0.015625, -0.109375, 0.046875, -0.078125, -0.156250, 0.109375, 0.109375, -0.140625, 0.062500, -0.125000, -0.062500, -0.046875, 0.078125, -0.093750, 0.125000, 0.031250, 0.109375, 0.015625, -0.046875, 0.093750, -0.062500, 0.015625, -0.109375, 0.078125, -0.031250, 0.078125, 0.078125, 0.171875, -0.031250, -0.156250, 0.109375, -0.062500, 0.109375, 0.109375, 0.125000, 0.000000, 0.000000, -0.062500, 0.000000, 0.109375, -0.078125, 0.171875, -0.031250, 0.093750, 0.109375, 0.125000, 0.031250, 0.171875, -0.171875, -0.015625, 0.031250, 0.078125, -0.093750, -0.125000, -0.031250, 0.093750, 0.125000, 0.000000, -0.093750, -0.156250, 0.046875, 0.062500, -0.031250, 0.125000, -0.046875, -0.093750, -0.062500, -0.046875, 0.078125, 0.000000, -0.046875, -0.156250, 0.046875, -0.171875, -0.125000, 0.000000, -0.046875, 0.046875, -0.031250, 0.125000, -0.093750, -0.109375, 0.171875, -0.093750, -0.156250, -0.140625, 0.109375, -0.046875, -0.125000, 0.046875, 0.015625, -0.078125, 0.078125, 0.125000, 0.078125, -0.109375, -0.078125, -0.078125, 0.031250, 0.125000, -0.031250, -0.125000, 0.156250, 0.000000, 0.109375, 0.156250, -0.015625, 0.000000, 0.078125, 0.015625, -0.109375, -0.093750, 0.125000, 0.031250, -0.125000, 0.046875, 0.015625, 0.093750, -0.046875, 0.125000, 0.125000, 0.093750, 0.078125, 0.078125, 0.046875, -0.171875, 0.000000, -0.062500, 0.000000, 0.156250, -0.156250, -0.031250, -0.125000, 0.000000, 0.109375, 0.015625, -0.062500, 0.078125, 0.125000, -0.031250, 0.109375, -0.078125, -0.125000, 0.156250, 0.093750, -0.140625, -0.078125, -0.156250, 0.015625, 0.015625, 0.015625, -0.078125, 0.078125, 0.000000, 0.046875, 0.125000, -0.156250, 0.015625, -0.140625, 0.078125, 0.093750, 0.000000, -0.062500, -0.078125, -0.156250, 0.062500, -0.015625, -0.156250, 0.031250, 0.140625, -0.062500, 0.125000, 0.156250, 0.093750, 0.000000, 0.015625, -0.093750, 0.109375, 0.156250, 0.156250, 0.109375, -0.015625, 0.078125, 0.046875, -0.062500, -0.015625, 0.156250, 0.125000, -0.140625, 0.062500, -0.046875, -0.171875, -0.140625, -0.046875, -0.125000, 0.109375, 0.078125, 0.031250, -0.140625, -0.031250, 0.140625, 0.062500, 0.093750, -0.109375, 0.046875, -0.109375, 0.062500, 0.109375, -0.078125, -0.156250, -0.156250, -0.031250, -0.046875, -0.015625, -0.031250, 0.140625, -0.125000, 0.062500, -0.171875, -0.140625, 0.015625, -0.140625, -0.109375, -0.125000, 0.140625, -0.046875, -0.171875, 0.156250, 0.156250, 0.000000, -0.171875, -0.109375, -0.046875, 0.093750, 0.078125, -0.015625, -0.109375, 0.078125, -0.093750, 0.125000, -0.171875, -0.156250, -0.015625, -0.125000, -0.015625, -0.015625, -0.125000, -0.156250, -0.078125, -0.140625, -0.093750, 0.171875, 0.031250, -0.140625, 0.156250, -0.109375, -0.062500, 0.062500, -0.078125, -0.015625, -0.078125, 0.046875, 0.078125, -0.031250, -0.109375, -0.171875, -0.046875, -0.093750, 0.046875, -0.125000, -0.046875, 0.156250, 0.062500, -0.156250, 0.031250, -0.015625, 0.015625, -0.093750, -0.015625, -0.046875, -0.109375, 0.109375, -0.171875, 0.078125, -0.031250, 0.046875, 0.109375, 0.093750, 0.109375, -0.031250, -0.093750, 0.109375, -0.093750, -0.078125, -0.078125, -0.015625, -0.125000, 0.078125, 0.156250, 0.015625, -0.062500, -0.015625, 0.156250, 0.000000, -0.046875, 0.109375, 0.171875, 0.156250, 0.125000, -0.062500, 0.062500, 0.171875, -0.109375, -0.031250, 0.140625, -0.031250, -0.140625, 0.000000, 0.093750, -0.156250, -0.062500, 0.046875, 0.000000, 0.093750, -0.046875, 0.156250, -0.046875, 0.015625, -0.156250, 0.171875, 0.093750, -0.125000, 0.093750, 0.125000, -0.015625, 0.156250, -0.062500, -0.031250, -0.125000, 0.109375, 0.109375, -0.109375, 0.015625, -0.015625, 0.078125, 0.000000, 0.000000, -0.046875, 0.140625, -0.031250, 0.015625, -0.156250, 0.062500, 0.000000, 0.093750, -0.015625, -0.093750, 0.125000, 0.171875, 0.109375, 0.031250, 0.093750, 0.031250, 0.031250, -0.078125, -0.046875, -0.062500, 0.078125, -0.078125, -0.078125, -0.015625, 0.031250, 0.046875, 0.140625, 0.093750, -0.046875, 0.125000, 0.046875, -0.078125, -0.125000, -0.015625, -0.140625, -0.140625, -0.031250, -0.156250, -0.125000, -0.156250, 0.062500, -0.109375, 0.109375, -0.156250, 0.046875, 0.046875, 0.156250, 0.078125, -0.125000, 0.015625, -0.062500, 0.171875, -0.078125, -0.109375, -0.140625, 0.078125, -0.031250, -0.046875, 0.031250, 0.140625, -0.062500, 0.000000, 0.156250, 0.140625, -0.171875, 0.031250, -0.046875, -0.156250, 0.046875, -0.015625, -0.156250, 0.015625, -0.031250, 0.031250, 0.156250, 0.031250, -0.125000, -0.125000, -0.125000, -0.046875, -0.015625, 0.000000, 0.015625, -0.171875, 0.031250, -0.015625, 0.171875, -0.031250, -0.062500, 0.171875, 0.156250, -0.140625, 0.000000, 0.140625, 0.093750, -0.078125, -0.031250, 0.093750, 0.140625, 0.046875, -0.093750, -0.140625, 0.078125, 0.109375, -0.093750, -0.015625, -0.140625, 0.171875, -0.140625, 0.140625, -0.062500, -0.062500, 0.171875, -0.109375, 0.078125, -0.046875, 0.125000, 0.140625, 0.109375, 0.031250, -0.156250, -0.109375, 0.062500, -0.156250, -0.062500, 0.093750, -0.171875, -0.031250, -0.171875, -0.046875, -0.171875, 0.125000, 0.109375, 0.062500, 0.125000, 0.156250, -0.046875, 0.140625, -0.125000, -0.109375, 0.078125, 0.093750, 0.031250, 0.046875, -0.109375, -0.125000, 0.125000, 0.156250, -0.171875, 0.109375, -0.109375, -0.109375, -0.093750, -0.156250, 0.015625, 0.046875, -0.031250, 0.171875, 0.000000, -0.078125, -0.093750, 0.125000, -0.031250, -0.125000, 0.171875, -0.156250, 0.031250, 0.015625, -0.125000, 0.000000, 0.125000, -0.046875, 0.156250, -0.062500, -0.125000, 0.062500, -0.031250, 0.171875, -0.015625, 0.156250, -0.046875, 0.000000, 0.062500, -0.015625, -0.015625, -0.156250, 0.140625, -0.156250, 0.000000, -0.062500, 0.062500, 0.125000, 0.031250, 0.046875, 0.078125, 0.140625, 0.140625, 0.109375, 0.046875, 0.031250, 0.078125, 0.031250, 0.093750, -0.171875, 0.000000, -0.125000, -0.062500, -0.046875, -0.046875, -0.125000, 0.109375, -0.125000, 0.062500, 0.156250, 0.015625, 0.109375, -0.093750, 0.015625, 0.109375, -0.140625, -0.078125, -0.140625, -0.140625, -0.031250, 0.156250, -0.109375, 0.000000, -0.046875, 0.140625, -0.062500, -0.015625, -0.140625, 0.062500, 0.109375, 0.046875, 0.156250, -0.015625, -0.140625, -0.140625, -0.171875, -0.109375, 0.140625, 0.125000, -0.062500, -0.140625, -0.171875, -0.093750, -0.171875, -0.078125, 0.093750, 0.031250, 0.078125, -0.093750, -0.125000, -0.171875, 0.156250, -0.140625, 0.093750, 0.078125, 0.140625, 0.031250, -0.156250, 0.015625, -0.140625, -0.156250, 0.000000, -0.046875, 0.156250, -0.046875, -0.046875, 0.093750, 0.109375, 0.015625, 0.171875, -0.093750, 0.015625, 0.109375, 0.015625, 0.093750, -0.015625, 0.046875, 0.015625, 0.125000, 0.015625, -0.015625, 0.156250, 0.015625, -0.046875, 0.140625, -0.031250, -0.156250, -0.031250, 0.062500, -0.078125, -0.078125, -0.156250, 0.093750, 0.031250, 0.031250, -0.015625, -0.109375, -0.140625, -0.046875, 0.140625, 0.078125, 0.015625, 0.093750, -0.109375, 0.156250, 0.078125, 0.062500, -0.031250, 0.031250, -0.046875, 0.078125, 0.125000, 0.031250, -0.109375, -0.093750, 0.000000, -0.156250, 0.171875, -0.078125, -0.140625, 0.109375, -0.140625, 0.015625, -0.171875, 0.140625, 0.062500, -0.140625, -0.109375, -0.093750, -0.125000, 0.109375, 0.046875, 0.156250, -0.046875, -0.109375, 0.125000, -0.093750, -0.171875, -0.156250, 0.031250, 0.000000, -0.078125, -0.078125, -0.093750, -0.109375, 0.140625, 0.062500, -0.046875, -0.140625, 0.078125, 0.156250, 0.078125, 0.000000, 0.156250, -0.062500, -0.031250, -0.109375, -0.031250, 0.078125, -0.093750, 0.031250, -0.171875, 0.125000, -0.109375, -0.156250, -0.156250, -0.015625, -0.140625, 0.046875, -0.171875, -0.140625, 0.140625, -0.078125, 0.171875, 0.046875, 0.015625, -0.062500, 0.171875, -0.046875, 0.171875, -0.062500, 0.140625, -0.156250, 0.046875, 0.031250, 0.171875, -0.156250, -0.125000, 0.000000, 0.140625, -0.078125, -0.015625, -0.140625, -0.062500, 0.062500, 0.078125, -0.015625, -0.093750, 0.031250, -0.125000, 0.000000, 0.156250, 0.062500, -0.046875, -0.015625, 0.109375, 0.093750, -0.171875, 0.031250, 0.046875, 0.000000, 0.078125, 0.109375, 0.031250, -0.031250, -0.140625, -0.093750, 0.062500, 0.046875, -0.078125, -0.156250, -0.156250, 0.109375, -0.109375, 0.125000, -0.078125, 0.093750, -0.062500, -0.078125, 0.140625, 0.109375, -0.156250, -0.109375, -0.046875, 0.015625, -0.171875, 0.046875, 0.125000, 0.140625, 0.000000, 0.125000, -0.062500, -0.093750, 0.062500, -0.156250, -0.109375, 0.140625, 0.046875, 0.125000, 0.031250, -0.031250, -0.125000, 0.046875, 0.062500, 0.125000, 0.171875, -0.093750, 0.109375, 0.109375, 0.171875, 0.078125, 0.046875, 0.078125, -0.078125, -0.046875, 0.046875, -0.140625, 0.156250, 0.093750, -0.140625, -0.062500, -0.109375, -0.078125, 0.156250, -0.078125, 0.000000, -0.140625, 0.125000, -0.093750, 0.109375, -0.031250, -0.078125, -0.109375, 0.015625, 0.156250, 0.109375, 0.031250, -0.109375, 0.015625, 0.093750, -0.093750, 0.046875, -0.109375, 0.015625, -0.156250, 0.109375, -0.171875, 0.109375, 0.078125, 0.171875, -0.140625, -0.078125, -0.125000, -0.156250, 0.171875, 0.015625, -0.062500, -0.015625, 0.156250, -0.015625, -0.171875, -0.156250, -0.125000, 0.156250, -0.109375, -0.062500, -0.046875, 0.171875, 0.093750, -0.062500, -0.031250, -0.046875, 0.015625, 0.062500, -0.046875, -0.078125, 0.125000, 0.031250, 0.093750, 0.156250, 0.031250, -0.062500, -0.171875, -0.140625, -0.109375, -0.125000, 0.000000, 0.093750, 0.171875, 0.046875, -0.140625, 0.109375, -0.156250, -0.140625, -0.031250, 0.046875, 0.078125, 0.015625, 0.000000, -0.046875, -0.078125, 0.000000, 0.156250, 0.125000, -0.109375, 0.140625, -0.156250, -0.156250, -0.093750, 0.093750, -0.078125, -0.031250, -0.109375, -0.093750, -0.109375, -0.046875, -0.093750, 0.125000, 0.015625, 0.125000, -0.015625, 0.125000, 0.093750, -0.109375, 0.015625, 0.031250, 0.046875, -0.093750, -0.171875, 0.125000, -0.015625, -0.046875, -0.125000, 0.015625, 0.000000, 0.015625, 0.078125, -0.062500, 0.078125, -0.109375, 0.031250, -0.109375, 0.046875, 0.015625, -0.046875, -0.078125, -0.093750, -0.140625, -0.015625, 0.093750, -0.031250, 0.140625, -0.078125, 0.093750, 0.015625, 0.000000, -0.109375, -0.125000, 0.031250, 0.015625, -0.109375, -0.140625, 0.125000, 0.015625, -0.125000, 0.093750, -0.140625, 0.031250, 0.171875, -0.140625, 0.062500, -0.046875, 0.015625, -0.093750, -0.093750, -0.171875, 0.015625, 0.078125, -0.046875, -0.062500, -0.062500, -0.109375, 0.171875, 0.031250, 0.156250, 0.125000, 0.109375, 0.140625, 0.156250, 0.078125, -0.109375, -0.125000, -0.062500, 0.109375, 0.046875, 0.093750, 0.171875, 0.140625, 0.015625, -0.140625, 0.156250, 0.015625, 0.125000, -0.140625, 0.046875, -0.031250, 0.000000, 0.078125, 0.125000, 0.062500, 0.062500, 0.046875, 0.062500, 0.093750, -0.031250, -0.156250, -0.046875, -0.171875, -0.015625, 0.078125, 0.062500, -0.046875, -0.015625, 0.125000, 0.015625, -0.109375, 0.015625, 0.156250, 0.171875, 0.031250, -0.140625, -0.125000, -0.031250, 0.125000, -0.109375, 0.031250, -0.125000, -0.031250, -0.062500, 0.046875, 0.000000, 0.031250, 0.156250, 0.140625, -0.046875, -0.093750, 0.046875, -0.046875, 0.000000, 0.046875, 0.000000, 0.046875, 0.031250, -0.140625, 0.000000, -0.015625, -0.140625, 0.109375, -0.031250, -0.093750, -0.125000, -0.015625, 0.015625, 0.125000, -0.062500, 0.078125, 0.031250, 0.000000, 0.000000, -0.046875, 0.000000, 0.140625, 0.109375, 0.171875, 0.015625, 0.156250, 0.156250, -0.015625, -0.109375, -0.031250, -0.062500, -0.062500, -0.031250, 0.062500, -0.078125, 0.093750, 0.109375, 0.046875, -0.046875, 0.015625, -0.046875, 0.125000, 0.078125, 0.046875, -0.015625, -0.093750, 0.031250, 0.156250, -0.031250, -0.046875, -0.046875, 0.031250, -0.015625, -0.046875, -0.109375, 0.062500, 0.140625, 0.078125, -0.171875, 0.046875, 0.109375, 0.046875, 0.109375, -0.046875, -0.078125, 0.109375, 0.156250, 0.000000, 0.109375, 0.125000, 0.046875, -0.109375, -0.093750, -0.078125, 0.062500, 0.140625, -0.140625, -0.140625, 0.031250, 0.031250, 0.015625, 0.140625, 0.031250, -0.093750, -0.171875, 0.062500, 0.156250, -0.109375, 0.015625, 0.000000, 0.125000, -0.015625, 0.062500, -0.125000, -0.015625, -0.015625, 0.093750, 0.062500, 0.140625, 0.000000, -0.093750, 0.062500, -0.140625, 0.156250, -0.062500, -0.015625, 0.031250, -0.125000, 0.156250, -0.171875, -0.171875, -0.140625, -0.171875, 0.031250, 0.015625, 0.109375, -0.109375, -0.015625, 0.046875, 0.078125, -0.125000, 0.078125, -0.093750, 0.046875, 0.140625, 0.046875, 0.046875, 0.046875, -0.093750, -0.078125, 0.031250, 0.000000, 0.078125, -0.015625, 0.156250, 0.140625, 0.156250, 0.171875, -0.171875, -0.031250, -0.125000, -0.125000, 0.125000, 0.015625, -0.109375, 0.031250, -0.031250, -0.093750, 0.015625, 0.093750, 0.046875, 0.078125, -0.031250, -0.093750, -0.031250, -0.156250, 0.156250, -0.156250, -0.156250, -0.031250, 0.031250, -0.140625, -0.156250, 0.140625, -0.109375, 0.093750, -0.031250, -0.093750, -0.156250, 0.000000, 0.171875, -0.078125, -0.109375, 0.062500, 0.062500, -0.093750, 0.078125, 0.015625, -0.109375, 0.125000, 0.109375, 0.125000, 0.015625, -0.109375, -0.171875, 0.062500, 0.046875, -0.093750, -0.093750, -0.046875, -0.109375, 0.078125, 0.078125, 0.140625, 0.156250, -0.062500, -0.093750, 0.046875, 0.062500, 0.000000, -0.109375, -0.062500, 0.046875, 0.031250, 0.078125, 0.109375, -0.015625, -0.046875, 0.093750, 0.078125, 0.015625, 0.171875, 0.062500, 0.046875, -0.140625, 0.093750, 0.093750, 0.031250, 0.109375, 0.125000, 0.078125, -0.093750, 0.171875, -0.062500, -0.015625, 0.046875, -0.171875, 0.140625, -0.109375, 0.031250, 0.000000, -0.031250, -0.171875, 0.171875, -0.078125, 0.125000, -0.031250, -0.156250, 0.125000, -0.156250, -0.093750, -0.125000, 0.015625, -0.171875, 0.093750, -0.171875, -0.046875, 0.046875, 0.171875, 0.093750, -0.031250, -0.140625, 0.031250, 0.031250, -0.156250, 0.109375, -0.109375, 0.031250, 0.125000, -0.109375, 0.156250, 0.156250, 0.062500, -0.140625, -0.031250, -0.031250, -0.078125, 0.093750, 0.140625, 0.109375, -0.109375, 0.140625, 0.093750, 0.171875, -0.031250, 0.046875, 0.078125, 0.171875, -0.109375, 0.078125, 0.093750, -0.171875, -0.015625, 0.046875, -0.046875, 0.015625, 0.093750, 0.093750, -0.031250, -0.156250, -0.093750, 0.156250, 0.078125, 0.125000, -0.125000, 0.171875, 0.156250, 0.125000, -0.156250, 0.046875, 0.031250, -0.171875, -0.171875, 0.109375, 0.031250, 0.156250, -0.062500, -0.062500, 0.109375, -0.140625, 0.031250, 0.093750, 0.000000, 0.109375, 0.000000, -0.046875, -0.156250, -0.109375, 0.062500, -0.015625, 0.140625, 0.156250, -0.031250, -0.031250, 0.156250, -0.125000, 0.156250, -0.093750, -0.125000, 0.140625, -0.078125, -0.015625, -0.093750, -0.046875, 0.093750, -0.015625, -0.078125, 0.109375, -0.093750, 0.125000, -0.015625, 0.062500, -0.156250, 0.140625, -0.171875, -0.078125, -0.031250, 0.156250, -0.062500, 0.000000, -0.109375, 0.140625, 0.093750, -0.156250, 0.078125, -0.156250, -0.093750, 0.046875, 0.109375, 0.015625, -0.062500, 0.171875, -0.125000, 0.156250, 0.171875, -0.156250, 0.031250, 0.156250, 0.015625, -0.171875, -0.031250, -0.015625, 0.156250, -0.140625, 0.046875, -0.093750, -0.078125, 0.125000, -0.125000, 0.046875, 0.140625, -0.046875, 0.140625, -0.015625, 0.078125, 0.046875, 0.093750, 0.015625, -0.078125, 0.171875, 0.046875, -0.109375, 0.062500, 0.062500, -0.046875, 0.062500, 0.140625, 0.109375, -0.140625, -0.031250, -0.156250, -0.062500, 0.031250, 0.046875, -0.015625, 0.078125, -0.093750, -0.062500, 0.171875, -0.109375, 0.015625, 0.140625, 0.171875, 0.093750, -0.109375, 0.000000, -0.093750, -0.171875, 0.140625, 0.015625, 0.078125, -0.062500, -0.140625, 0.031250, 0.171875, 0.015625, 0.015625, 0.093750, 0.093750, -0.078125, 0.078125, 0.046875, -0.109375, 0.046875, -0.046875, -0.140625, -0.093750, -0.078125, 0.125000, 0.046875, -0.031250, 0.093750, -0.171875, 0.015625, 0.109375, 0.093750, -0.156250, 0.093750, 0.093750, -0.015625, 0.000000, -0.031250, 0.109375, 0.109375, -0.093750, 0.171875, 0.000000, -0.156250, -0.031250, 0.015625, -0.046875, 0.109375, -0.109375, 0.156250, -0.093750, -0.031250, -0.015625, -0.109375, -0.015625, -0.093750, -0.125000, -0.109375, 0.109375, -0.062500, -0.109375, 0.031250, 0.171875, -0.171875, 0.015625, -0.156250, -0.125000, -0.062500, 0.140625, 0.109375, -0.031250, -0.062500, 0.046875, 0.109375, -0.078125, 0.015625, -0.156250, -0.015625, -0.031250, -0.062500, -0.093750, 0.171875, -0.156250, -0.093750, -0.156250, 0.093750, 0.125000, -0.171875, 0.031250, -0.093750, -0.171875, 0.062500, -0.031250, 0.140625, -0.125000, 0.171875, -0.125000, -0.062500, -0.062500, -0.125000, 0.031250, 0.078125, 0.156250, 0.140625, -0.078125, 0.015625, 0.109375, -0.062500, -0.031250, 0.031250, -0.156250, -0.093750, 0.078125, 0.109375, -0.109375, 0.171875, 0.156250, 0.140625, 0.140625, -0.078125, 0.125000, 0.171875, -0.046875, -0.046875, 0.093750, -0.125000, -0.031250, 0.015625, 0.062500, -0.125000, -0.171875, -0.093750, -0.015625, 0.156250, 0.156250, 0.156250, -0.171875, -0.140625, -0.062500, -0.062500, -0.015625, 0.125000, 0.109375, -0.062500, -0.031250, 0.078125, 0.046875, 0.000000, 0.140625, -0.031250, 0.093750, -0.031250, 0.140625, -0.109375, 0.156250, -0.093750, 0.171875, -0.078125, 0.031250, 0.156250, -0.156250, 0.031250, -0.156250, -0.093750, 0.046875, -0.015625, 0.015625, 0.109375, 0.062500, 0.109375, 0.062500, 0.046875, 0.062500, -0.062500, -0.156250, 0.000000, -0.015625, -0.046875, 0.156250, -0.125000, -0.031250, 0.046875, -0.171875, 0.109375, -0.171875, 0.109375, 0.000000, 0.000000, 0.062500, -0.171875, -0.093750, -0.171875, -0.046875, 0.062500, 0.015625, 0.109375, -0.062500, -0.046875, -0.093750, 0.000000, 0.031250, -0.046875, 0.015625, 0.015625, -0.078125, -0.062500, 0.156250, 0.171875, 0.125000, 0.093750, 0.140625, -0.031250, -0.140625, -0.031250, 0.078125, -0.156250, 0.000000, 0.015625, 0.000000, -0.156250, 0.125000, 0.062500, -0.078125, -0.046875, 0.093750, 0.156250, 0.156250, -0.046875, 0.078125, -0.140625, 0.046875, -0.062500, -0.031250, -0.046875, -0.093750, 0.140625, 0.000000, 0.109375, 0.046875, 0.078125, -0.015625, -0.109375, 0.125000, 0.046875, -0.078125, 0.031250, 0.140625, 0.171875, 0.078125, -0.156250, -0.093750, 0.000000, 0.171875, 0.015625, 0.093750, -0.015625, 0.031250, 0.140625, -0.140625, -0.093750, -0.156250, 0.093750, -0.078125, -0.109375, 0.109375, -0.031250, -0.093750, -0.125000, -0.078125, -0.156250, -0.171875, -0.109375, -0.031250, -0.031250, 0.140625, 0.031250, -0.046875, 0.031250, 0.031250, -0.046875, 0.046875, 0.046875, -0.125000, 0.046875, 0.140625, 0.062500, 0.015625, -0.093750, 0.078125, 0.093750, 0.125000, -0.031250, -0.109375, 0.109375, 0.031250, -0.046875, -0.093750, 0.093750, 0.171875, 0.031250, 0.046875, -0.171875, -0.171875, 0.125000, -0.156250, 0.109375, -0.015625, -0.140625, -0.078125, 0.171875, 0.000000, 0.000000, -0.140625, 0.031250, 0.000000, 0.140625, -0.093750, 0.078125, 0.046875, -0.171875, -0.171875, -0.140625, -0.046875, -0.031250, 0.140625, 0.125000, 0.140625, -0.046875, 0.140625, 0.000000, 0.156250, -0.046875, 0.046875, 0.125000, -0.156250, 0.015625, -0.125000, 0.046875, -0.078125, 0.078125, 0.140625, 0.000000, -0.156250, -0.031250, -0.015625, -0.078125, -0.093750, 0.046875, -0.062500, 0.125000, -0.015625, -0.031250, 0.156250, -0.093750, 0.062500, -0.156250, -0.125000, 0.093750, -0.093750, -0.093750, 0.062500, -0.031250, 0.000000, -0.062500, -0.046875, -0.140625, 0.078125, -0.062500, 0.046875, -0.062500, -0.156250, -0.078125, 0.125000, -0.171875, -0.093750, -0.015625, 0.000000, -0.140625, -0.156250, 0.109375, -0.140625, 0.046875, 0.062500, 0.015625, 0.125000, 0.062500, 0.171875, -0.109375, 0.125000, 0.062500, -0.125000, -0.125000, 0.093750, -0.031250, -0.062500, 0.140625, -0.015625, 0.156250, -0.125000, 0.031250, -0.031250, 0.046875, 0.171875, 0.140625, 0.031250, -0.031250, -0.125000, -0.031250, 0.031250, -0.125000, 0.125000, 0.171875, 0.171875, 0.000000, 0.093750, 0.093750, -0.156250, 0.156250, 0.015625, -0.078125, 0.062500, 0.062500, 0.171875, -0.125000, 0.000000, 0.031250, 0.078125, -0.015625, 0.125000, -0.140625, -0.078125, -0.093750, -0.015625, -0.171875, 0.031250, 0.078125, 0.078125, -0.046875, 0.046875, -0.171875, 0.140625, -0.031250, -0.156250, 0.015625, 0.062500, -0.093750, -0.062500, 0.125000, -0.093750, -0.125000, -0.015625, -0.109375, 0.015625, -0.031250, 0.171875, -0.109375, 0.109375, 0.109375, 0.062500, -0.078125, -0.031250, -0.078125, -0.156250, -0.140625, -0.078125, 0.078125, 0.140625, -0.109375, 0.093750, -0.031250, -0.140625, 0.125000, 0.171875, -0.171875, 0.078125, -0.171875, 0.125000, 0.125000, -0.171875, 0.125000, -0.078125, -0.046875, 0.078125, 0.156250, 0.015625, -0.156250, 0.140625, 0.125000, -0.109375, -0.109375, -0.140625, 0.015625, -0.015625, -0.171875, -0.156250, 0.109375, 0.000000, 0.015625, 0.015625, 0.046875, 0.078125, -0.062500, 0.109375, -0.125000, -0.156250, -0.062500, 0.156250, -0.140625, -0.156250, -0.078125, -0.078125, 0.031250, 0.078125, 0.031250, 0.000000, 0.093750, 0.015625, 0.062500, -0.093750, 0.046875, -0.156250, -0.046875, 0.109375, 0.031250, 0.062500, -0.015625, 0.109375, -0.156250, 0.171875, -0.125000, 0.125000, 0.078125, -0.125000, -0.093750, 0.125000, 0.140625, 0.031250, 0.156250, -0.062500, -0.156250, -0.046875, -0.093750, 0.140625, -0.156250, -0.171875, -0.125000, -0.156250, -0.031250, 0.062500, -0.109375, -0.031250, -0.015625, -0.078125, -0.156250, -0.093750, -0.031250, -0.093750, 0.000000, -0.078125, 0.140625, 0.140625, 0.171875, -0.093750, 0.078125, -0.015625, 0.109375, 0.031250, 0.156250, 0.093750, -0.125000, -0.109375, 0.046875, -0.140625, 0.171875, 0.078125, 0.000000, 0.093750, -0.140625, 0.171875, 0.156250, 0.046875, -0.093750, 0.062500, -0.140625, 0.078125, -0.140625, -0.031250, -0.093750, -0.093750, -0.140625, 0.062500, 0.062500, 0.140625, 0.156250, 0.125000, 0.093750, -0.156250, -0.078125, 0.093750, -0.140625, -0.046875, 0.171875, -0.156250, -0.078125, -0.125000, 0.125000, 0.015625, -0.015625, 0.031250, 0.156250, 0.046875, 0.000000, 0.171875, -0.046875, 0.062500, -0.046875, -0.062500, 0.140625, -0.140625, -0.062500, 0.109375, 0.078125, -0.171875, -0.140625, -0.031250, -0.046875, -0.093750, 0.046875, 0.078125, -0.062500, -0.156250, -0.156250, -0.140625, 0.109375, -0.109375, 0.093750, 0.156250, -0.015625, -0.046875, -0.046875, -0.140625, 0.000000, -0.171875, -0.062500, -0.125000, 0.015625, -0.015625, -0.078125, -0.031250, -0.156250, -0.078125, -0.046875, -0.093750, 0.140625, 0.062500, -0.078125, 0.140625, -0.062500, -0.031250, 0.140625, -0.062500, -0.109375, 0.156250, -0.156250, 0.000000, -0.046875, 0.031250, 0.000000, -0.109375, 0.109375, 0.109375, 0.078125, 0.125000, -0.062500, 0.015625, -0.015625, -0.140625, -0.125000, 0.031250, -0.046875, 0.031250, -0.015625, -0.062500, 0.062500, 0.140625, 0.156250, 0.140625, 0.125000, -0.109375, -0.015625, -0.046875, 0.062500, -0.093750, -0.015625, -0.156250, -0.156250, -0.171875, -0.062500, -0.078125, 0.093750, 0.015625, 0.015625, -0.078125, -0.125000, -0.156250, -0.140625, -0.046875, -0.015625, 0.000000, 0.031250, 0.000000, 0.046875, -0.031250, 0.093750, -0.140625, -0.046875, 0.171875, -0.171875, -0.093750, -0.109375, -0.078125, 0.125000, -0.046875, 0.015625, -0.062500, 0.046875, 0.015625, 0.015625, -0.078125, -0.156250, 0.015625, 0.046875, -0.093750, 0.140625, -0.062500, 0.046875, 0.015625, 0.062500, -0.078125, -0.078125, -0.015625, 0.000000, -0.156250, -0.046875, 0.000000, 0.046875, 0.109375, 0.078125, 0.156250, 0.093750, 0.000000, 0.125000, 0.000000, -0.031250, -0.156250, -0.156250, 0.015625, 0.000000, 0.156250, -0.046875, -0.140625, -0.015625, -0.140625, 0.078125, 0.062500, -0.171875, -0.093750, -0.156250, -0.062500, 0.093750, 0.062500, 0.125000, 0.109375, -0.140625, 0.109375, 0.125000, 0.046875, -0.109375, -0.015625, -0.125000, -0.046875, -0.140625, -0.015625, 0.093750, 0.093750, 0.046875, -0.156250, -0.015625, -0.156250, 0.031250, -0.031250, -0.062500, -0.140625, 0.125000, 0.093750, 0.046875, 0.078125, -0.062500, 0.125000, 0.000000, -0.078125, 0.093750, -0.062500, 0.171875, -0.171875, 0.031250, 0.171875, 0.140625, 0.078125, -0.062500, 0.093750, 0.125000, 0.062500, 0.000000, 0.062500, 0.140625, 0.093750, 0.046875, 0.062500, -0.031250, -0.125000, 0.078125, 0.171875, 0.015625, 0.031250, -0.125000, -0.078125, -0.125000, 0.046875, -0.156250, 0.109375, 0.171875, 0.000000, 0.109375, 0.125000, 0.046875, -0.046875, -0.046875, 0.046875, 0.031250, -0.125000, 0.109375, 0.156250, -0.125000, 0.078125, 0.000000, -0.078125, -0.140625, 0.125000, -0.171875, 0.046875, 0.062500, 0.078125, 0.062500, 0.125000, -0.046875, -0.093750, -0.093750, -0.062500, 0.125000, 0.171875, 0.171875, -0.062500, 0.171875, -0.015625, 0.093750, 0.000000, 0.109375, -0.046875, -0.125000, -0.046875, 0.109375, 0.140625, 0.156250, -0.109375, -0.046875, 0.046875, -0.109375, 0.093750, 0.156250, -0.093750, 0.015625, 0.109375, -0.140625, -0.140625, -0.125000, -0.093750, -0.015625, 0.125000, -0.171875, -0.125000, 0.062500, 0.093750, 0.062500, 0.109375, -0.078125, -0.031250, -0.140625, -0.046875, 0.125000, 0.171875, -0.109375, 0.093750, -0.125000, 0.125000, -0.062500, -0.046875, -0.078125, -0.125000, -0.031250, -0.156250, -0.062500, 0.171875, 0.171875, -0.015625, -0.125000, 0.078125, 0.140625, 0.125000, 0.109375, 0.000000, -0.109375, 0.015625, -0.062500, -0.046875, -0.062500, 0.125000, -0.171875, 0.078125, 0.125000, 0.109375, -0.171875, 0.078125, -0.093750, 0.031250, 0.000000, 0.125000, 0.125000, 0.046875, -0.140625, 0.031250, 0.171875, 0.109375, -0.109375, -0.015625, -0.156250, 0.078125, 0.140625, 0.125000, 0.046875, 0.000000, 0.171875, -0.156250, 0.093750, -0.140625, -0.125000, -0.093750, 0.156250, -0.031250, 0.125000, 0.078125, 0.078125, -0.062500, 0.125000, -0.171875, -0.062500, 0.156250, 0.109375, 0.031250, -0.046875, -0.078125, 0.031250, 0.093750, 0.156250, 0.140625, -0.140625, -0.093750, 0.156250, 0.093750, 0.125000, 0.031250, -0.062500, 0.062500, 0.015625, 0.078125, 0.015625, -0.078125, 0.031250, -0.171875, 0.015625, 0.156250, -0.125000, -0.171875, 0.140625, -0.046875, -0.078125, -0.140625, 0.031250, -0.078125, 0.109375, 0.015625, -0.156250, -0.031250, 0.078125, 0.109375, -0.015625, 0.140625, 0.093750, 0.000000, -0.062500, 0.140625, 0.046875, -0.171875, -0.015625, 0.109375, -0.109375, -0.140625, -0.140625, -0.078125, 0.062500, -0.093750, 0.140625, 0.078125, 0.015625, 0.125000, -0.171875, -0.156250, 0.062500, -0.125000, 0.109375, -0.156250, -0.125000, 0.125000, -0.015625, -0.156250, -0.125000, 0.171875, 0.109375, 0.125000, 0.140625, 0.093750, -0.078125, -0.156250, 0.171875, -0.140625, 0.000000, -0.015625, 0.062500, -0.031250, 0.031250, 0.109375, -0.093750, 0.109375, -0.156250, 0.093750, 0.000000, -0.156250, -0.093750, -0.062500, 0.140625, -0.140625, -0.125000, 0.093750, 0.000000, 0.093750, -0.015625, 0.046875, 0.015625, -0.093750, -0.140625, 0.046875, 0.000000, 0.171875, 0.171875, 0.109375, -0.093750, 0.046875, 0.031250, 0.109375, -0.140625, 0.109375, 0.109375, 0.078125, 0.093750, 0.031250, -0.046875, 0.171875, -0.078125, 0.000000, 0.109375, 0.031250, 0.140625, 0.062500, 0.093750, -0.031250, -0.078125, -0.078125, 0.109375, 0.125000, 0.062500, 0.140625, -0.156250, 0.031250, 0.156250, 0.125000, 0.031250, 0.015625, -0.031250, -0.093750, 0.000000, 0.078125, -0.171875, 0.171875, -0.125000, 0.000000, -0.125000, -0.125000, -0.109375, 0.000000, 0.140625, -0.078125, -0.078125, 0.015625, -0.046875, -0.046875, 0.140625, 0.093750, -0.062500, -0.093750, -0.140625, 0.125000, -0.078125, 0.031250, -0.093750, -0.031250, 0.046875, 0.062500, 0.140625, -0.062500, -0.031250, -0.031250, -0.078125, 0.015625, 0.046875, 0.046875, 0.093750, 0.078125, 0.093750, -0.140625, -0.171875, -0.125000, 0.171875, 0.125000, 0.078125, -0.015625, 0.078125, 0.015625, 0.156250, 0.031250, 0.109375, -0.093750, 0.078125, -0.031250, -0.062500, -0.171875, -0.125000, -0.078125, -0.156250, -0.125000, -0.109375, -0.171875, -0.078125, -0.093750, -0.015625, -0.031250, 0.078125, 0.015625, -0.031250, -0.031250, -0.093750, -0.031250, -0.140625, 0.093750, 0.156250, 0.125000, 0.093750, 0.171875, 0.171875, 0.062500, 0.140625, 0.031250, 0.000000, -0.031250, 0.000000, 0.046875, -0.031250, 0.156250, 0.156250, 0.015625, 0.078125, 0.062500, 0.031250, -0.078125, -0.015625, -0.078125, -0.109375, -0.156250, -0.156250, 0.125000, 0.109375, 0.109375, -0.156250, 0.171875, -0.031250, -0.125000, 0.156250, -0.078125, -0.062500, -0.078125, -0.046875, 0.031250, -0.109375, -0.078125, 0.093750, -0.109375, -0.171875, 0.093750, 0.046875, -0.031250, -0.171875, 0.062500, 0.125000, 0.000000, 0.062500, -0.031250, 0.062500, -0.156250, -0.046875, -0.171875, -0.093750, 0.000000, -0.093750, 0.000000, 0.140625, -0.125000, -0.140625, -0.093750, 0.140625, -0.156250, -0.078125, 0.015625, -0.046875, 0.078125, -0.031250, 0.109375, -0.156250, 0.000000, -0.062500, -0.140625, 0.125000, 0.031250, -0.031250, -0.156250, -0.078125, -0.093750, -0.140625, -0.156250, 0.062500, 0.093750, 0.031250, 0.078125, 0.078125, 0.000000, 0.000000, 0.046875, 0.125000, 0.125000, -0.078125, -0.140625, 0.062500, -0.140625, -0.078125, -0.171875, 0.031250, 0.156250, -0.171875, 0.046875, 0.156250, 0.031250, 0.031250, -0.171875, 0.140625, -0.093750, 0.125000, -0.046875, -0.062500, 0.140625, -0.109375, -0.031250, 0.078125, 0.046875, 0.093750, -0.171875, -0.093750, 0.062500, -0.156250, 0.078125, -0.140625, -0.078125, 0.078125, 0.156250, 0.015625, -0.140625, -0.015625, 0.109375, 0.171875, 0.015625, -0.031250, 0.156250, 0.015625, -0.046875, 0.062500, -0.109375, 0.171875, -0.156250, -0.109375, -0.062500, 0.125000, 0.015625, 0.140625, -0.156250, 0.046875, -0.046875, -0.062500, 0.015625, 0.140625, 0.156250, -0.125000, -0.062500, 0.031250, 0.031250, -0.015625, -0.046875, -0.078125, 0.156250, 0.093750, -0.031250, 0.140625, 0.109375, -0.046875, -0.140625, 0.109375, -0.015625, 0.015625, 0.156250, -0.015625, -0.031250, 0.000000, -0.171875, -0.109375, 0.125000, -0.015625, 0.078125, -0.062500, 0.109375, -0.015625, -0.015625, 0.031250, 0.125000, -0.125000, 0.171875, -0.093750, 0.000000, -0.093750, -0.156250, -0.109375, 0.093750, 0.000000, -0.093750, -0.093750, -0.156250, -0.156250, -0.093750, 0.031250, 0.109375, -0.125000, 0.093750, 0.062500, -0.078125, 0.015625, 0.078125, 0.000000, 0.156250, 0.109375, 0.046875, -0.078125, 0.093750, -0.046875, 0.078125, 0.171875, 0.109375, 0.109375, -0.140625, 0.093750, -0.078125, -0.078125, -0.156250, -0.140625, -0.140625, 0.156250, -0.062500, 0.156250, -0.015625, -0.062500, 0.125000, 0.140625, 0.015625, -0.156250, -0.093750, -0.093750, 0.031250, 0.015625, -0.171875, 0.046875, -0.093750, -0.078125, 0.125000, 0.031250, 0.015625, -0.015625, -0.015625, 0.093750, -0.156250, 0.140625, 0.062500, 0.000000, 0.031250, 0.109375, 0.109375, 0.000000, 0.125000, 0.000000, 0.015625, -0.031250, -0.015625, 0.125000, 0.109375, -0.109375, 0.156250, -0.015625, -0.078125, -0.156250, 0.125000, -0.156250, -0.015625, 0.093750, 0.000000, -0.046875, 0.156250, -0.078125, -0.078125, 0.171875, 0.109375, 0.078125, 0.031250, 0.109375, 0.125000, 0.109375, 0.093750, 0.140625, 0.062500, -0.171875, -0.140625, 0.171875, -0.046875, -0.140625, 0.078125, -0.109375, -0.125000, 0.000000, 0.046875, -0.140625, 0.109375, 0.125000, -0.046875, -0.125000, 0.015625, -0.171875, -0.093750, -0.078125, -0.093750, -0.140625, 0.140625, 0.078125, -0.078125, 0.000000, 0.046875, 0.015625, 0.015625, 0.046875, 0.140625, 0.046875, -0.140625, 0.140625, 0.015625, 0.000000, 0.109375, -0.031250, -0.125000, 0.031250, 0.093750, -0.140625, -0.109375, -0.156250, 0.046875, 0.000000, 0.125000, 0.000000, -0.046875, 0.062500, -0.109375, 0.156250, 0.031250, 0.109375, 0.031250, -0.125000, 0.109375, 0.046875, -0.078125, 0.000000, 0.046875, 0.062500, 0.062500, -0.093750, 0.015625, 0.062500, 0.125000, 0.125000, 0.109375, -0.109375, 0.093750, -0.156250, -0.015625, 0.000000, -0.046875, -0.062500, 0.015625, -0.171875, 0.015625, 0.140625, -0.140625, -0.093750, -0.125000, -0.031250, 0.062500, -0.109375, -0.046875, 0.015625, 0.000000, -0.031250, 0.171875, 0.015625, -0.125000, 0.046875, -0.171875, 0.171875, -0.062500, -0.171875, 0.062500, -0.031250, 0.015625, 0.046875, -0.109375, 0.078125, -0.015625, 0.171875, -0.140625, -0.125000, -0.140625, 0.000000, -0.171875, 0.031250, 0.109375, -0.015625, 0.093750, 0.109375, 0.078125, 0.093750, 0.078125, 0.171875, -0.062500, 0.156250, -0.171875, -0.031250, 0.046875, 0.156250, -0.171875, -0.140625, -0.171875, -0.156250, 0.109375, 0.062500, -0.046875, -0.078125, 0.125000, 0.000000, 0.140625, 0.109375, 0.125000, -0.062500, -0.093750, -0.109375, 0.000000, -0.062500, -0.062500, -0.125000, -0.046875, 0.015625, 0.140625, -0.156250, -0.031250, -0.046875, -0.125000, -0.015625, -0.062500, 0.125000, 0.000000, 0.015625, 0.171875, -0.125000, -0.078125, 0.093750, 0.015625, 0.031250, 0.156250, 0.093750, -0.031250, 0.109375, 0.109375, -0.125000, -0.109375, 0.093750, 0.062500, -0.078125, 0.015625, 0.031250, -0.078125, -0.171875, 0.140625, 0.140625, -0.093750, -0.046875, -0.031250, 0.171875, 0.015625, 0.093750, -0.125000, 0.000000, -0.046875, -0.125000, 0.156250, 0.062500, 0.093750, 0.125000, 0.015625, 0.078125, -0.171875, -0.078125, -0.156250, -0.156250, -0.046875, -0.015625, 0.171875, 0.062500, 0.109375, 0.109375, -0.109375, -0.078125, -0.046875, -0.109375, 0.109375, -0.125000, -0.171875, 0.140625, -0.031250, 0.078125, -0.078125, -0.062500, 0.015625, 0.125000, 0.046875, 0.015625, 0.078125, 0.015625, -0.062500, 0.140625, -0.171875, -0.078125, 0.156250, -0.093750, -0.078125, -0.156250, 0.078125, 0.078125, 0.031250, -0.125000, 0.062500, -0.125000, 0.078125, -0.093750, -0.109375, 0.046875, -0.156250, -0.046875, -0.062500, 0.078125, -0.078125, -0.031250, 0.125000, 0.000000, -0.046875, 0.125000, -0.031250, -0.125000, 0.046875, -0.109375, 0.125000, -0.140625, 0.109375, 0.171875, -0.171875, -0.171875, 0.062500, 0.093750, -0.031250, -0.015625, 0.093750, -0.125000, -0.015625, 0.046875, 0.125000, 0.062500, -0.156250, 0.093750, 0.062500, 0.156250, 0.093750, 0.093750, -0.109375, 0.015625, -0.046875, -0.140625, -0.015625, 0.140625, -0.109375, 0.171875, -0.031250, 0.078125, -0.046875, 0.125000, 0.078125, 0.140625, 0.125000, -0.015625, 0.078125, -0.109375, -0.109375, 0.109375, 0.140625, 0.078125, 0.125000, -0.140625, 0.171875, 0.093750, 0.000000, 0.000000, 0.171875, -0.171875, 0.062500, -0.078125, -0.140625, -0.078125, 0.000000, 0.078125, -0.109375, -0.171875, 0.015625, 0.000000, -0.062500, 0.000000, 0.125000, 0.156250, -0.046875, -0.156250, -0.046875, 0.015625, -0.156250, 0.015625, 0.015625, -0.140625, 0.015625, -0.109375, -0.109375, 0.125000, 0.140625, 0.140625, 0.093750, -0.046875, 0.062500, -0.140625, 0.109375, 0.046875, -0.171875, -0.031250, 0.140625, 0.156250, -0.140625, 0.156250, -0.125000, -0.140625, -0.125000, 0.062500, 0.109375, 0.171875, 0.125000, -0.109375, -0.125000, 0.015625, -0.109375, -0.062500, 0.031250, -0.093750, -0.109375, 0.093750, 0.015625, 0.046875, 0.015625, -0.109375, 0.093750, -0.062500, -0.109375, -0.031250, 0.109375, 0.171875, -0.031250, -0.125000, 0.140625, -0.109375, 0.140625, 0.000000, -0.015625, -0.156250, -0.093750, -0.156250, -0.078125, 0.046875, -0.140625, -0.156250, 0.031250, -0.046875, 0.156250, 0.000000, 0.062500, 0.109375, -0.078125, 0.125000, 0.093750, 0.109375, 0.078125, -0.093750, 0.015625, 0.078125, -0.140625, -0.125000, -0.125000, 0.125000, -0.171875, -0.015625, 0.140625, 0.093750, 0.015625, 0.156250, -0.109375, 0.125000, 0.125000, 0.015625, -0.140625, -0.140625, -0.125000, 0.171875, -0.109375, -0.140625, 0.171875, 0.015625, 0.140625, 0.062500, 0.078125, 0.093750, 0.000000, -0.046875, 0.046875, 0.000000, 0.031250, -0.140625, 0.078125, -0.093750, -0.093750, -0.109375, -0.062500, -0.031250, -0.125000, -0.046875, -0.078125, 0.078125, -0.062500, -0.109375, -0.171875, 0.062500, -0.031250, -0.140625, -0.031250, 0.156250, -0.015625, 0.171875, 0.046875, -0.062500, -0.031250, -0.078125, 0.156250, -0.078125, 0.078125, 0.140625, 0.140625, 0.078125, -0.078125, 0.000000, -0.015625, 0.125000, 0.078125, 0.093750, 0.140625, 0.171875, 0.125000, -0.171875, -0.046875, -0.125000, -0.046875, 0.140625, -0.125000, 0.000000, -0.062500, 0.125000, 0.125000, -0.046875, 0.015625, 0.031250, -0.140625, 0.140625, -0.109375, 0.046875, -0.125000, -0.156250, -0.093750, 0.015625, -0.046875, 0.000000, 0.125000, 0.093750, -0.125000, 0.093750, -0.062500, 0.140625, -0.093750, -0.078125, -0.078125, -0.125000, 0.078125, 0.031250, 0.046875, -0.156250, 0.062500, 0.125000, -0.109375, -0.046875, 0.046875, 0.031250, -0.125000, 0.156250, 0.031250, 0.062500, -0.171875, -0.015625, -0.140625, 0.015625, 0.031250, 0.000000, -0.062500, -0.093750, 0.062500, -0.015625, -0.031250, 0.093750, -0.046875, 0.062500, 0.125000, -0.125000, -0.125000, -0.109375, 0.171875, -0.093750, -0.156250, -0.062500, 0.125000, -0.015625, -0.031250, -0.031250, 0.171875, -0.109375, 0.125000, 0.015625, -0.062500, 0.046875, -0.078125, -0.109375, 0.171875, -0.156250, 0.125000, 0.046875, -0.062500, -0.062500, 0.140625, 0.140625, 0.093750, -0.062500, 0.171875, -0.109375, 0.140625, -0.140625, 0.062500, -0.156250, 0.171875, 0.140625, -0.078125, -0.046875, 0.078125, -0.140625, -0.062500, -0.140625, -0.078125, -0.125000, 0.031250, 0.156250, -0.015625, 0.109375, -0.125000, -0.109375, 0.156250, -0.125000, -0.125000, 0.015625, 0.078125, 0.078125, -0.125000, 0.140625, 0.015625, -0.078125, -0.140625, -0.125000, -0.093750, -0.062500, 0.078125, -0.031250, -0.062500, 0.093750, -0.109375, -0.015625, -0.078125, 0.125000, 0.140625, 0.171875, -0.125000, 0.062500, -0.031250, 0.062500, 0.031250, 0.031250, -0.109375, -0.140625, -0.140625, 0.031250, -0.078125, -0.078125, 0.031250, -0.078125, 0.140625, 0.000000, -0.109375, -0.078125, -0.140625, 0.078125, 0.171875, 0.000000, 0.093750, -0.031250, -0.015625, 0.093750, -0.031250, 0.015625, -0.093750, 0.109375, -0.031250, -0.015625, 0.046875, -0.093750, 0.000000, -0.046875, -0.109375, -0.031250, -0.156250, 0.140625, 0.125000, 0.109375, 0.015625, -0.140625, 0.031250, -0.140625, 0.031250, 0.140625, 0.125000, 0.078125, -0.046875, 0.062500, -0.125000, 0.078125, -0.046875, -0.062500, 0.078125, -0.140625, -0.078125, -0.171875, 0.171875, 0.046875, 0.046875, -0.156250, -0.171875, -0.125000, -0.015625, 0.000000, -0.109375, 0.093750, 0.156250, -0.125000, -0.015625, -0.015625, 0.000000, 0.046875, -0.125000, 0.031250, -0.031250, -0.109375, -0.156250, 0.078125, -0.031250, -0.156250, 0.156250, -0.156250, -0.078125, 0.109375, 0.031250, 0.156250, -0.031250, 0.109375, -0.093750, 0.000000, -0.015625, 0.156250, 0.062500, -0.031250, 0.031250, 0.046875, -0.140625, -0.140625, 0.015625, -0.109375, 0.000000, -0.156250, 0.156250, 0.046875, 0.156250, -0.031250, -0.046875, -0.046875, -0.078125, 0.171875, 0.062500, 0.046875, 0.000000, -0.125000, 0.093750, 0.171875, -0.015625, 0.078125, 0.109375, 0.125000, 0.000000, 0.140625, -0.125000, 0.093750, 0.093750, 0.125000, 0.062500, 0.093750, 0.000000, 0.171875, -0.156250, -0.171875, 0.000000, 0.093750, -0.140625, -0.015625, -0.109375, 0.093750, -0.109375, 0.000000, -0.140625, 0.062500, 0.000000, 0.062500, -0.015625, 0.156250, 0.062500, -0.015625, -0.171875, -0.046875, 0.171875, 0.125000, 0.109375, -0.031250, 0.015625, 0.031250, 0.093750, -0.156250, 0.140625, 0.062500, -0.078125, -0.125000, -0.093750, -0.093750, -0.093750, -0.109375, -0.031250, 0.062500, 0.062500, -0.171875, 0.031250, 0.078125, 0.109375, 0.046875, 0.078125, -0.046875, -0.109375, 0.125000, 0.000000, -0.125000, 0.125000, -0.046875, -0.015625, 0.000000, 0.031250, 0.000000, 0.093750, 0.000000, -0.125000, 0.171875, 0.015625, -0.078125, -0.031250, 0.062500, -0.109375, -0.015625, -0.140625, -0.171875, 0.031250, 0.109375, 0.062500, -0.031250, 0.109375, -0.062500, 0.125000, 0.156250, 0.000000, -0.140625, 0.000000, -0.156250, -0.140625, 0.015625, 0.078125, -0.015625, -0.046875, -0.171875, -0.140625, -0.156250, -0.031250, -0.156250, 0.062500, -0.078125, 0.031250, -0.171875, -0.031250, -0.156250, 0.093750, 0.140625, 0.078125, 0.140625, 0.156250, 0.062500, -0.062500, 0.093750, -0.109375, 0.015625, -0.093750, 0.046875, -0.031250, 0.031250, 0.015625, 0.078125, 0.140625, 0.171875, 0.015625, -0.156250, -0.093750, -0.015625, -0.046875, -0.046875, 0.093750, 0.109375, 0.031250, -0.031250, 0.140625, 0.015625, -0.078125, 0.062500, -0.046875, -0.140625, -0.015625, -0.046875, -0.093750, 0.093750, -0.171875, -0.171875, -0.109375, -0.062500, 0.109375, -0.156250, -0.046875, 0.000000, -0.109375, 0.078125, -0.031250, 0.140625, 0.109375, -0.078125, -0.171875, -0.031250, -0.171875, -0.031250, 0.156250, 0.109375, 0.156250, 0.140625, 0.140625, 0.062500, 0.062500, 0.156250, 0.062500, 0.109375, -0.171875, -0.046875, 0.156250, 0.046875, 0.093750, -0.062500, -0.125000, 0.046875, 0.156250, -0.109375, 0.015625, -0.140625, -0.125000, 0.140625, 0.109375, 0.046875, 0.000000, -0.140625, -0.156250, 0.140625, 0.125000, -0.093750, 0.140625, -0.078125, -0.171875, 0.031250, -0.156250, 0.171875, -0.140625, -0.093750, 0.156250, -0.125000, 0.062500, 0.140625, 0.093750, -0.078125, 0.015625, 0.156250, -0.046875, 0.171875, 0.031250, -0.156250, 0.000000, -0.062500, -0.031250, -0.171875, 0.109375, 0.015625, -0.171875, -0.031250, 0.093750, 0.015625, -0.140625, 0.109375, 0.015625, 0.109375, -0.171875, -0.031250, -0.156250, -0.156250, 0.000000, 0.000000, 0.000000, 0.046875, -0.171875, 0.015625, -0.156250, 0.140625, -0.171875, 0.109375, 0.000000, 0.000000, -0.015625, -0.156250, -0.046875, -0.140625, 0.062500, -0.046875, -0.125000, 0.093750, -0.109375, -0.140625, -0.156250, 0.156250, 0.125000, -0.078125, 0.031250, 0.109375, 0.171875, 0.109375, 0.000000, -0.093750, -0.062500, -0.125000, -0.125000, 0.093750, -0.156250, -0.140625, 0.125000, -0.093750, -0.031250, -0.046875, 0.078125, 0.078125, -0.062500, 0.156250, -0.031250, 0.125000, 0.171875, -0.125000, -0.062500, 0.000000, 0.046875, -0.140625, -0.062500, -0.015625, -0.078125, 0.156250, -0.156250, -0.109375, 0.156250, -0.140625, -0.171875, 0.078125, -0.109375, -0.046875, 0.000000, -0.093750, 0.015625, -0.031250, 0.093750, 0.093750, -0.046875, 0.031250, -0.093750, 0.109375, -0.046875, 0.156250, -0.156250, 0.046875, 0.093750, 0.046875, 0.109375, -0.171875, -0.140625, -0.156250, 0.140625, 0.015625, 0.125000, 0.046875, -0.109375, -0.140625, -0.046875, 0.140625, -0.093750, 0.062500, -0.171875, 0.000000, 0.156250, 0.140625, -0.125000, 0.000000, -0.125000, 0.109375, -0.046875, -0.109375, 0.062500, 0.015625, 0.093750, -0.031250, 0.109375, -0.062500, 0.078125, -0.156250, -0.109375, 0.031250, 0.156250, 0.015625, 0.125000, -0.093750, -0.062500, 0.031250, 0.015625, 0.078125, -0.093750, 0.125000, -0.140625, -0.031250, 0.031250, -0.031250, -0.078125, -0.156250, 0.125000, 0.031250, -0.140625, 0.015625, 0.046875, 0.125000, 0.171875, 0.015625, 0.140625, 0.046875, 0.062500, 0.031250, -0.125000, 0.062500, -0.093750, 0.140625, -0.093750, 0.000000, 0.046875, 0.062500, -0.031250, 0.078125, 0.015625, -0.125000, 0.156250, 0.031250, -0.062500, -0.093750, 0.000000, -0.109375, 0.078125, 0.125000, 0.140625, -0.015625, -0.031250, 0.015625, 0.125000, -0.078125, 0.093750, -0.156250, -0.031250, 0.078125, -0.125000, -0.140625, 0.140625, 0.062500, -0.109375, 0.171875, 0.156250, -0.156250, 0.046875, -0.125000, -0.140625, -0.093750, -0.156250, 0.109375, -0.078125, 0.171875, 0.125000, 0.015625, 0.125000, 0.078125, -0.109375, 0.046875, -0.031250, 0.156250, 0.156250, -0.156250, -0.156250, -0.171875, 0.093750, -0.015625, -0.093750, 0.078125, -0.015625, 0.171875, 0.031250, 0.000000, 0.171875, -0.171875, 0.140625, 0.015625, -0.140625, -0.125000, -0.156250, 0.156250, 0.078125, 0.140625, 0.015625, -0.031250, -0.156250, 0.015625, -0.125000, 0.078125, -0.031250, 0.062500, 0.156250, 0.156250, -0.062500, -0.156250, -0.046875, -0.140625, -0.062500, -0.156250, 0.062500, 0.062500, -0.156250, -0.078125, -0.125000, -0.078125, -0.015625, -0.015625, 0.015625, 0.031250, -0.156250, 0.171875, -0.109375, 0.109375, 0.140625, -0.031250, 0.078125, 0.000000, 0.078125, 0.109375, -0.109375, -0.078125, -0.078125, 0.156250, -0.093750, -0.062500, -0.015625, -0.062500, -0.062500, 0.000000, 0.093750, -0.109375, 0.140625, 0.093750, 0.125000, -0.093750, 0.000000, -0.078125, 0.031250, 0.171875, 0.125000, -0.171875, 0.062500, 0.078125, -0.093750, 0.015625, 0.171875, -0.093750, 0.062500, 0.046875, 0.093750, -0.156250, -0.078125, 0.093750, -0.093750, -0.140625, 0.046875, 0.015625, 0.078125, -0.140625, 0.046875, 0.046875, -0.093750, -0.156250, 0.046875, 0.156250, -0.031250, -0.078125, -0.015625, -0.031250, 0.156250, 0.062500, 0.109375, 0.015625, -0.140625, 0.140625, -0.015625, 0.078125, 0.171875, 0.078125, 0.109375, 0.046875, 0.078125, -0.015625, -0.046875, 0.125000, -0.171875, 0.015625, 0.031250, -0.015625, 0.000000, -0.140625, -0.140625, 0.093750, 0.125000, -0.171875, 0.031250, 0.156250, 0.125000, -0.125000, -0.015625, 0.031250, 0.031250, -0.031250, -0.125000, 0.140625, -0.015625, -0.156250, 0.078125, 0.015625, 0.015625, -0.046875, 0.000000, -0.078125, -0.125000, -0.046875, -0.171875, -0.171875, -0.109375, -0.062500, -0.031250, 0.109375, -0.015625, 0.109375, 0.093750, 0.156250, -0.171875, -0.171875, -0.156250, -0.031250, 0.140625, -0.031250, -0.093750, -0.031250, -0.015625, -0.093750, 0.140625, -0.046875, 0.125000, -0.046875, -0.140625, 0.078125, -0.015625, 0.140625, -0.171875, -0.156250, 0.140625, 0.015625, 0.093750, -0.109375, 0.140625, 0.140625, 0.156250, 0.000000, -0.156250, -0.062500, -0.015625, 0.093750, -0.046875, -0.078125, -0.140625, 0.171875, 0.093750, -0.093750, 0.156250, 0.031250, 0.156250, 0.171875, 0.031250, 0.000000, 0.078125, 0.062500, 0.015625, 0.156250, -0.062500, 0.046875, -0.031250, -0.156250, 0.000000, 0.031250, -0.140625, 0.015625, 0.046875, 0.015625, 0.015625, -0.125000, -0.171875, 0.156250, 0.000000, 0.000000, 0.109375, 0.000000, 0.093750, 0.000000, 0.046875, -0.015625, 0.078125, 0.093750, 0.140625, 0.125000, -0.156250, 0.031250, 0.125000, -0.078125, 0.062500, -0.031250, 0.078125, 0.062500, -0.093750, 0.140625, -0.156250, -0.140625, -0.140625, 0.109375, 0.156250, 0.062500, 0.015625, 0.125000, 0.000000, 0.078125, -0.062500, 0.015625, -0.031250, 0.109375, 0.000000, -0.078125, -0.125000, -0.078125, -0.031250, -0.031250, 0.000000, -0.171875, -0.140625, -0.015625, 0.125000, 0.000000, -0.015625, -0.015625, 0.125000, 0.031250, -0.140625, 0.031250, -0.031250, -0.093750, 0.015625, 0.015625, 0.046875, 0.156250, -0.078125, -0.109375, -0.125000, 0.015625, -0.062500, -0.093750, -0.093750, 0.031250, -0.109375, 0.156250, -0.125000, 0.046875, -0.171875, 0.109375, 0.046875, -0.093750, 0.156250, -0.171875, 0.156250, -0.156250, -0.156250, 0.062500, -0.156250, -0.031250, -0.062500, -0.062500, -0.125000, 0.140625, 0.093750, 0.062500, 0.046875, -0.046875, -0.046875, -0.125000, 0.015625, 0.015625, 0.109375, 0.125000, -0.078125, 0.093750, -0.015625, 0.109375, 0.031250, 0.000000, -0.031250, 0.140625, 0.156250, -0.171875, 0.000000, 0.140625, -0.078125, 0.031250, 0.046875, -0.156250, -0.140625, 0.031250, 0.156250, -0.031250, 0.109375, -0.125000, 0.046875, 0.031250, 0.171875, 0.000000, -0.046875, 0.062500, 0.078125, -0.140625, -0.062500, -0.125000, 0.000000, 0.046875, -0.062500, 0.000000, 0.093750, -0.031250, -0.046875, -0.093750, -0.062500, 0.000000, 0.125000, -0.125000, -0.062500, -0.015625, -0.015625, 0.078125, 0.093750, -0.140625, -0.125000, -0.062500, -0.046875, 0.000000, 0.062500, 0.109375, -0.031250, -0.015625, 0.093750, -0.078125, -0.156250, -0.093750, 0.000000, 0.109375, 0.156250, 0.078125, 0.171875, -0.093750, 0.062500, 0.171875, 0.078125, 0.109375, 0.078125, 0.031250, 0.078125, 0.140625, -0.046875, -0.125000, 0.000000, -0.109375, -0.171875, -0.078125, 0.171875, 0.062500, 0.140625, 0.078125, -0.156250, -0.078125, 0.015625, 0.093750, -0.078125, 0.031250, -0.046875, -0.125000, 0.031250, 0.140625, 0.140625, 0.093750, 0.015625, 0.109375, 0.046875, -0.140625, -0.140625, 0.140625, 0.062500, -0.140625, 0.156250, 0.046875, -0.171875, -0.078125, -0.015625, 0.156250, -0.156250, 0.171875, 0.156250, -0.031250, 0.093750, -0.093750, 0.093750, 0.125000, -0.015625, -0.125000, -0.156250, -0.140625, 0.093750, -0.156250, 0.109375, -0.140625, 0.156250, -0.015625, -0.093750, -0.093750, -0.015625, -0.109375, 0.062500, 0.000000, -0.125000, 0.171875, 0.140625, 0.031250, 0.031250, 0.015625, -0.125000, -0.109375, 0.171875, -0.078125, -0.031250, -0.078125, 0.093750, 0.109375, -0.125000, 0.171875, -0.109375, 0.109375, -0.109375, -0.140625, 0.171875, 0.062500, 0.156250, -0.078125, -0.015625, -0.046875, 0.046875, -0.109375, -0.078125, 0.140625, 0.062500, -0.109375, -0.031250, 0.093750, 0.140625, -0.046875, -0.093750, 0.125000, 0.015625, -0.125000, 0.140625, 0.125000, 0.093750, -0.078125, 0.140625, -0.140625, -0.015625, 0.062500, 0.140625, 0.093750, -0.109375, 0.171875, 0.125000, -0.156250, 0.015625, 0.171875, 0.031250, -0.140625, -0.171875, -0.062500, -0.125000, -0.031250, -0.015625, -0.140625, -0.062500, -0.062500, 0.015625, 0.093750, 0.156250, -0.093750, -0.046875, -0.015625, 0.156250, 0.109375, 0.000000, -0.156250, -0.156250, -0.125000, 0.171875, -0.015625, 0.109375, -0.125000, 0.093750, 0.078125, -0.140625, 0.062500, -0.171875, 0.000000, 0.062500, -0.125000, -0.140625, 0.015625, 0.140625, 0.046875, -0.062500, 0.062500, 0.140625, -0.156250, 0.109375, -0.078125, -0.156250, 0.109375, 0.046875, -0.031250, 0.046875, 0.171875, 0.015625, 0.093750, -0.140625, 0.046875, 0.031250, 0.031250, 0.125000, -0.046875, 0.156250, -0.031250, 0.078125, -0.062500, -0.062500, -0.156250, 0.140625, 0.140625, -0.031250, 0.000000, 0.125000, 0.093750, 0.093750, -0.156250, -0.171875, -0.015625, -0.125000, -0.140625, -0.062500, 0.015625, 0.062500, 0.078125, 0.031250, 0.109375, 0.171875, 0.140625, 0.125000, 0.171875, 0.140625, -0.125000, 0.046875, -0.140625, 0.125000, 0.093750, 0.156250, 0.140625, -0.031250, -0.031250, 0.125000, 0.078125, -0.140625, 0.000000, 0.125000, -0.140625, -0.062500, -0.078125, -0.062500, -0.093750, -0.093750, -0.125000, 0.015625, 0.140625, 0.156250, 0.031250, 0.015625, 0.031250, -0.171875, -0.078125, -0.171875, -0.156250, 0.156250, -0.062500, -0.062500, 0.156250, -0.062500, 0.078125, -0.093750, -0.093750, 0.156250, 0.109375, 0.078125, -0.171875, 0.093750, 0.093750, 0.031250, 0.046875, 0.015625, 0.031250, 0.046875, -0.109375, -0.140625, -0.125000, -0.031250, 0.140625, -0.109375, 0.140625, 0.000000, -0.156250, -0.015625, 0.109375, 0.156250, -0.078125, 0.046875, -0.109375, -0.062500, 0.156250, -0.046875, 0.031250, -0.109375, 0.093750, 0.125000, -0.015625, 0.109375, 0.156250, -0.031250, -0.078125, 0.125000, -0.046875, 0.109375, 0.062500, 0.062500, 0.109375, 0.140625, 0.140625, 0.015625, 0.109375, 0.000000, -0.109375, -0.093750, -0.125000, -0.015625, 0.125000, 0.062500, 0.125000, 0.046875, 0.046875, -0.140625, -0.140625, -0.046875, -0.171875, 0.062500, -0.140625, -0.078125, -0.156250, -0.140625, 0.156250, 0.125000, -0.046875, -0.109375, 0.062500, 0.140625, 0.031250, 0.171875, -0.140625, -0.015625, 0.093750, -0.093750, 0.000000, -0.125000, -0.031250, 0.015625, 0.078125, 0.015625, -0.015625, 0.109375, 0.000000, -0.140625, -0.109375, -0.015625, 0.000000, -0.031250, -0.171875, -0.171875, -0.109375, -0.015625, 0.093750, -0.062500, -0.109375, 0.031250, 0.140625, 0.171875, 0.031250, -0.156250, 0.156250, 0.093750, -0.031250, 0.140625, 0.046875, -0.140625, -0.078125, -0.093750, -0.109375, 0.031250, -0.015625, 0.046875, -0.156250, 0.078125, -0.015625, 0.125000, -0.156250, -0.046875, -0.046875, 0.156250, -0.062500, 0.093750, -0.156250, 0.015625, -0.171875, 0.109375, -0.078125, -0.109375, 0.156250, -0.046875, 0.000000, -0.140625, 0.109375, 0.156250, 0.031250, -0.156250, 0.015625, 0.000000, -0.109375, -0.093750, -0.109375, 0.062500, 0.000000, -0.031250, -0.031250, -0.171875, 0.015625, 0.171875, 0.031250, 0.109375, -0.031250, 0.140625, 0.156250, 0.046875, -0.156250, -0.140625, -0.093750, 0.109375, 0.109375, 0.062500, 0.093750, 0.125000, 0.062500, -0.171875, -0.093750, -0.140625, 0.031250, -0.109375, 0.093750, 0.046875, 0.140625, -0.125000, -0.046875, 0.156250, 0.046875, -0.109375, 0.125000, -0.140625, -0.171875, -0.140625, 0.140625, -0.046875, -0.109375, 0.093750, -0.093750, -0.031250, 0.156250, -0.125000, -0.046875, -0.171875, -0.109375, -0.062500, 0.062500, -0.109375, -0.171875, -0.078125, -0.046875, -0.078125, 0.000000, 0.046875, 0.093750, 0.125000, 0.078125, 0.109375, -0.140625, 0.125000, 0.000000, -0.078125, -0.046875, -0.078125, 0.109375, 0.000000, -0.125000, 0.125000, -0.031250, -0.109375, -0.109375, 0.015625, 0.046875, -0.046875, -0.093750, -0.140625, 0.015625, 0.078125, 0.062500, -0.109375, 0.000000, 0.078125, 0.093750, 0.078125, -0.156250, 0.046875, -0.062500, -0.109375, -0.140625, 0.015625, -0.015625, -0.171875, -0.031250, 0.109375, -0.046875, -0.031250, 0.000000, 0.156250, -0.046875, -0.093750, 0.171875, 0.031250, -0.078125, -0.156250, 0.078125, 0.031250, -0.046875, 0.031250, 0.000000, 0.125000, 0.062500, 0.031250, -0.046875, 0.140625, 0.078125, -0.093750, -0.093750, -0.093750, -0.109375, -0.109375, 0.171875, -0.109375, 0.109375, -0.156250, 0.046875, 0.093750, -0.062500, 0.078125, 0.015625, 0.109375, -0.109375, 0.171875, -0.109375, 0.078125, -0.093750, -0.125000, 0.078125, -0.015625, 0.000000, -0.046875, 0.062500, -0.062500, -0.046875, 0.000000, 0.156250, -0.125000, 0.046875, 0.140625, 0.140625, 0.125000, 0.125000, 0.031250, 0.031250, -0.078125, -0.140625, 0.015625, -0.078125, -0.109375, -0.171875, -0.109375, 0.031250, 0.015625, 0.140625, 0.062500, -0.109375, 0.156250, -0.109375, -0.078125, 0.140625, -0.125000, 0.031250, 0.031250, -0.046875, -0.015625, 0.046875, 0.000000, 0.109375, -0.062500, -0.062500, 0.093750, -0.046875, 0.109375, -0.078125, -0.078125, 0.062500, 0.125000, 0.031250, 0.062500, 0.078125, -0.156250, 0.125000, -0.078125, 0.031250, -0.171875, -0.156250, 0.015625, -0.171875, -0.093750, -0.171875, 0.156250, 0.125000, 0.078125, 0.140625, -0.140625, -0.093750, -0.125000, -0.078125, 0.000000, 0.093750, -0.062500, -0.156250, 0.140625, -0.062500, -0.093750, -0.156250, -0.171875, -0.078125, -0.171875, 0.140625, -0.078125, 0.031250, -0.156250, 0.031250, -0.125000, 0.031250, -0.078125, -0.140625, 0.171875, -0.109375, -0.015625, 0.109375, -0.062500, 0.031250, 0.093750, 0.125000, -0.171875, -0.046875, 0.156250, 0.093750, -0.093750, 0.093750, 0.062500, 0.156250, 0.093750, 0.015625, 0.125000, -0.078125, 0.046875, -0.078125, 0.062500, 0.031250, 0.093750, -0.046875, -0.156250, 0.062500, -0.093750, -0.046875, -0.015625, -0.062500, -0.125000, -0.062500, -0.109375, -0.078125, 0.046875, 0.031250, -0.156250, 0.046875, 0.171875, -0.171875, -0.125000, -0.015625, 0.000000, 0.046875, -0.140625, 0.171875, 0.078125, 0.093750, -0.031250, 0.078125, 0.093750, -0.093750, 0.125000, 0.062500, 0.156250, -0.046875, 0.015625, 0.078125, -0.015625, 0.078125, 0.078125, -0.093750, 0.031250, -0.156250, -0.171875, 0.093750, 0.031250, 0.093750, -0.078125, 0.031250, -0.140625, -0.031250, 0.156250, -0.125000, 0.156250, -0.109375, -0.156250, -0.093750, -0.171875, 0.093750, -0.156250, 0.125000, -0.015625, -0.156250, -0.140625, -0.140625, 0.078125, 0.125000, 0.140625, -0.078125, 0.171875, -0.125000, -0.156250, -0.156250, 0.046875, 0.109375, 0.125000, -0.031250, 0.109375, 0.156250, 0.000000, 0.125000, -0.171875, -0.046875, 0.031250, -0.031250, 0.046875, 0.078125, -0.046875, 0.015625, 0.031250, 0.093750, 0.156250, 0.171875, 0.015625, 0.125000, 0.125000, -0.140625, -0.062500, 0.140625, 0.109375, -0.140625, -0.078125, -0.156250, -0.156250, -0.125000, 0.140625, 0.000000, 0.062500, -0.171875, 0.062500, 0.062500, -0.109375, 0.046875, 0.062500, -0.156250, -0.078125, 0.140625, 0.125000, 0.125000, -0.171875, 0.000000, 0.125000, 0.125000, -0.093750, 0.046875, 0.171875, -0.109375, 0.078125, 0.046875, -0.109375, 0.156250, -0.046875, 0.171875, -0.078125, 0.125000, 0.140625, 0.046875, 0.031250, 0.093750, -0.015625, -0.015625, -0.171875, -0.062500, -0.093750, 0.015625, -0.109375, 0.093750, 0.156250, 0.156250, -0.109375, 0.125000, 0.000000, 0.062500, 0.000000, -0.093750, -0.031250, -0.171875, -0.015625, 0.000000, -0.171875, -0.125000, 0.062500, -0.093750, -0.171875, 0.062500, -0.171875, -0.046875, 0.156250, 0.156250, 0.140625, 0.156250, -0.046875, 0.046875, -0.078125, 0.156250, -0.062500, 0.031250, 0.140625, 0.156250, -0.156250, 0.000000, -0.015625, -0.078125, -0.062500, -0.093750, 0.171875, -0.125000, -0.062500, -0.125000, 0.078125, 0.125000, -0.015625, 0.031250, -0.093750, 0.140625, -0.093750, -0.171875, -0.078125, -0.156250, 0.109375, 0.000000, 0.000000, -0.109375, -0.031250, -0.125000, 0.015625, 0.140625, -0.156250, -0.078125, -0.093750, -0.171875, 0.140625, 0.140625, 0.015625, 0.171875, 0.140625, -0.015625, 0.078125, -0.015625, -0.046875, -0.031250, -0.109375, -0.109375, -0.093750, -0.171875, -0.062500, 0.000000, -0.125000, -0.093750, 0.140625, 0.062500, 0.140625, -0.093750, 0.140625, -0.140625, -0.093750, -0.078125, 0.078125, 0.125000, -0.031250, -0.125000, 0.062500, 0.140625, 0.125000, 0.031250, 0.062500, -0.109375, 0.125000, -0.171875, 0.156250, -0.125000, -0.171875, 0.046875, -0.015625, 0.109375, -0.031250, 0.171875, -0.109375, 0.125000, -0.015625, 0.031250, -0.093750, 0.109375, 0.125000, 0.125000, -0.046875, -0.171875, -0.078125, -0.109375, 0.062500, -0.031250, -0.046875, 0.015625, -0.031250, 0.000000, 0.046875, -0.015625, -0.171875, -0.015625, -0.062500, 0.000000, 0.062500, -0.171875, -0.156250, -0.078125, 0.156250, -0.156250, -0.156250, -0.031250, 0.125000, -0.046875, -0.093750, 0.062500, 0.078125, 0.109375, -0.171875, -0.171875, 0.140625, -0.093750, 0.046875, 0.078125, -0.015625, 0.000000, -0.031250, 0.062500, -0.031250, 0.140625, 0.046875, -0.031250, 0.093750, -0.062500, 0.015625, -0.046875, -0.078125, 0.000000, 0.000000, 0.062500, -0.140625, 0.062500, -0.015625, 0.015625, 0.078125, -0.140625, 0.046875, -0.078125, 0.015625, -0.015625, 0.078125, -0.046875, 0.000000, 0.078125, -0.078125, -0.015625, -0.140625, 0.093750, -0.125000, 0.000000, -0.046875, 0.062500, -0.046875, -0.156250, 0.078125, 0.078125, -0.125000, 0.015625, -0.093750, -0.156250, 0.062500, -0.062500, -0.125000, 0.015625, -0.093750, -0.109375, -0.062500, 0.125000, -0.171875, -0.125000, 0.031250, 0.046875, -0.078125, -0.109375, -0.031250, 0.078125, 0.171875, 0.046875, 0.156250, 0.093750, 0.140625, -0.093750, -0.046875, -0.109375, 0.015625, 0.109375, 0.031250, -0.171875, -0.078125, 0.125000, 0.046875, 0.015625, 0.140625, 0.140625, 0.140625, 0.046875, 0.062500, -0.015625, -0.171875, 0.156250, -0.015625, 0.109375, 0.015625, -0.125000, -0.140625, -0.031250, -0.125000, 0.140625, -0.062500, -0.140625, 0.109375, -0.046875, -0.171875, 0.156250, 0.140625, 0.046875, 0.140625, -0.093750, 0.078125, 0.109375, -0.078125, 0.046875, 0.140625, 0.125000, -0.015625, 0.015625, 0.156250, 0.125000, 0.078125, -0.171875, -0.046875, 0.031250, 0.000000, -0.031250, 0.000000, 0.031250, 0.000000, -0.125000, 0.078125, 0.062500, -0.046875, -0.031250, -0.031250, 0.078125, -0.078125, -0.125000, 0.031250, 0.000000, -0.140625, -0.125000, 0.015625, 0.171875, -0.109375, 0.015625, -0.031250, 0.046875, 0.109375, -0.078125, -0.062500, -0.031250, -0.125000, 0.046875, -0.015625, 0.046875, 0.046875, 0.171875, 0.046875, -0.062500, -0.171875, 0.000000, 0.031250, -0.140625, 0.140625, 0.000000, 0.031250, 0.000000, 0.062500, 0.000000, -0.125000, -0.171875, 0.140625, -0.171875, -0.171875, 0.171875, 0.125000, -0.031250, 0.093750, 0.093750, -0.015625, 0.046875, 0.046875, 0.140625, -0.078125, 0.109375, -0.078125, 0.031250, 0.000000, 0.078125, 0.000000, 0.093750, -0.140625, 0.109375, -0.109375, -0.140625, 0.109375, -0.062500, -0.015625, -0.046875, 0.093750, 0.031250, -0.046875, -0.093750, 0.078125, 0.109375, -0.078125, -0.062500, -0.156250, -0.078125, 0.046875, 0.046875, 0.140625, 0.171875, -0.156250, 0.125000, 0.125000, -0.078125, -0.062500, 0.046875, 0.140625, -0.125000, 0.093750, -0.062500, 0.015625, -0.062500, -0.062500, 0.125000, 0.046875, 0.031250, -0.078125, -0.093750, -0.093750, 0.078125, 0.015625, -0.031250, 0.015625, 0.140625, 0.156250, -0.109375, -0.046875, 0.125000, 0.140625, 0.031250, 0.125000, -0.078125, -0.125000, -0.093750, -0.078125, -0.156250, 0.000000, -0.171875, -0.140625, 0.093750, 0.046875, -0.046875, -0.109375, 0.046875, -0.062500, 0.125000, 0.015625, 0.171875, -0.140625, -0.046875, -0.062500, 0.015625, 0.093750, 0.156250, -0.156250, -0.171875, 0.078125, 0.000000, 0.015625, 0.109375, -0.109375, -0.156250, 0.140625, -0.109375, 0.125000, -0.140625, 0.031250, 0.125000, -0.093750, -0.140625, -0.156250, -0.062500, -0.125000, 0.015625, -0.093750, -0.140625, 0.062500, -0.109375, -0.015625, -0.078125, -0.093750, -0.171875, 0.171875, -0.046875, 0.140625, 0.156250, -0.125000, -0.171875, 0.109375, -0.078125, -0.109375, 0.046875, -0.156250, 0.093750, 0.109375, -0.140625, -0.093750, -0.156250, 0.000000, 0.062500, 0.062500, 0.171875, -0.125000, -0.125000, 0.171875, -0.062500, 0.000000, -0.031250, 0.046875, -0.156250, -0.109375, 0.140625, -0.140625, 0.140625, 0.125000, 0.031250, -0.046875, -0.062500, -0.093750, -0.015625, 0.000000, -0.156250, -0.109375, 0.140625, 0.171875, -0.062500, 0.015625, 0.156250, -0.125000, 0.031250, 0.078125, 0.156250, 0.046875, 0.015625, 0.093750, 0.171875, 0.093750, -0.062500, -0.125000, 0.015625, 0.000000, 0.140625, 0.140625, -0.140625, 0.000000, 0.015625, -0.015625, 0.140625, 0.015625, -0.109375, 0.125000, 0.031250, 0.031250, 0.031250, 0.031250, 0.000000, 0.109375, 0.015625, 0.062500, 0.078125, -0.140625, -0.156250, 0.171875, 0.109375, -0.015625, -0.062500, 0.109375, 0.078125, -0.031250, -0.015625, -0.140625, 0.140625, -0.093750, 0.000000, -0.062500, -0.015625, -0.140625, 0.171875, -0.109375, -0.171875, -0.031250, -0.109375, 0.171875, -0.062500, -0.125000, -0.125000, -0.125000, 0.109375, -0.093750, 0.109375, 0.156250, -0.109375, -0.031250, -0.109375, -0.125000, -0.171875, 0.125000, -0.078125, -0.031250, 0.078125, -0.046875, 0.171875, -0.093750, 0.109375, -0.093750, -0.078125, 0.093750, -0.140625, 0.062500, -0.109375, 0.140625, 0.062500, 0.125000, -0.156250, 0.093750, -0.109375, 0.062500, 0.156250, -0.015625, 0.000000, -0.093750, -0.062500, 0.109375, 0.000000, -0.109375, 0.156250, 0.000000, 0.109375, -0.109375, -0.046875, 0.015625, 0.093750, -0.046875, -0.078125, 0.046875, -0.093750, 0.000000, -0.062500, 0.109375, -0.062500, 0.171875, -0.031250, 0.031250, 0.031250, 0.125000, 0.031250, 0.015625, -0.140625, -0.062500, 0.015625, -0.031250, -0.046875, 0.062500, -0.125000, -0.078125, -0.093750, -0.109375, 0.046875, -0.046875, 0.062500, -0.046875, 0.125000, 0.109375, -0.109375, 0.156250, -0.156250, 0.015625, 0.046875, -0.171875, 0.078125, 0.140625, -0.140625, 0.156250, 0.000000, 0.125000, 0.000000, -0.031250, 0.031250, 0.140625, 0.140625, -0.140625, 0.140625, -0.031250, -0.171875, 0.109375, 0.093750, 0.078125, 0.015625, -0.062500, -0.156250, -0.046875, -0.031250, 0.015625, 0.046875, -0.031250, 0.125000, 0.015625, 0.109375, 0.078125, -0.046875, -0.140625, 0.062500, 0.093750, -0.093750, -0.109375, -0.093750, -0.031250, -0.156250, -0.156250, 0.109375, -0.140625, 0.046875, 0.000000, 0.125000, -0.171875, 0.031250, 0.031250, -0.109375, -0.093750, -0.156250, 0.140625, -0.078125, 0.062500, 0.015625, 0.031250, 0.093750, -0.078125, 0.156250, 0.078125, -0.156250, 0.171875, 0.093750, -0.062500, 0.078125, 0.125000, -0.062500, -0.093750, 0.062500, -0.015625, -0.015625, -0.031250, -0.046875, -0.046875, 0.062500, 0.109375, -0.171875, 0.156250, -0.171875, -0.109375, 0.140625, -0.171875, -0.109375, -0.109375, -0.031250, 0.156250, 0.078125, -0.062500, -0.140625, 0.125000, 0.062500, -0.046875, 0.031250, 0.109375, -0.093750, -0.109375, 0.031250, -0.171875, 0.000000, 0.031250, -0.046875, 0.140625, -0.015625, 0.109375, 0.140625, -0.015625, 0.093750, -0.046875, 0.109375, 0.015625, 0.000000, 0.062500, 0.078125, -0.171875, -0.015625, -0.046875, -0.125000, 0.046875, 0.062500, -0.171875, -0.062500, -0.062500, -0.125000, 0.109375, 0.125000, 0.171875, -0.171875, 0.046875, -0.125000, 0.015625, 0.125000, 0.078125, 0.109375, 0.156250, -0.140625, 0.125000, -0.093750, -0.093750, -0.062500, 0.000000, 0.140625, 0.093750, -0.046875, 0.109375, -0.046875, 0.000000, -0.015625, -0.015625, -0.031250, -0.062500, -0.015625, -0.015625, 0.062500, 0.156250, -0.031250, -0.015625, -0.109375, 0.093750, 0.000000, 0.078125, 0.171875, -0.156250, 0.062500, -0.109375, 0.046875, -0.140625, -0.093750, -0.140625, 0.046875, -0.015625, 0.156250, -0.078125, -0.156250, 0.000000, 0.093750, 0.109375, 0.156250, 0.015625, -0.015625, 0.062500, 0.015625, 0.046875, -0.015625, 0.062500, 0.000000, 0.015625, -0.093750, -0.140625, -0.046875, 0.000000, 0.031250, -0.140625, 0.000000, -0.171875, -0.171875, 0.015625, 0.125000, 0.171875, 0.140625, -0.156250, -0.078125, 0.171875, 0.171875, -0.046875, -0.140625, -0.078125, -0.062500, -0.031250, 0.031250, 0.000000, 0.125000, 0.156250, 0.093750, 0.140625, 0.093750, 0.093750, 0.109375, 0.015625, -0.015625, -0.093750, 0.046875, 0.109375, -0.031250, -0.031250, 0.062500, -0.093750, 0.046875, -0.109375, -0.078125, -0.031250, 0.015625, -0.140625, 0.062500, 0.015625, 0.015625, -0.046875, 0.046875, -0.171875, 0.000000, 0.000000, 0.015625, 0.062500, 0.109375, 0.171875, 0.062500, 0.125000, 0.015625, 0.078125, 0.171875, -0.062500, 0.140625, -0.078125, 0.140625, 0.093750, 0.171875, 0.031250, 0.046875, -0.031250, 0.000000, 0.093750, -0.078125, -0.015625, -0.156250, -0.093750, 0.000000, 0.125000, 0.140625, 0.171875, 0.078125, 0.156250, 0.062500, -0.109375, 0.015625, 0.000000, -0.031250, 0.000000, -0.031250, 0.156250, -0.031250, 0.140625, 0.093750, -0.171875, 0.015625, -0.046875, -0.015625, 0.140625, 0.093750, 0.078125, 0.125000, 0.109375, 0.015625, -0.093750, 0.140625, 0.156250, -0.109375, 0.031250, 0.062500, -0.015625, -0.109375, 0.078125, 0.156250, 0.171875, 0.078125, -0.015625, -0.062500, 0.000000, -0.046875, 0.078125, 0.046875, 0.125000, 0.015625, -0.093750, 0.171875, -0.156250, 0.078125, -0.140625, -0.031250, -0.140625, -0.078125, 0.062500, 0.078125, -0.046875, -0.171875, 0.109375, 0.140625, -0.156250, -0.171875, 0.125000, -0.031250, 0.046875, 0.140625, 0.062500, 0.046875, 0.062500, -0.062500, 0.171875, -0.109375, -0.015625, 0.171875, 0.171875, 0.093750, 0.000000, -0.046875, -0.078125, -0.140625, 0.093750, 0.093750, -0.078125, 0.078125, 0.031250, 0.015625, 0.000000, 0.140625, 0.078125, 0.125000, 0.000000, -0.140625, -0.078125, 0.062500, -0.140625, 0.125000, -0.171875, -0.046875, -0.015625, 0.125000, 0.078125, -0.125000, 0.125000, 0.078125, 0.031250, -0.031250, -0.109375, -0.062500, -0.109375, 0.015625, 0.015625, -0.078125, -0.171875, -0.015625, 0.109375, -0.031250, -0.171875, 0.031250, 0.031250, 0.078125, -0.171875, -0.140625, 0.140625, 0.093750, 0.078125, -0.093750, -0.031250, 0.093750, 0.140625, -0.031250, 0.156250, -0.046875, -0.156250, 0.062500, -0.140625, -0.125000, -0.109375, 0.015625, -0.156250, 0.125000, -0.046875, 0.062500, -0.140625, 0.171875, 0.015625, -0.171875, 0.062500, 0.156250, 0.078125, 0.109375, -0.171875, -0.031250, 0.093750, -0.109375, -0.093750, 0.156250, 0.062500, -0.109375, 0.000000, -0.109375, 0.140625, -0.093750, -0.125000, 0.171875, -0.078125, -0.125000, -0.078125, 0.093750, 0.171875, 0.171875, 0.140625, 0.156250, 0.171875, 0.140625, 0.015625, 0.125000, 0.046875, -0.171875, 0.109375, -0.140625, -0.109375, 0.156250, 0.109375, -0.109375, -0.015625, -0.031250, -0.156250, -0.156250, -0.171875, -0.109375, 0.046875, 0.125000, -0.156250, 0.156250, 0.062500, 0.156250, 0.031250, 0.000000, -0.171875, -0.046875, -0.031250, 0.046875, 0.140625, 0.031250, 0.000000, -0.109375, -0.125000, -0.078125, 0.000000, -0.140625, 0.078125, 0.015625, 0.093750, 0.015625, -0.015625, 0.062500, 0.156250, -0.093750, -0.078125, 0.156250, 0.140625, -0.171875, -0.015625, 0.171875, -0.156250, 0.000000, -0.015625, -0.109375, 0.015625, 0.156250, -0.031250, 0.015625, 0.078125, -0.078125, -0.156250, -0.062500, 0.125000, 0.171875, 0.156250, -0.140625, 0.140625, 0.140625, -0.031250, 0.093750, 0.171875, 0.140625, 0.062500, 0.109375, -0.015625, 0.046875, -0.093750, 0.031250, -0.031250, -0.109375, 0.093750, 0.000000, 0.046875, 0.062500, 0.156250, -0.046875, 0.000000, -0.156250, -0.093750, -0.171875, 0.078125, 0.156250, -0.109375, -0.046875, 0.140625, -0.062500, -0.140625, -0.140625, 0.031250, 0.078125, 0.015625, 0.015625, 0.015625, 0.000000, -0.031250, 0.015625, -0.171875, 0.125000, -0.046875, -0.125000, -0.046875, -0.156250, 0.015625, 0.109375, -0.046875, -0.062500, -0.109375, 0.015625, 0.078125, 0.156250, -0.140625, 0.000000, -0.156250, 0.156250, -0.078125, 0.078125, 0.125000, -0.015625, -0.171875, 0.156250, -0.156250, 0.125000, 0.093750, -0.140625, -0.156250, -0.031250, 0.156250, -0.031250, 0.156250, -0.156250, 0.109375, 0.093750, -0.156250, 0.140625, -0.125000, -0.140625, 0.171875, -0.062500, 0.031250, 0.156250, -0.046875, 0.156250, -0.015625, 0.171875, 0.062500, 0.109375, 0.140625, 0.031250, -0.171875, 0.109375, -0.062500, -0.109375, -0.078125, 0.031250, -0.140625, -0.171875, -0.140625, -0.156250, -0.125000, 0.000000, -0.078125, -0.125000, -0.093750, -0.140625, -0.078125, -0.125000, 0.031250, -0.125000, -0.125000, -0.078125, 0.046875, 0.046875, -0.125000, 0.125000, 0.156250, 0.062500, 0.171875, 0.031250, -0.078125, -0.078125, 0.140625, 0.093750, -0.031250, 0.171875, -0.171875, 0.031250, 0.171875, 0.046875, 0.156250, 0.015625, 0.078125, -0.140625, -0.125000, 0.000000, -0.078125, -0.015625, 0.062500, 0.078125, 0.093750, -0.046875, -0.093750, -0.140625, -0.031250, -0.015625, 0.062500, 0.093750, 0.015625, 0.078125, 0.062500, -0.015625, -0.109375, -0.078125, 0.125000, -0.125000, 0.062500, 0.046875, -0.031250, 0.125000, -0.031250, -0.171875, 0.140625, 0.078125, 0.140625, 0.171875, -0.109375, -0.046875, 0.125000, -0.015625, 0.046875, 0.109375, 0.000000, -0.156250, 0.156250, 0.015625, -0.093750, -0.171875, 0.171875, 0.156250, -0.140625, -0.093750, 0.125000, 0.062500, -0.078125, 0.156250, 0.046875, 0.109375, -0.156250, -0.078125, 0.093750, 0.109375, -0.140625, 0.125000, 0.156250, -0.125000, 0.125000, -0.078125, -0.031250, -0.156250, 0.062500, 0.125000, 0.062500, -0.171875, -0.156250, 0.062500, 0.156250, 0.000000, 0.156250, 0.140625, 0.140625, 0.171875, 0.062500, 0.078125, 0.093750, 0.031250, -0.156250, 0.093750, -0.093750, -0.093750, 0.031250, 0.015625, -0.156250, 0.062500, -0.171875, 0.093750, 0.109375, 0.140625, 0.046875, 0.093750, 0.156250, 0.031250, 0.031250, -0.046875, -0.015625, -0.093750, 0.046875, -0.109375, -0.093750, -0.140625, -0.109375, 0.140625, 0.125000, -0.093750, -0.156250, -0.125000, 0.000000, -0.062500, -0.156250, -0.171875, 0.140625, -0.046875, 0.000000, 0.031250, 0.109375, 0.093750, 0.015625, -0.109375, 0.093750, 0.093750, 0.031250, 0.125000, 0.062500, 0.078125, 0.156250, -0.078125, -0.031250, 0.093750, -0.093750, 0.015625, 0.171875, -0.031250, 0.109375, 0.078125, 0.046875, 0.171875, -0.062500, -0.109375, 0.062500, 0.000000, -0.109375, 0.125000, 0.140625, -0.093750, -0.171875, -0.125000, 0.046875, -0.031250, 0.109375, 0.062500, -0.125000, -0.140625, 0.140625, 0.093750, -0.046875, -0.078125, 0.109375, -0.109375, 0.078125, -0.171875, 0.140625, -0.171875, 0.109375, 0.093750, -0.015625, 0.062500, 0.171875, 0.062500, 0.125000, -0.015625, 0.015625, -0.062500, -0.031250, 0.015625, 0.078125, 0.078125, -0.109375, 0.015625, 0.093750, 0.109375, 0.031250, 0.000000, 0.093750, 0.125000, -0.109375, -0.109375, 0.109375, -0.156250, -0.140625, -0.062500, 0.125000, 0.000000, -0.109375, -0.015625, 0.093750, 0.078125, 0.046875, 0.031250, -0.093750, -0.046875, 0.171875, 0.125000, 0.109375, -0.031250, 0.062500, 0.062500, 0.171875, -0.125000, 0.093750, -0.062500, 0.015625, -0.078125, 0.109375, 0.031250, -0.046875, 0.078125, 0.062500, 0.046875, 0.031250, -0.156250, -0.031250, 0.125000, -0.125000, 0.000000, 0.046875, 0.031250, -0.109375, 0.046875, 0.093750, -0.093750, -0.093750, 0.015625, 0.062500, 0.000000, -0.109375, -0.062500, -0.156250, 0.015625, -0.171875, 0.031250, 0.140625, -0.093750, 0.109375, 0.171875, -0.031250, 0.031250, -0.156250, -0.109375, -0.140625, 0.062500, 0.109375, -0.109375, -0.140625, 0.062500, -0.125000, 0.171875, 0.000000, -0.046875, 0.171875, 0.015625, 0.140625, 0.140625, -0.109375, 0.140625, -0.015625, -0.078125, 0.140625, 0.171875, -0.109375, -0.125000, 0.171875, -0.171875, -0.062500, -0.171875, -0.046875, 0.078125, 0.015625, -0.046875, -0.109375, -0.015625, -0.093750, -0.125000, 0.046875, -0.125000, 0.000000, 0.000000, 0.125000, -0.078125, -0.140625, -0.015625, -0.062500, 0.062500, 0.093750, -0.156250, 0.015625, 0.062500, -0.109375, 0.140625, -0.156250, -0.125000, 0.140625, -0.015625, -0.125000, -0.062500, 0.171875, -0.078125, -0.062500, 0.093750, -0.078125, 0.015625, -0.031250, -0.171875, 0.031250, -0.015625, -0.015625, -0.031250, 0.000000, -0.062500, 0.171875, 0.015625, 0.000000, -0.171875, 0.015625, -0.078125, 0.140625, -0.078125, -0.125000, 0.171875, 0.156250, 0.078125, -0.125000, 0.000000, 0.000000, -0.031250, 0.031250, 0.000000, 0.046875, 0.046875, -0.078125, 0.156250, -0.015625, 0.015625, -0.031250, -0.062500, 0.000000, -0.062500, 0.062500, 0.140625, -0.015625, 0.140625, -0.046875, -0.015625, 0.031250, -0.046875, -0.015625, -0.171875, -0.171875, -0.109375, 0.078125, -0.093750, -0.046875, 0.015625, 0.046875, -0.093750, 0.156250, 0.156250, -0.046875, -0.156250, 0.125000, -0.046875, -0.062500, -0.109375, -0.046875, 0.062500, 0.171875, 0.062500, -0.171875, 0.125000, -0.156250, 0.078125, 0.109375, 0.156250, -0.109375, -0.156250, -0.125000, -0.015625, 0.093750, -0.125000, 0.062500, 0.156250, -0.046875, -0.046875, -0.031250, 0.015625, 0.062500, 0.015625, -0.140625, -0.015625, 0.171875, 0.140625, 0.109375, -0.031250, 0.125000, -0.062500, -0.062500, -0.015625, 0.078125, -0.046875, 0.125000, 0.125000, -0.031250, -0.171875, -0.140625, -0.078125, 0.156250, -0.031250, -0.062500, 0.093750, -0.093750, -0.171875, 0.171875, -0.078125, 0.140625, 0.046875, -0.140625, -0.109375, -0.156250, -0.156250, -0.109375, 0.156250, -0.078125, -0.125000, 0.140625, -0.125000, -0.125000, 0.046875, 0.062500, -0.062500, -0.125000, -0.062500, -0.093750, -0.015625, 0.062500, 0.062500, -0.093750, -0.015625, 0.062500, -0.109375, -0.156250, -0.015625, -0.109375, -0.156250, 0.015625, -0.046875, 0.125000, 0.031250, 0.000000, -0.078125, -0.156250, -0.093750, 0.156250, -0.171875, 0.062500, 0.000000, 0.015625, 0.000000, -0.109375, 0.078125, 0.109375, -0.109375, 0.000000, -0.015625, 0.078125, 0.109375, -0.046875, 0.156250, 0.109375, -0.140625, -0.171875, -0.046875, 0.015625, 0.125000, -0.156250, 0.015625, 0.093750, 0.062500, -0.125000, -0.046875, 0.093750, -0.031250, -0.125000, 0.000000, -0.015625, 0.125000, 0.000000, -0.046875, 0.046875, 0.062500, 0.078125, -0.156250, -0.031250, -0.156250, -0.109375, 0.046875, -0.171875, 0.062500, -0.109375, 0.156250, 0.062500, 0.031250, 0.093750, 0.171875, 0.031250, -0.062500, -0.046875, -0.062500, 0.078125, -0.031250, -0.046875, -0.046875, -0.093750, 0.015625, 0.093750, 0.109375, 0.156250, 0.140625, 0.015625, -0.109375, 0.031250, -0.140625, -0.171875, -0.171875, 0.031250, -0.156250, -0.125000, -0.109375, -0.109375, 0.140625, -0.046875, 0.171875, 0.156250, 0.015625, 0.109375, -0.156250, -0.031250, -0.109375, 0.109375, -0.062500, -0.156250, -0.156250, -0.093750, -0.156250, -0.093750, -0.062500, 0.062500, 0.078125, 0.031250, 0.000000, 0.015625, 0.062500, 0.093750, -0.031250, -0.015625, -0.031250, -0.125000, -0.078125, -0.078125, -0.156250, 0.156250, -0.078125, -0.093750, 0.031250, -0.093750, -0.093750, 0.093750, 0.015625, 0.171875, 0.000000, 0.046875, 0.140625, -0.078125, 0.031250, -0.109375, 0.156250, -0.156250, 0.046875, 0.093750, -0.031250, 0.171875, 0.156250, 0.000000, 0.062500, -0.156250, 0.093750, -0.140625, -0.171875, 0.031250, -0.093750, 0.015625, 0.109375, 0.031250, -0.078125, -0.156250, 0.000000, 0.156250, -0.171875, 0.093750, 0.156250, -0.109375, 0.031250, -0.062500, 0.078125, 0.140625, -0.109375, 0.078125, -0.125000, 0.156250, -0.078125, -0.125000, -0.156250, 0.171875, 0.093750, -0.078125, -0.171875, 0.062500, 0.125000, -0.046875, 0.078125, 0.156250, 0.046875, 0.000000, 0.140625, 0.125000, -0.015625, 0.093750, -0.125000, -0.109375, -0.062500, -0.140625, -0.140625, 0.140625, 0.062500, 0.062500, -0.171875, 0.171875, 0.093750, 0.140625, -0.031250, -0.031250, 0.015625, -0.046875, 0.125000, -0.109375, 0.078125, 0.015625, -0.031250, -0.046875, -0.156250, -0.093750, 0.109375, 0.109375, 0.062500, 0.046875, 0.000000, 0.015625, -0.031250, 0.156250, -0.125000, 0.093750, 0.000000, -0.156250, -0.015625, 0.093750, 0.015625, 0.046875, -0.015625, 0.171875, -0.093750, -0.046875, 0.046875, -0.062500, -0.046875, -0.093750, 0.078125, 0.140625, 0.093750, -0.125000, 0.000000, 0.125000, 0.000000, 0.015625, 0.031250, -0.062500, 0.078125, -0.125000, 0.125000, -0.171875, 0.031250, 0.171875, -0.125000, -0.078125, 0.171875, 0.046875, -0.031250, 0.046875, -0.078125, 0.140625, -0.062500, 0.031250, 0.093750, 0.156250, -0.062500, -0.062500, 0.093750, -0.078125, -0.046875, 0.156250, 0.000000, 0.078125, 0.031250, -0.015625, -0.015625, 0.046875, -0.140625, 0.046875, -0.156250, 0.062500, -0.156250, 0.109375, -0.031250, -0.140625, 0.156250, 0.171875, -0.140625, -0.156250, -0.156250, 0.156250, 0.078125, -0.171875, 0.171875};
#endif

#endif
