//Numpy array shape [7, 7, 3, 64]
//Min -0.046875000000
//Max 0.046875000000
//Number of zeros 1794

#ifndef W2_H_
#define W2_H_

#ifndef __SYNTHESIS__
weight2_t w2[9408];
#else
weight2_t w2[9408] = {-0.031250, 0.015625, -0.015625, 0.015625, 0.015625, -0.031250, 0.031250, 0.000000, 0.031250, -0.015625, 0.015625, -0.031250, -0.015625, 0.000000, -0.031250, 0.031250, -0.031250, -0.031250, 0.031250, 0.046875, 0.015625, 0.000000, -0.031250, 0.015625, 0.000000, -0.015625, -0.031250, 0.031250, -0.015625, 0.015625, 0.000000, 0.031250, -0.015625, 0.031250, 0.015625, 0.000000, -0.015625, 0.015625, -0.015625, -0.031250, -0.015625, -0.031250, -0.031250, 0.031250, 0.031250, 0.031250, 0.031250, 0.015625, -0.046875, 0.031250, 0.000000, -0.031250, -0.046875, 0.046875, -0.031250, 0.015625, 0.000000, 0.000000, 0.000000, 0.000000, -0.046875, 0.046875, -0.031250, -0.046875, -0.046875, 0.015625, 0.000000, -0.015625, -0.031250, -0.031250, 0.031250, -0.015625, 0.000000, 0.000000, -0.046875, 0.015625, -0.046875, -0.031250, 0.015625, -0.046875, 0.000000, 0.000000, 0.015625, 0.000000, 0.015625, -0.015625, 0.015625, 0.000000, -0.031250, 0.031250, -0.015625, 0.031250, -0.015625, -0.015625, 0.046875, -0.046875, -0.015625, -0.015625, -0.015625, 0.000000, -0.031250, -0.031250, 0.046875, 0.000000, 0.015625, 0.000000, -0.015625, -0.031250, -0.015625, 0.000000, -0.015625, -0.031250, 0.031250, -0.031250, -0.031250, 0.031250, 0.015625, 0.031250, 0.031250, 0.031250, -0.031250, 0.015625, -0.015625, -0.015625, -0.015625, 0.015625, 0.000000, -0.031250, -0.015625, -0.015625, 0.031250, -0.046875, -0.015625, 0.000000, 0.015625, -0.031250, 0.000000, -0.015625, 0.031250, 0.000000, -0.031250, 0.000000, -0.015625, 0.031250, 0.046875, 0.031250, -0.031250, 0.015625, 0.031250, 0.046875, 0.015625, 0.046875, -0.046875, -0.031250, 0.000000, -0.046875, 0.031250, 0.015625, 0.031250, 0.015625, -0.031250, 0.000000, 0.031250, -0.015625, -0.031250, -0.031250, -0.031250, -0.031250, -0.031250, 0.015625, 0.015625, -0.031250, 0.031250, 0.015625, 0.046875, 0.015625, 0.031250, 0.031250, -0.031250, -0.015625, -0.031250, 0.031250, 0.000000, 0.015625, -0.031250, -0.031250, -0.015625, -0.015625, 0.000000, 0.000000, -0.015625, 0.031250, -0.031250, -0.046875, 0.015625, 0.046875, 0.000000, -0.015625, 0.015625, 0.015625, 0.000000, 0.015625, -0.031250, 0.000000, 0.031250, -0.031250, -0.015625, 0.015625, -0.031250, -0.031250, -0.015625, 0.031250, 0.031250, -0.031250, 0.046875, 0.015625, 0.000000, 0.015625, -0.031250, -0.031250, 0.031250, -0.031250, -0.031250, -0.015625, 0.031250, -0.015625, 0.000000, -0.015625, 0.000000, 0.000000, -0.031250, 0.046875, -0.015625, -0.015625, -0.031250, 0.000000, -0.015625, 0.046875, 0.015625, 0.000000, -0.031250, 0.000000, -0.031250, 0.031250, 0.000000, 0.031250, -0.015625, 0.000000, 0.046875, -0.015625, 0.000000, -0.031250, 0.015625, 0.031250, 0.031250, 0.031250, -0.015625, 0.031250, 0.031250, -0.046875, 0.015625, 0.015625, 0.031250, -0.031250, 0.015625, -0.046875, -0.031250, 0.000000, 0.000000, -0.031250, 0.015625, 0.000000, -0.031250, -0.031250, -0.031250, 0.000000, 0.046875, -0.031250, -0.046875, 0.031250, 0.000000, -0.031250, -0.015625, -0.031250, 0.031250, -0.031250, -0.015625, -0.015625, -0.015625, -0.031250, 0.015625, 0.015625, -0.031250, 0.015625, 0.031250, -0.031250, 0.000000, 0.031250, 0.031250, -0.046875, -0.031250, 0.000000, -0.046875, 0.031250, -0.031250, 0.015625, -0.015625, 0.000000, 0.031250, 0.031250, 0.015625, -0.031250, 0.031250, 0.031250, -0.031250, 0.031250, 0.000000, 0.000000, -0.015625, -0.031250, 0.031250, -0.031250, 0.000000, -0.031250, -0.015625, 0.046875, -0.031250, -0.031250, -0.031250, -0.031250, 0.000000, 0.046875, 0.000000, 0.000000, 0.015625, 0.031250, 0.031250, 0.015625, 0.000000, 0.015625, 0.015625, 0.031250, -0.046875, 0.000000, -0.031250, -0.015625, 0.015625, 0.015625, 0.015625, 0.000000, 0.000000, 0.000000, 0.015625, -0.031250, 0.046875, 0.015625, 0.031250, -0.031250, -0.046875, -0.015625, -0.031250, -0.031250, -0.015625, -0.015625, -0.015625, -0.015625, 0.015625, -0.031250, 0.000000, -0.015625, -0.015625, -0.015625, 0.015625, 0.015625, -0.015625, -0.015625, -0.031250, -0.031250, 0.000000, -0.046875, 0.031250, 0.015625, -0.031250, 0.000000, 0.031250, -0.031250, 0.000000, 0.000000, 0.046875, 0.031250, 0.000000, 0.000000, -0.031250, 0.046875, 0.000000, 0.015625, 0.015625, -0.015625, 0.031250, 0.000000, -0.015625, -0.015625, 0.015625, 0.031250, -0.031250, -0.015625, 0.015625, 0.015625, 0.031250, 0.031250, -0.031250, 0.031250, 0.000000, 0.015625, -0.031250, -0.015625, 0.000000, 0.000000, 0.031250, 0.000000, 0.000000, 0.031250, -0.031250, 0.046875, 0.000000, 0.000000, 0.015625, -0.015625, 0.000000, 0.031250, -0.031250, -0.015625, 0.031250, 0.031250, -0.031250, 0.031250, 0.000000, 0.000000, 0.000000, 0.031250, -0.031250, 0.015625, 0.015625, 0.000000, 0.015625, -0.015625, 0.031250, -0.046875, 0.046875, -0.031250, 0.031250, 0.015625, -0.046875, 0.031250, -0.015625, 0.031250, -0.031250, 0.000000, -0.015625, -0.015625, 0.031250, 0.046875, -0.031250, 0.000000, 0.000000, -0.031250, -0.015625, -0.031250, 0.031250, -0.015625, 0.031250, 0.000000, -0.015625, 0.000000, 0.000000, -0.046875, 0.015625, -0.031250, -0.031250, -0.046875, 0.031250, -0.031250, -0.031250, -0.015625, 0.015625, 0.000000, -0.031250, 0.015625, -0.031250, -0.015625, -0.015625, -0.031250, 0.000000, 0.031250, -0.015625, 0.031250, 0.000000, -0.031250, 0.031250, -0.031250, 0.031250, -0.015625, -0.031250, 0.015625, 0.031250, -0.015625, -0.015625, -0.015625, 0.031250, -0.031250, -0.031250, 0.015625, -0.015625, 0.015625, -0.015625, 0.000000, -0.031250, 0.031250, 0.015625, 0.031250, 0.015625, -0.031250, 0.015625, 0.031250, -0.031250, 0.015625, 0.015625, 0.000000, 0.031250, -0.015625, -0.031250, -0.046875, -0.015625, 0.015625, 0.015625, -0.015625, 0.000000, -0.031250, -0.031250, 0.031250, 0.031250, 0.015625, 0.000000, -0.015625, 0.015625, -0.031250, -0.046875, -0.046875, 0.000000, 0.031250, -0.031250, -0.015625, 0.000000, 0.031250, 0.000000, 0.015625, 0.000000, -0.015625, -0.015625, -0.031250, -0.031250, 0.031250, 0.015625, 0.000000, 0.000000, -0.031250, 0.000000, -0.046875, 0.015625, 0.015625, -0.015625, 0.015625, -0.046875, -0.015625, -0.046875, 0.000000, -0.015625, 0.031250, -0.015625, -0.015625, 0.000000, 0.031250, 0.015625, -0.031250, -0.015625, 0.031250, 0.031250, 0.031250, -0.015625, -0.015625, 0.000000, 0.015625, -0.015625, 0.031250, 0.031250, -0.031250, -0.015625, -0.031250, 0.031250, -0.031250, -0.046875, 0.046875, 0.015625, -0.015625, -0.015625, -0.046875, 0.046875, -0.015625, -0.031250, 0.031250, 0.031250, 0.000000, 0.031250, 0.000000, 0.000000, -0.015625, -0.031250, 0.046875, 0.000000, -0.031250, -0.031250, 0.031250, -0.015625, 0.000000, -0.031250, -0.015625, -0.031250, 0.015625, 0.015625, -0.015625, 0.031250, -0.031250, 0.000000, 0.046875, 0.000000, -0.031250, 0.031250, 0.031250, 0.000000, 0.015625, 0.015625, -0.015625, 0.015625, -0.015625, 0.015625, 0.031250, 0.015625, 0.031250, 0.015625, 0.015625, -0.015625, -0.015625, -0.031250, 0.046875, 0.015625, -0.031250, -0.015625, 0.031250, -0.031250, -0.031250, -0.031250, 0.015625, 0.015625, -0.031250, 0.031250, 0.046875, 0.031250, 0.031250, 0.031250, -0.015625, -0.015625, -0.015625, -0.015625, 0.015625, 0.031250, -0.031250, 0.031250, -0.015625, 0.015625, -0.031250, 0.000000, -0.015625, -0.031250, -0.031250, -0.015625, 0.015625, 0.000000, 0.046875, 0.031250, 0.000000, -0.015625, 0.031250, -0.031250, -0.031250, 0.000000, -0.031250, -0.015625, 0.031250, 0.031250, -0.031250, 0.031250, -0.031250, 0.015625, 0.000000, -0.031250, 0.015625, -0.015625, 0.015625, 0.031250, -0.031250, -0.015625, 0.031250, 0.015625, 0.000000, 0.000000, -0.015625, -0.015625, 0.000000, -0.015625, 0.000000, -0.015625, -0.015625, 0.000000, -0.031250, -0.015625, 0.031250, -0.031250, -0.031250, 0.031250, -0.015625, 0.000000, -0.031250, 0.000000, -0.031250, 0.000000, 0.031250, -0.031250, 0.000000, -0.031250, 0.000000, -0.015625, 0.031250, -0.015625, 0.015625, 0.015625, 0.015625, -0.015625, 0.031250, -0.015625, -0.015625, 0.015625, 0.000000, -0.031250, 0.046875, 0.000000, 0.000000, -0.015625, 0.000000, 0.031250, 0.000000, 0.031250, 0.000000, 0.046875, 0.000000, -0.031250, 0.000000, 0.015625, 0.031250, 0.000000, 0.000000, 0.015625, -0.015625, 0.000000, 0.031250, 0.015625, -0.046875, -0.031250, -0.015625, -0.031250, 0.031250, -0.031250, 0.015625, 0.015625, 0.031250, -0.015625, 0.015625, -0.015625, 0.031250, 0.000000, -0.031250, -0.015625, 0.031250, 0.031250, 0.015625, 0.000000, -0.031250, -0.031250, -0.015625, -0.015625, 0.015625, -0.031250, -0.031250, 0.015625, 0.000000, 0.046875, 0.000000, 0.000000, -0.015625, 0.015625, 0.031250, 0.000000, -0.015625, 0.000000, 0.000000, 0.015625, -0.031250, -0.015625, -0.046875, 0.000000, -0.015625, -0.031250, -0.015625, 0.031250, 0.015625, 0.000000, -0.015625, 0.000000, -0.046875, 0.015625, 0.015625, -0.015625, -0.015625, 0.000000, 0.015625, -0.015625, 0.015625, -0.031250, -0.031250, 0.000000, -0.031250, -0.031250, -0.031250, 0.031250, 0.015625, 0.031250, -0.015625, 0.031250, 0.000000, 0.000000, -0.031250, -0.031250, 0.046875, 0.000000, 0.015625, -0.031250, -0.015625, 0.015625, -0.031250, 0.031250, -0.031250, 0.031250, 0.000000, 0.015625, 0.031250, -0.031250, 0.000000, 0.000000, -0.015625, -0.031250, 0.000000, -0.015625, -0.015625, -0.015625, 0.000000, -0.031250, -0.015625, 0.015625, 0.000000, -0.015625, 0.000000, -0.015625, 0.031250, 0.031250, -0.015625, -0.031250, 0.015625, 0.015625, -0.031250, -0.046875, 0.015625, 0.015625, -0.015625, 0.000000, -0.015625, 0.046875, 0.015625, 0.000000, -0.031250, 0.015625, -0.015625, -0.031250, -0.046875, -0.046875, 0.046875, -0.031250, 0.015625, -0.015625, 0.015625, -0.015625, -0.031250, 0.000000, -0.046875, 0.000000, -0.031250, -0.015625, 0.000000, -0.031250, 0.000000, 0.015625, -0.031250, 0.015625, 0.031250, 0.031250, 0.031250, 0.015625, -0.031250, 0.031250, 0.000000, -0.031250, 0.000000, 0.015625, 0.000000, -0.031250, 0.015625, 0.000000, -0.031250, 0.046875, 0.000000, -0.031250, -0.015625, 0.046875, -0.031250, 0.031250, -0.031250, 0.031250, 0.015625, -0.015625, 0.000000, -0.015625, -0.031250, 0.031250, 0.031250, -0.031250, -0.031250, -0.031250, -0.015625, 0.015625, 0.031250, -0.046875, 0.000000, -0.015625, 0.031250, 0.015625, -0.015625, -0.031250, 0.031250, 0.031250, -0.031250, 0.000000, 0.000000, -0.015625, 0.000000, -0.031250, 0.046875, 0.046875, 0.015625, 0.000000, -0.015625, 0.000000, 0.000000, 0.000000, 0.015625, -0.015625, -0.031250, 0.000000, -0.031250, -0.031250, 0.000000, 0.046875, -0.031250, 0.000000, 0.000000, -0.031250, -0.046875, -0.015625, 0.031250, 0.031250, 0.015625, 0.000000, 0.031250, 0.000000, 0.000000, 0.031250, -0.015625, 0.000000, -0.015625, -0.031250, -0.015625, 0.031250, 0.046875, -0.015625, -0.046875, 0.015625, -0.031250, 0.031250, 0.000000, 0.000000, -0.031250, 0.031250, 0.000000, -0.031250, 0.000000, 0.031250, -0.031250, -0.015625, -0.031250, -0.015625, 0.031250, -0.015625, -0.031250, 0.015625, -0.031250, 0.015625, -0.015625, 0.000000, 0.046875, -0.031250, -0.031250, 0.015625, 0.031250, 0.046875, 0.015625, 0.000000, -0.031250, 0.015625, -0.015625, 0.031250, 0.031250, 0.031250, 0.000000, 0.000000, -0.015625, 0.031250, 0.000000, -0.031250, 0.031250, 0.015625, -0.015625, 0.015625, -0.015625, 0.031250, 0.015625, 0.015625, 0.015625, 0.015625, 0.031250, 0.000000, -0.046875, 0.046875, 0.000000, -0.046875, 0.031250, -0.046875, 0.015625, 0.000000, 0.000000, 0.015625, 0.000000, -0.031250, -0.046875, 0.000000, -0.031250, -0.031250, 0.031250, 0.015625, -0.015625, -0.031250, 0.031250, 0.000000, -0.031250, -0.031250, -0.015625, 0.015625, -0.031250, 0.000000, 0.031250, 0.015625, -0.031250, 0.000000, 0.000000, 0.031250, 0.000000, 0.015625, 0.015625, 0.000000, -0.031250, -0.046875, -0.015625, -0.015625, 0.015625, 0.046875, 0.031250, 0.031250, 0.031250, 0.031250, 0.000000, -0.015625, 0.015625, 0.000000, 0.000000, 0.015625, -0.015625, 0.015625, 0.031250, -0.031250, 0.015625, 0.031250, 0.031250, 0.015625, 0.031250, -0.015625, 0.000000, -0.031250, -0.015625, -0.015625, 0.046875, -0.015625, -0.015625, -0.015625, -0.015625, -0.031250, 0.015625, 0.000000, 0.015625, 0.015625, 0.031250, 0.015625, 0.015625, -0.046875, -0.015625, 0.000000, 0.031250, 0.015625, 0.000000, 0.031250, 0.000000, 0.015625, 0.046875, 0.031250, -0.031250, -0.015625, 0.031250, 0.015625, 0.031250, 0.031250, -0.031250, 0.015625, 0.046875, -0.015625, -0.015625, -0.031250, -0.046875, -0.031250, -0.015625, 0.015625, -0.015625, 0.031250, 0.015625, 0.031250, -0.015625, -0.031250, -0.031250, -0.031250, 0.031250, 0.015625, 0.000000, 0.015625, -0.031250, 0.015625, 0.031250, -0.015625, -0.015625, 0.031250, 0.000000, -0.031250, 0.000000, 0.031250, 0.000000, 0.046875, 0.000000, -0.031250, 0.015625, 0.015625, 0.000000, 0.031250, -0.031250, 0.015625, 0.046875, 0.015625, 0.000000, 0.031250, -0.015625, -0.031250, -0.015625, -0.015625, 0.015625, -0.015625, -0.031250, 0.031250, 0.000000, 0.031250, -0.031250, 0.031250, -0.046875, 0.000000, 0.000000, 0.031250, 0.031250, 0.015625, 0.015625, 0.015625, 0.000000, -0.015625, 0.031250, 0.015625, -0.015625, 0.000000, 0.031250, -0.046875, 0.031250, 0.000000, 0.000000, 0.000000, -0.031250, 0.000000, 0.000000, -0.015625, -0.046875, 0.000000, -0.031250, 0.015625, 0.000000, 0.000000, 0.015625, 0.031250, 0.000000, 0.000000, -0.015625, -0.015625, -0.046875, -0.031250, -0.031250, 0.031250, -0.031250, 0.015625, 0.000000, -0.031250, -0.046875, 0.031250, 0.015625, -0.031250, -0.015625, 0.015625, 0.000000, 0.000000, -0.046875, -0.031250, 0.000000, 0.015625, -0.031250, 0.031250, 0.015625, 0.031250, 0.031250, -0.031250, 0.015625, 0.015625, 0.031250, 0.031250, 0.031250, 0.015625, 0.015625, -0.015625, -0.015625, -0.031250, 0.015625, 0.000000, -0.031250, -0.015625, 0.000000, -0.031250, -0.015625, 0.031250, 0.015625, 0.046875, 0.046875, -0.015625, -0.031250, -0.046875, 0.031250, -0.031250, 0.015625, -0.015625, 0.000000, -0.015625, 0.031250, -0.046875, 0.031250, 0.031250, -0.031250, -0.015625, 0.000000, -0.015625, 0.000000, -0.015625, 0.046875, 0.000000, 0.015625, 0.000000, -0.031250, 0.015625, 0.031250, 0.031250, -0.031250, 0.046875, -0.031250, 0.000000, -0.015625, -0.046875, 0.046875, -0.015625, -0.015625, 0.000000, -0.015625, -0.015625, 0.015625, -0.015625, 0.015625, 0.031250, -0.015625, 0.031250, -0.031250, 0.015625, 0.031250, 0.000000, 0.031250, 0.031250, 0.046875, 0.000000, 0.015625, -0.015625, -0.015625, 0.015625, 0.031250, -0.015625, 0.015625, -0.031250, 0.031250, 0.000000, 0.000000, -0.015625, -0.031250, -0.015625, 0.031250, 0.015625, 0.000000, -0.046875, -0.015625, -0.046875, -0.015625, -0.031250, -0.015625, -0.015625, 0.015625, 0.031250, 0.015625, -0.031250, 0.000000, -0.015625, 0.031250, 0.000000, -0.015625, -0.031250, -0.031250, 0.015625, 0.031250, 0.000000, 0.031250, 0.031250, 0.000000, 0.031250, -0.031250, -0.015625, 0.031250, -0.046875, 0.015625, 0.000000, 0.031250, -0.046875, 0.046875, 0.000000, -0.031250, 0.031250, 0.031250, 0.031250, 0.031250, 0.031250, 0.031250, 0.031250, 0.000000, 0.031250, 0.000000, 0.015625, 0.015625, 0.015625, -0.031250, 0.031250, -0.015625, 0.015625, 0.015625, 0.031250, -0.031250, -0.046875, -0.046875, -0.015625, -0.015625, 0.031250, -0.031250, 0.015625, 0.015625, 0.031250, 0.031250, -0.015625, -0.046875, -0.031250, 0.031250, 0.015625, 0.031250, 0.031250, 0.000000, -0.031250, 0.031250, 0.031250, 0.015625, 0.031250, 0.000000, 0.015625, 0.031250, -0.046875, 0.000000, 0.015625, -0.031250, 0.000000, 0.015625, 0.015625, -0.031250, -0.015625, 0.015625, 0.031250, 0.000000, -0.031250, 0.000000, 0.031250, -0.031250, -0.031250, -0.031250, -0.031250, 0.031250, 0.000000, 0.031250, 0.015625, 0.015625, 0.015625, 0.000000, 0.000000, -0.031250, -0.031250, -0.031250, -0.031250, 0.031250, -0.015625, 0.031250, 0.031250, -0.015625, -0.015625, 0.031250, 0.015625, -0.015625, -0.031250, -0.046875, -0.015625, 0.015625, -0.031250, -0.031250, 0.015625, 0.046875, 0.015625, -0.031250, -0.046875, -0.015625, -0.046875, 0.031250, 0.046875, -0.031250, -0.015625, 0.015625, 0.015625, 0.031250, -0.015625, 0.015625, -0.031250, -0.015625, 0.031250, 0.000000, 0.000000, 0.031250, -0.031250, -0.015625, 0.000000, 0.046875, 0.015625, 0.015625, 0.015625, -0.031250, 0.000000, 0.000000, 0.015625, -0.015625, 0.015625, -0.015625, 0.031250, -0.046875, 0.000000, 0.031250, 0.015625, 0.000000, 0.015625, -0.046875, 0.000000, 0.000000, -0.031250, 0.015625, 0.031250, 0.000000, 0.031250, -0.031250, 0.000000, 0.031250, 0.015625, 0.000000, -0.031250, 0.031250, 0.031250, -0.046875, 0.031250, 0.000000, -0.031250, -0.031250, 0.031250, -0.031250, -0.031250, 0.000000, 0.031250, 0.000000, -0.015625, 0.000000, 0.015625, 0.015625, 0.031250, -0.046875, -0.031250, 0.000000, -0.031250, -0.046875, 0.000000, 0.031250, 0.031250, -0.046875, -0.015625, 0.031250, -0.031250, 0.000000, 0.031250, 0.000000, -0.031250, 0.000000, -0.015625, -0.031250, -0.031250, 0.000000, -0.031250, 0.046875, 0.015625, -0.046875, -0.031250, 0.000000, 0.031250, 0.000000, 0.015625, 0.000000, 0.000000, -0.031250, 0.000000, 0.031250, 0.015625, -0.015625, 0.000000, -0.031250, -0.015625, 0.031250, -0.031250, -0.015625, 0.015625, 0.015625, -0.015625, -0.031250, -0.031250, 0.015625, 0.015625, 0.000000, -0.031250, 0.000000, -0.031250, 0.015625, -0.031250, 0.031250, 0.031250, 0.000000, 0.031250, 0.000000, -0.015625, 0.000000, 0.000000, 0.015625, 0.031250, -0.015625, 0.046875, 0.031250, 0.031250, 0.031250, 0.000000, 0.031250, -0.015625, -0.031250, -0.015625, -0.015625, -0.031250, 0.031250, -0.031250, -0.015625, 0.031250, -0.031250, -0.046875, -0.031250, -0.031250, 0.015625, 0.031250, 0.000000, -0.031250, 0.031250, -0.015625, -0.015625, -0.015625, 0.000000, 0.015625, 0.000000, 0.015625, -0.015625, -0.015625, -0.015625, 0.031250, 0.000000, 0.000000, -0.015625, 0.031250, 0.031250, 0.046875, 0.015625, -0.031250, 0.000000, -0.015625, -0.031250, 0.000000, -0.046875, 0.015625, -0.031250, -0.031250, 0.046875, -0.015625, 0.031250, 0.000000, 0.000000, -0.015625, 0.000000, 0.046875, -0.015625, -0.031250, -0.015625, -0.031250, -0.031250, 0.031250, 0.015625, -0.031250, 0.031250, -0.046875, 0.031250, 0.015625, 0.015625, -0.031250, -0.031250, -0.015625, 0.015625, 0.000000, 0.000000, -0.031250, -0.015625, 0.000000, -0.015625, 0.000000, 0.015625, 0.015625, 0.000000, 0.015625, -0.015625, -0.015625, -0.015625, 0.015625, 0.015625, -0.015625, 0.000000, 0.031250, -0.031250, -0.015625, 0.015625, 0.031250, 0.000000, 0.000000, 0.015625, 0.000000, -0.031250, 0.000000, -0.015625, 0.031250, -0.015625, 0.015625, 0.015625, 0.000000, -0.015625, 0.015625, -0.031250, 0.031250, 0.015625, -0.046875, 0.000000, 0.015625, -0.031250, -0.046875, 0.015625, 0.000000, 0.015625, -0.015625, 0.015625, 0.031250, 0.031250, 0.000000, -0.046875, 0.015625, -0.031250, -0.031250, -0.031250, 0.000000, 0.031250, -0.015625, 0.000000, -0.015625, 0.031250, 0.000000, 0.015625, 0.000000, -0.031250, 0.015625, -0.031250, -0.015625, -0.015625, 0.015625, 0.031250, 0.031250, -0.015625, 0.015625, 0.015625, 0.015625, -0.046875, -0.015625, 0.000000, -0.046875, 0.031250, 0.031250, 0.031250, -0.031250, -0.031250, 0.046875, 0.000000, 0.000000, -0.031250, -0.031250, 0.031250, 0.000000, -0.015625, -0.015625, -0.031250, 0.046875, 0.015625, -0.015625, 0.000000, 0.000000, 0.031250, -0.031250, -0.015625, 0.000000, 0.031250, 0.031250, -0.015625, 0.000000, 0.015625, -0.031250, -0.031250, 0.031250, -0.031250, 0.031250, 0.015625, 0.000000, 0.031250, -0.015625, 0.000000, -0.015625, 0.031250, 0.000000, -0.015625, 0.031250, -0.015625, 0.015625, 0.015625, 0.015625, 0.000000, 0.031250, 0.015625, -0.031250, -0.031250, 0.000000, 0.031250, 0.031250, -0.031250, 0.031250, 0.000000, 0.000000, 0.000000, -0.015625, 0.000000, 0.046875, -0.015625, 0.015625, -0.031250, -0.015625, 0.031250, 0.000000, 0.000000, -0.015625, -0.031250, -0.031250, 0.000000, -0.015625, 0.015625, 0.000000, 0.031250, 0.015625, 0.046875, 0.000000, 0.000000, 0.000000, 0.031250, -0.046875, 0.015625, -0.015625, -0.046875, -0.015625, 0.015625, 0.031250, 0.000000, -0.046875, -0.015625, 0.015625, 0.031250, 0.031250, 0.015625, 0.000000, 0.000000, 0.015625, -0.031250, 0.015625, -0.015625, -0.031250, -0.031250, 0.015625, 0.000000, 0.000000, 0.015625, -0.031250, 0.015625, 0.015625, -0.046875, -0.015625, 0.031250, 0.031250, 0.015625, -0.015625, 0.000000, 0.000000, -0.031250, 0.015625, 0.015625, 0.015625, -0.015625, 0.000000, 0.000000, 0.015625, -0.015625, 0.000000, -0.015625, -0.031250, 0.015625, 0.031250, -0.046875, 0.015625, -0.031250, -0.015625, 0.000000, -0.031250, 0.000000, 0.000000, -0.015625, -0.031250, -0.031250, 0.015625, -0.015625, 0.031250, -0.015625, 0.031250, 0.015625, 0.000000, -0.031250, 0.000000, 0.000000, 0.000000, 0.015625, 0.031250, 0.000000, -0.015625, -0.031250, 0.015625, 0.000000, -0.031250, -0.015625, 0.000000, 0.000000, 0.015625, 0.046875, -0.031250, 0.015625, -0.031250, -0.046875, 0.031250, 0.000000, 0.015625, 0.000000, -0.031250, 0.031250, 0.046875, 0.000000, 0.031250, 0.031250, -0.031250, -0.031250, 0.015625, -0.031250, -0.031250, 0.015625, -0.031250, 0.046875, -0.015625, 0.015625, -0.031250, -0.015625, 0.031250, 0.000000, -0.015625, 0.000000, 0.046875, 0.000000, 0.031250, -0.031250, 0.000000, -0.031250, 0.031250, -0.015625, 0.015625, 0.015625, -0.031250, 0.000000, 0.015625, -0.031250, 0.000000, 0.015625, 0.031250, -0.015625, 0.031250, -0.046875, -0.031250, 0.031250, -0.031250, 0.031250, -0.046875, -0.031250, 0.015625, 0.015625, 0.000000, -0.031250, -0.031250, -0.015625, 0.015625, -0.031250, -0.015625, -0.015625, 0.031250, 0.031250, -0.031250, -0.031250, 0.000000, 0.000000, -0.046875, -0.031250, 0.046875, 0.000000, -0.015625, -0.015625, -0.015625, -0.031250, 0.000000, -0.015625, -0.015625, 0.000000, 0.015625, 0.046875, -0.015625, 0.000000, 0.031250, 0.000000, 0.015625, 0.046875, 0.031250, -0.046875, 0.000000, 0.031250, -0.015625, 0.000000, 0.015625, -0.031250, -0.015625, -0.031250, 0.000000, -0.031250, -0.031250, 0.031250, 0.015625, 0.015625, -0.015625, 0.031250, 0.015625, 0.000000, 0.015625, -0.015625, 0.046875, -0.031250, -0.015625, 0.000000, -0.031250, -0.031250, 0.031250, 0.015625, -0.015625, -0.015625, 0.031250, 0.015625, 0.031250, 0.046875, 0.031250, 0.046875, 0.000000, -0.015625, 0.000000, -0.031250, -0.015625, -0.015625, 0.000000, -0.031250, 0.031250, -0.015625, -0.015625, -0.031250, 0.046875, 0.015625, -0.015625, 0.015625, 0.015625, -0.031250, 0.031250, -0.015625, 0.031250, -0.031250, 0.000000, -0.015625, 0.046875, 0.000000, -0.046875, 0.000000, 0.000000, 0.000000, 0.015625, 0.015625, 0.015625, -0.046875, -0.031250, 0.046875, -0.031250, -0.031250, 0.000000, 0.031250, 0.015625, 0.031250, 0.031250, -0.015625, 0.000000, 0.015625, -0.031250, 0.000000, -0.031250, 0.015625, 0.015625, 0.031250, 0.015625, -0.031250, 0.000000, -0.015625, 0.031250, -0.015625, -0.015625, 0.031250, -0.031250, -0.015625, -0.015625, -0.015625, -0.015625, 0.000000, 0.015625, -0.015625, 0.000000, -0.015625, -0.015625, 0.000000, -0.031250, 0.031250, 0.015625, -0.031250, -0.046875, 0.031250, -0.031250, 0.015625, -0.031250, 0.015625, 0.015625, -0.031250, -0.031250, 0.000000, 0.015625, 0.031250, -0.015625, -0.046875, 0.000000, -0.015625, -0.031250, 0.015625, 0.015625, -0.015625, 0.031250, 0.031250, -0.015625, 0.000000, 0.031250, -0.015625, -0.015625, 0.015625, 0.000000, 0.000000, -0.015625, 0.031250, 0.000000, -0.015625, 0.046875, -0.031250, 0.031250, 0.046875, -0.046875, -0.015625, 0.015625, -0.031250, 0.015625, -0.031250, -0.015625, 0.031250, 0.000000, -0.015625, 0.046875, -0.031250, -0.015625, 0.015625, 0.015625, 0.000000, 0.015625, -0.015625, 0.015625, 0.015625, -0.031250, 0.031250, -0.015625, 0.015625, 0.015625, -0.031250, -0.015625, -0.015625, -0.031250, -0.015625, 0.015625, 0.015625, 0.000000, 0.031250, 0.015625, 0.000000, -0.031250, -0.031250, 0.015625, 0.031250, 0.015625, 0.000000, -0.015625, 0.031250, -0.031250, 0.031250, 0.015625, 0.000000, 0.031250, 0.000000, -0.015625, 0.015625, -0.015625, 0.000000, 0.000000, -0.031250, 0.000000, -0.015625, 0.046875, 0.031250, 0.015625, 0.000000, 0.031250, -0.031250, 0.000000, 0.015625, -0.031250, 0.000000, 0.031250, 0.015625, 0.000000, -0.015625, 0.015625, 0.031250, 0.046875, 0.031250, 0.015625, 0.031250, 0.031250, 0.015625, 0.015625, 0.015625, 0.015625, 0.015625, 0.000000, -0.046875, -0.015625, 0.000000, 0.031250, -0.015625, -0.046875, 0.000000, 0.000000, 0.031250, 0.000000, -0.031250, 0.000000, -0.015625, 0.000000, -0.031250, -0.031250, 0.000000, -0.031250, 0.031250, 0.015625, 0.000000, 0.031250, -0.015625, -0.046875, 0.015625, 0.000000, 0.031250, 0.031250, 0.015625, 0.031250, 0.015625, 0.031250, -0.015625, 0.015625, -0.046875, 0.015625, -0.031250, 0.000000, 0.000000, 0.015625, -0.015625, 0.031250, -0.031250, 0.000000, 0.000000, 0.031250, 0.031250, 0.000000, 0.031250, 0.031250, -0.031250, -0.015625, 0.000000, -0.031250, 0.000000, 0.031250, 0.015625, 0.031250, -0.015625, -0.031250, -0.031250, -0.015625, 0.031250, -0.046875, 0.000000, 0.000000, -0.031250, 0.000000, 0.015625, 0.000000, 0.000000, -0.015625, 0.000000, 0.015625, -0.015625, 0.000000, 0.000000, 0.015625, -0.015625, 0.031250, -0.031250, -0.046875, -0.015625, 0.000000, -0.046875, -0.031250, -0.046875, 0.015625, -0.031250, 0.015625, -0.015625, 0.000000, -0.015625, -0.015625, 0.031250, -0.015625, 0.000000, -0.031250, 0.031250, 0.015625, 0.031250, 0.000000, 0.031250, -0.046875, -0.046875, 0.000000, -0.046875, 0.031250, -0.046875, -0.015625, 0.000000, 0.031250, 0.031250, 0.031250, -0.015625, 0.015625, -0.015625, 0.000000, 0.000000, 0.000000, 0.000000, -0.031250, -0.015625, 0.031250, 0.031250, 0.046875, -0.015625, 0.031250, 0.031250, 0.031250, -0.015625, 0.000000, -0.031250, 0.015625, 0.015625, 0.015625, 0.000000, -0.015625, 0.031250, 0.000000, -0.046875, 0.031250, -0.031250, 0.031250, 0.031250, -0.031250, 0.000000, 0.015625, 0.015625, -0.015625, -0.031250, -0.046875, 0.031250, -0.031250, 0.031250, -0.015625, 0.031250, -0.031250, 0.000000, 0.031250, -0.031250, 0.015625, -0.015625, 0.015625, 0.000000, -0.031250, 0.015625, -0.015625, -0.015625, 0.031250, -0.015625, 0.015625, -0.031250, 0.031250, 0.046875, -0.031250, -0.031250, -0.031250, 0.031250, -0.031250, 0.015625, 0.031250, -0.031250, 0.031250, -0.031250, -0.031250, -0.015625, -0.031250, -0.031250, 0.000000, 0.031250, -0.031250, -0.015625, 0.031250, -0.031250, 0.031250, 0.015625, -0.015625, -0.031250, 0.031250, 0.015625, 0.015625, 0.031250, 0.046875, -0.015625, 0.046875, -0.031250, 0.015625, -0.031250, 0.000000, -0.015625, 0.015625, -0.015625, 0.015625, 0.000000, 0.000000, -0.015625, 0.031250, 0.031250, -0.015625, -0.031250, 0.015625, 0.015625, 0.000000, -0.046875, -0.031250, -0.031250, 0.000000, 0.000000, 0.000000, -0.031250, -0.031250, -0.031250, 0.000000, -0.031250, 0.015625, 0.031250, 0.000000, -0.015625, 0.000000, -0.046875, -0.031250, 0.031250, -0.046875, 0.031250, 0.046875, 0.000000, 0.000000, -0.046875, 0.000000, -0.031250, 0.031250, -0.015625, 0.000000, 0.015625, 0.015625, 0.015625, 0.000000, 0.000000, 0.015625, -0.031250, 0.000000, 0.015625, 0.015625, -0.015625, 0.015625, 0.031250, 0.031250, -0.046875, 0.031250, -0.031250, -0.031250, 0.000000, 0.015625, -0.031250, 0.031250, 0.000000, -0.015625, 0.000000, 0.015625, -0.031250, -0.015625, -0.031250, 0.015625, -0.015625, 0.015625, -0.031250, -0.015625, -0.015625, 0.031250, 0.046875, -0.046875, 0.000000, -0.031250, -0.031250, -0.031250, 0.031250, 0.031250, -0.031250, 0.031250, -0.015625, 0.015625, 0.015625, 0.000000, -0.015625, 0.031250, 0.000000, 0.000000, -0.015625, 0.015625, 0.015625, -0.015625, 0.015625, 0.000000, 0.000000, 0.000000, -0.031250, 0.031250, -0.046875, 0.000000, -0.015625, -0.015625, 0.015625, -0.015625, -0.015625, 0.031250, -0.015625, 0.031250, 0.031250, 0.000000, 0.015625, 0.031250, 0.015625, 0.000000, 0.031250, 0.000000, -0.015625, 0.046875, 0.000000, 0.031250, 0.000000, -0.031250, -0.031250, 0.015625, -0.015625, -0.031250, 0.000000, -0.015625, 0.000000, 0.031250, 0.000000, 0.015625, -0.046875, -0.046875, -0.031250, 0.015625, 0.000000, 0.000000, 0.031250, 0.000000, 0.000000, -0.031250, 0.000000, 0.000000, 0.000000, -0.015625, 0.031250, -0.031250, 0.000000, 0.031250, -0.031250, -0.046875, 0.015625, 0.015625, -0.015625, 0.000000, -0.015625, 0.015625, 0.000000, 0.031250, 0.000000, 0.031250, 0.015625, 0.031250, 0.031250, -0.015625, -0.015625, -0.015625, -0.031250, 0.031250, -0.031250, -0.031250, 0.000000, -0.015625, -0.015625, -0.015625, -0.031250, 0.000000, -0.031250, -0.031250, 0.015625, 0.015625, -0.031250, 0.031250, 0.031250, 0.000000, -0.031250, -0.015625, 0.015625, 0.000000, -0.046875, 0.031250, 0.031250, 0.000000, 0.015625, -0.015625, -0.031250, 0.031250, 0.031250, 0.046875, -0.046875, 0.031250, 0.031250, 0.031250, -0.031250, -0.015625, -0.031250, 0.015625, 0.015625, 0.046875, -0.031250, -0.031250, -0.015625, 0.000000, -0.015625, 0.031250, -0.015625, 0.000000, -0.031250, -0.031250, 0.031250, 0.000000, 0.015625, 0.015625, 0.015625, -0.031250, 0.015625, -0.015625, -0.015625, 0.015625, -0.015625, 0.000000, -0.031250, 0.015625, 0.000000, -0.015625, 0.000000, 0.031250, 0.031250, -0.015625, 0.031250, 0.000000, -0.015625, -0.031250, 0.031250, 0.046875, 0.000000, 0.031250, 0.031250, 0.031250, 0.031250, -0.031250, 0.015625, 0.000000, 0.000000, 0.031250, 0.000000, 0.015625, 0.015625, -0.046875, -0.031250, -0.015625, 0.000000, -0.046875, 0.015625, 0.031250, -0.015625, -0.015625, -0.031250, 0.015625, 0.015625, 0.000000, 0.031250, -0.015625, 0.000000, 0.031250, 0.031250, 0.031250, -0.015625, -0.046875, -0.015625, 0.000000, -0.031250, 0.031250, 0.031250, -0.015625, 0.031250, 0.000000, -0.031250, 0.015625, 0.000000, -0.031250, 0.000000, -0.031250, 0.015625, 0.000000, 0.000000, 0.031250, 0.000000, 0.000000, -0.015625, 0.031250, 0.031250, -0.031250, -0.015625, 0.015625, 0.000000, 0.000000, -0.031250, 0.046875, 0.015625, 0.000000, 0.000000, -0.015625, 0.015625, 0.015625, 0.000000, 0.015625, -0.015625, -0.031250, 0.031250, -0.015625, 0.046875, -0.031250, 0.031250, 0.000000, 0.015625, 0.015625, 0.015625, -0.015625, 0.000000, 0.000000, 0.015625, 0.031250, -0.015625, 0.000000, -0.015625, -0.015625, -0.015625, -0.031250, 0.015625, -0.015625, -0.015625, 0.000000, -0.015625, 0.031250, 0.000000, -0.031250, 0.000000, -0.015625, 0.015625, 0.000000, 0.031250, 0.000000, 0.031250, 0.015625, -0.015625, 0.015625, 0.031250, -0.031250, 0.015625, -0.031250, -0.015625, -0.015625, -0.031250, -0.015625, 0.000000, 0.000000, -0.031250, 0.015625, -0.031250, 0.031250, 0.000000, 0.000000, -0.031250, 0.000000, -0.031250, 0.015625, -0.031250, -0.015625, 0.015625, -0.031250, -0.031250, -0.015625, 0.031250, 0.000000, -0.031250, 0.031250, 0.015625, 0.031250, 0.015625, 0.015625, 0.031250, 0.046875, 0.015625, -0.031250, -0.031250, 0.015625, 0.031250, 0.046875, 0.000000, -0.031250, 0.015625, 0.000000, -0.031250, 0.031250, 0.015625, 0.000000, 0.031250, -0.015625, -0.031250, -0.046875, 0.031250, 0.046875, 0.046875, -0.031250, 0.015625, 0.000000, 0.046875, -0.015625, 0.015625, 0.046875, 0.031250, -0.015625, 0.015625, -0.031250, 0.015625, -0.031250, 0.015625, 0.015625, 0.031250, 0.000000, -0.015625, -0.015625, -0.031250, 0.000000, 0.000000, 0.031250, -0.031250, -0.015625, -0.046875, 0.000000, -0.015625, 0.031250, 0.046875, 0.031250, 0.015625, -0.046875, 0.031250, 0.000000, 0.015625, -0.015625, -0.031250, -0.031250, -0.015625, 0.015625, 0.000000, 0.000000, 0.015625, -0.031250, -0.015625, 0.000000, 0.000000, -0.015625, -0.015625, 0.000000, -0.031250, 0.031250, 0.000000, 0.015625, 0.031250, -0.031250, 0.031250, -0.031250, 0.031250, -0.031250, 0.000000, -0.015625, 0.031250, 0.000000, 0.015625, 0.000000, -0.031250, 0.000000, -0.031250, -0.046875, 0.031250, 0.015625, 0.015625, 0.000000, -0.031250, 0.046875, 0.046875, 0.000000, 0.015625, -0.015625, -0.046875, 0.046875, -0.015625, 0.031250, 0.000000, -0.031250, 0.031250, 0.000000, -0.031250, 0.031250, 0.046875, 0.015625, 0.031250, -0.015625, 0.000000, 0.000000, 0.015625, 0.031250, -0.015625, 0.031250, 0.015625, 0.015625, 0.031250, -0.031250, 0.000000, -0.031250, -0.031250, 0.015625, -0.031250, 0.031250, -0.031250, -0.015625, 0.015625, 0.000000, -0.046875, -0.031250, 0.031250, 0.046875, -0.031250, -0.031250, 0.031250, 0.031250, 0.000000, -0.015625, -0.015625, -0.015625, -0.015625, 0.046875, -0.015625, 0.031250, 0.015625, 0.031250, 0.031250, -0.031250, -0.015625, 0.046875, -0.015625, 0.000000, -0.015625, 0.031250, -0.015625, 0.000000, 0.031250, -0.031250, -0.031250, -0.015625, 0.046875, 0.000000, -0.031250, -0.031250, 0.015625, 0.015625, -0.015625, 0.000000, 0.031250, -0.031250, 0.031250, 0.046875, 0.031250, 0.031250, 0.015625, 0.015625, -0.031250, 0.000000, -0.031250, 0.000000, 0.015625, -0.031250, -0.031250, -0.031250, -0.015625, 0.046875, 0.015625, -0.015625, -0.046875, -0.015625, 0.000000, -0.015625, -0.046875, 0.015625, -0.015625, 0.031250, -0.046875, -0.031250, 0.031250, 0.046875, 0.031250, -0.031250, 0.015625, 0.031250, 0.031250, -0.031250, 0.031250, -0.031250, -0.015625, 0.046875, 0.031250, 0.015625, -0.031250, 0.046875, -0.031250, -0.015625, 0.015625, 0.000000, 0.015625, -0.015625, 0.000000, 0.015625, 0.015625, -0.031250, -0.031250, -0.015625, -0.031250, 0.031250, 0.031250, 0.015625, 0.031250, -0.031250, -0.046875, 0.000000, 0.031250, 0.031250, -0.031250, 0.031250, -0.031250, -0.015625, -0.031250, -0.015625, -0.046875, 0.031250, 0.000000, 0.000000, 0.015625, -0.031250, 0.000000, 0.031250, 0.046875, 0.031250, 0.000000, 0.031250, -0.015625, -0.015625, -0.015625, 0.031250, 0.031250, -0.031250, -0.015625, 0.000000, -0.031250, 0.015625, 0.046875, 0.031250, -0.031250, 0.015625, 0.000000, -0.031250, 0.000000, 0.046875, -0.031250, 0.031250, 0.000000, -0.031250, 0.031250, 0.000000, -0.015625, 0.046875, 0.046875, 0.015625, -0.015625, -0.031250, -0.031250, -0.046875, 0.015625, -0.015625, 0.046875, 0.031250, -0.015625, -0.031250, 0.031250, 0.000000, -0.015625, -0.031250, 0.015625, 0.015625, 0.031250, 0.000000, -0.031250, -0.031250, 0.015625, 0.000000, -0.046875, 0.000000, 0.015625, 0.000000, -0.031250, 0.046875, 0.000000, 0.000000, 0.000000, 0.031250, -0.031250, -0.015625, -0.015625, 0.000000, -0.015625, 0.015625, 0.000000, 0.000000, 0.015625, 0.000000, 0.031250, -0.031250, -0.015625, 0.031250, -0.015625, -0.031250, 0.000000, 0.000000, 0.031250, -0.015625, 0.031250, 0.015625, 0.000000, 0.031250, -0.031250, 0.000000, -0.031250, 0.015625, -0.031250, 0.015625, 0.046875, 0.031250, 0.000000, 0.031250, 0.031250, 0.031250, -0.031250, 0.015625, 0.015625, 0.000000, 0.015625, 0.015625, -0.031250, 0.000000, 0.015625, 0.015625, -0.046875, -0.046875, 0.000000, 0.000000, 0.015625, -0.031250, -0.031250, -0.015625, -0.031250, -0.015625, 0.000000, -0.015625, 0.031250, -0.031250, 0.015625, 0.031250, -0.015625, -0.031250, 0.015625, 0.015625, 0.031250, 0.031250, -0.031250, 0.000000, 0.031250, 0.031250, -0.015625, -0.031250, -0.031250, 0.000000, 0.031250, 0.031250, 0.015625, -0.031250, 0.000000, -0.015625, 0.015625, -0.031250, 0.046875, -0.031250, 0.000000, -0.015625, 0.031250, 0.031250, -0.031250, -0.031250, 0.015625, 0.000000, 0.015625, -0.015625, 0.000000, 0.031250, 0.031250, -0.015625, -0.015625, 0.000000, 0.031250, -0.031250, -0.015625, 0.015625, 0.015625, 0.031250, -0.015625, 0.015625, -0.015625, 0.031250, -0.031250, 0.000000, 0.031250, -0.031250, 0.031250, -0.031250, -0.015625, -0.046875, 0.000000, 0.031250, -0.015625, 0.000000, 0.031250, -0.015625, -0.015625, -0.031250, 0.015625, 0.000000, -0.015625, -0.015625, 0.000000, 0.000000, 0.000000, -0.031250, 0.015625, 0.015625, -0.046875, 0.000000, -0.031250, 0.031250, 0.031250, 0.015625, 0.031250, 0.015625, -0.015625, -0.031250, -0.031250, -0.046875, -0.046875, 0.000000, -0.031250, -0.031250, -0.046875, -0.031250, -0.015625, -0.015625, 0.015625, 0.000000, 0.015625, 0.015625, 0.015625, 0.015625, -0.031250, 0.015625, -0.031250, 0.031250, -0.046875, 0.046875, 0.031250, 0.031250, -0.031250, 0.031250, 0.015625, 0.046875, 0.015625, 0.031250, 0.031250, -0.031250, 0.015625, 0.015625, -0.031250, -0.031250, 0.000000, 0.031250, -0.031250, 0.015625, -0.031250, 0.031250, 0.000000, 0.031250, -0.015625, 0.000000, 0.031250, -0.015625, -0.015625, 0.031250, -0.015625, 0.015625, 0.015625, -0.031250, 0.031250, 0.000000, 0.000000, 0.031250, 0.046875, -0.031250, -0.015625, -0.015625, 0.000000, -0.015625, 0.031250, -0.015625, 0.000000, -0.031250, 0.031250, -0.015625, 0.000000, -0.031250, 0.015625, 0.000000, 0.000000, 0.031250, 0.031250, 0.031250, 0.000000, 0.015625, 0.000000, 0.000000, 0.031250, 0.000000, 0.000000, -0.046875, -0.015625, -0.015625, 0.031250, -0.046875, 0.000000, -0.031250, -0.031250, 0.031250, 0.000000, -0.015625, 0.015625, -0.015625, -0.015625, 0.031250, -0.015625, -0.015625, -0.031250, 0.015625, 0.015625, -0.031250, 0.000000, -0.031250, 0.000000, 0.031250, 0.000000, 0.031250, -0.031250, 0.015625, -0.031250, -0.046875, -0.015625, 0.015625, 0.031250, 0.015625, -0.015625, 0.031250, -0.015625, 0.000000, 0.000000, 0.031250, 0.046875, -0.015625, 0.031250, 0.000000, 0.015625, -0.015625, -0.046875, 0.031250, -0.015625, -0.031250, 0.015625, 0.000000, -0.031250, 0.015625, 0.000000, 0.000000, 0.015625, 0.015625, 0.000000, -0.031250, 0.000000, 0.031250, 0.015625, 0.015625, -0.031250, 0.015625, -0.031250, 0.000000, -0.031250, 0.015625, 0.000000, -0.015625, 0.031250, 0.015625, -0.031250, 0.031250, 0.031250, 0.000000, 0.000000, -0.031250, -0.031250, -0.015625, 0.000000, 0.000000, 0.031250, -0.031250, 0.046875, 0.046875, -0.015625, -0.015625, 0.015625, -0.031250, -0.031250, 0.031250, -0.015625, -0.031250, 0.031250, 0.000000, -0.015625, -0.046875, 0.000000, 0.031250, -0.031250, 0.015625, 0.031250, -0.031250, 0.031250, -0.031250, 0.000000, -0.015625, 0.031250, -0.031250, 0.031250, 0.031250, 0.000000, 0.015625, -0.015625, 0.046875, 0.031250, -0.015625, -0.015625, -0.031250, 0.031250, 0.031250, 0.015625, -0.015625, 0.015625, -0.046875, 0.031250, -0.031250, 0.031250, 0.015625, 0.031250, 0.000000, 0.000000, -0.015625, 0.031250, -0.015625, 0.000000, -0.015625, -0.031250, -0.031250, -0.031250, 0.031250, -0.031250, 0.015625, 0.000000, -0.015625, 0.031250, -0.031250, 0.015625, 0.015625, 0.031250, 0.031250, 0.015625, 0.015625, 0.015625, 0.000000, -0.031250, 0.046875, -0.031250, -0.015625, -0.015625, -0.015625, -0.046875, -0.031250, 0.015625, 0.000000, -0.031250, 0.015625, -0.015625, -0.015625, -0.031250, 0.000000, -0.031250, -0.046875, 0.031250, 0.031250, 0.031250, -0.031250, -0.015625, -0.031250, -0.031250, 0.015625, -0.031250, 0.000000, 0.031250, 0.015625, -0.015625, -0.031250, 0.000000, 0.046875, 0.015625, -0.031250, -0.015625, -0.031250, 0.015625, -0.031250, 0.015625, 0.015625, -0.031250, -0.031250, -0.031250, 0.015625, 0.000000, 0.031250, -0.031250, 0.015625, 0.015625, 0.046875, -0.046875, -0.031250, -0.031250, 0.000000, 0.031250, 0.015625, -0.015625, -0.015625, 0.046875, 0.000000, 0.015625, -0.031250, 0.000000, 0.000000, -0.015625, 0.000000, 0.046875, 0.015625, -0.015625, 0.000000, 0.046875, 0.000000, -0.015625, 0.031250, 0.031250, 0.000000, -0.031250, -0.031250, 0.015625, -0.031250, 0.015625, 0.000000, 0.046875, 0.000000, -0.031250, 0.000000, -0.031250, -0.046875, 0.000000, -0.046875, 0.031250, -0.031250, -0.015625, 0.000000, 0.000000, 0.015625, -0.031250, -0.015625, -0.015625, -0.031250, 0.015625, 0.000000, 0.015625, 0.031250, 0.000000, 0.046875, -0.015625, 0.015625, 0.000000, -0.031250, -0.031250, 0.031250, 0.000000, 0.031250, 0.046875, 0.000000, 0.015625, 0.031250, -0.015625, 0.015625, 0.000000, -0.031250, 0.031250, -0.015625, 0.015625, -0.031250, -0.046875, -0.031250, 0.000000, 0.000000, 0.015625, 0.000000, 0.000000, 0.015625, 0.015625, -0.031250, 0.031250, 0.015625, 0.000000, 0.000000, -0.015625, 0.031250, -0.031250, -0.046875, -0.031250, -0.015625, 0.015625, -0.015625, 0.015625, 0.046875, -0.015625, -0.015625, -0.031250, 0.015625, -0.031250, -0.031250, 0.031250, 0.000000, -0.031250, -0.046875, 0.031250, 0.031250, -0.015625, -0.015625, 0.015625, -0.031250, -0.015625, 0.031250, 0.031250, 0.015625, -0.031250, -0.015625, -0.015625, -0.031250, -0.031250, -0.046875, -0.031250, 0.000000, -0.031250, 0.015625, 0.000000, 0.015625, 0.015625, 0.015625, 0.000000, -0.031250, 0.031250, -0.015625, -0.015625, 0.031250, 0.000000, 0.031250, -0.031250, -0.046875, 0.031250, -0.031250, 0.031250, -0.015625, 0.015625, 0.000000, -0.031250, -0.046875, 0.000000, 0.015625, 0.000000, 0.031250, -0.031250, 0.031250, -0.015625, 0.000000, -0.031250, 0.031250, 0.015625, -0.015625, 0.000000, -0.015625, 0.000000, 0.015625, -0.015625, -0.031250, -0.046875, -0.031250, 0.000000, 0.031250, 0.046875, 0.015625, 0.015625, 0.031250, 0.031250, 0.015625, 0.000000, -0.015625, 0.031250, -0.031250, 0.031250, 0.015625, 0.015625, 0.015625, -0.031250, 0.031250, -0.031250, 0.046875, -0.015625, -0.015625, 0.031250, 0.031250, 0.031250, 0.031250, 0.015625, 0.046875, 0.031250, 0.015625, 0.031250, 0.015625, 0.015625, 0.015625, -0.046875, -0.015625, -0.015625, -0.015625, -0.031250, 0.015625, 0.000000, -0.031250, -0.031250, 0.031250, 0.031250, 0.031250, 0.015625, -0.031250, 0.031250, -0.015625, -0.031250, -0.031250, -0.015625, -0.015625, 0.031250, 0.031250, 0.015625, -0.015625, -0.031250, 0.000000, 0.031250, -0.031250, -0.031250, 0.031250, -0.046875, -0.015625, -0.031250, 0.031250, 0.031250, 0.000000, -0.015625, -0.015625, -0.031250, -0.031250, 0.031250, 0.000000, -0.031250, 0.031250, -0.015625, 0.031250, 0.031250, 0.015625, -0.031250, -0.031250, -0.015625, 0.000000, -0.046875, 0.015625, -0.031250, -0.031250, -0.015625, 0.015625, 0.015625, 0.031250, 0.031250, 0.015625, 0.000000, 0.031250, -0.031250, -0.015625, 0.015625, 0.015625, -0.015625, -0.031250, 0.031250, 0.015625, -0.015625, 0.000000, 0.000000, -0.046875, -0.046875, -0.031250, -0.031250, -0.031250, 0.000000, -0.046875, -0.046875, -0.015625, 0.031250, -0.015625, -0.046875, -0.015625, 0.031250, 0.000000, 0.015625, 0.015625, 0.046875, 0.031250, -0.031250, 0.031250, -0.015625, 0.015625, -0.031250, 0.031250, -0.031250, -0.031250, 0.046875, 0.031250, 0.000000, 0.000000, -0.015625, -0.015625, 0.000000, -0.015625, 0.031250, -0.015625, 0.000000, 0.031250, -0.046875, 0.000000, -0.031250, -0.031250, -0.031250, 0.031250, 0.031250, 0.000000, -0.031250, -0.031250, -0.015625, -0.031250, -0.015625, 0.000000, 0.046875, 0.015625, 0.015625, -0.015625, -0.015625, -0.015625, 0.000000, -0.031250, -0.015625, 0.000000, 0.000000, 0.015625, 0.015625, 0.015625, -0.015625, -0.031250, -0.015625, 0.000000, 0.031250, 0.015625, 0.015625, 0.015625, 0.015625, 0.015625, 0.031250, -0.031250, 0.000000, 0.015625, -0.015625, -0.015625, -0.046875, -0.031250, -0.031250, -0.031250, -0.031250, 0.000000, -0.031250, 0.000000, 0.000000, -0.046875, 0.031250, 0.000000, 0.046875, 0.031250, 0.015625, -0.015625, -0.031250, 0.000000, 0.031250, 0.000000, -0.031250, 0.031250, -0.031250, -0.015625, 0.000000, -0.015625, 0.015625, 0.046875, 0.015625, 0.015625, 0.000000, -0.015625, 0.000000, -0.031250, -0.015625, 0.015625, -0.015625, 0.015625, 0.000000, -0.015625, 0.031250, 0.015625, 0.031250, 0.000000, -0.031250, 0.031250, 0.031250, 0.015625, -0.046875, 0.031250, 0.015625, 0.015625, -0.031250, 0.015625, -0.031250, -0.031250, 0.015625, -0.015625, 0.031250, 0.046875, -0.031250, -0.046875, -0.031250, -0.046875, -0.031250, -0.015625, 0.000000, -0.031250, 0.000000, -0.031250, -0.015625, -0.031250, 0.031250, 0.015625, 0.015625, -0.015625, -0.031250, -0.015625, -0.015625, -0.031250, -0.015625, -0.015625, -0.031250, -0.031250, -0.031250, -0.015625, 0.046875, -0.015625, -0.031250, 0.031250, 0.031250, 0.000000, -0.031250, 0.031250, 0.015625, 0.000000, 0.031250, 0.031250, -0.015625, 0.031250, 0.015625, -0.031250, 0.000000, 0.000000, 0.031250, 0.000000, -0.031250, 0.015625, 0.046875, -0.015625, -0.031250, -0.046875, 0.015625, 0.031250, -0.015625, 0.000000, -0.031250, -0.015625, 0.015625, -0.031250, 0.000000, 0.000000, 0.000000, 0.000000, -0.015625, 0.000000, 0.015625, 0.015625, -0.015625, -0.015625, -0.015625, 0.015625, 0.000000, -0.031250, 0.031250, 0.015625, -0.031250, -0.031250, 0.015625, 0.015625, 0.031250, 0.000000, 0.031250, -0.015625, 0.031250, -0.015625, 0.031250, -0.015625, 0.015625, -0.031250, 0.000000, 0.000000, -0.015625, 0.031250, -0.031250, -0.015625, 0.000000, 0.031250, -0.015625, -0.015625, -0.031250, 0.015625, -0.046875, 0.000000, -0.031250, 0.000000, 0.000000, -0.031250, 0.000000, -0.031250, 0.031250, 0.015625, 0.015625, 0.000000, -0.031250, -0.031250, 0.031250, -0.031250, -0.031250, 0.031250, -0.015625, 0.000000, 0.031250, -0.031250, -0.031250, 0.015625, 0.015625, -0.031250, 0.000000, 0.000000, -0.015625, 0.046875, 0.000000, -0.031250, 0.015625, -0.015625, 0.000000, -0.015625, 0.031250, 0.000000, 0.031250, 0.031250, -0.015625, 0.031250, -0.031250, 0.031250, 0.000000, -0.031250, 0.015625, -0.046875, 0.031250, 0.015625, 0.015625, 0.015625, 0.015625, 0.000000, -0.015625, 0.031250, 0.000000, -0.015625, -0.015625, -0.015625, -0.015625, 0.015625, -0.046875, -0.015625, 0.000000, 0.031250, 0.015625, -0.015625, -0.015625, -0.015625, -0.015625, 0.015625, -0.015625, 0.031250, -0.031250, 0.000000, 0.046875, 0.015625, 0.000000, 0.015625, 0.031250, -0.031250, 0.031250, 0.031250, 0.031250, -0.015625, 0.031250, 0.000000, 0.031250, -0.046875, 0.015625, -0.031250, -0.031250, 0.000000, -0.031250, -0.046875, -0.015625, -0.015625, 0.031250, -0.046875, 0.015625, 0.031250, 0.015625, 0.031250, 0.046875, 0.015625, 0.031250, 0.031250, 0.000000, -0.031250, -0.031250, -0.015625, 0.031250, -0.031250, 0.000000, -0.015625, 0.031250, 0.000000, -0.031250, 0.015625, 0.015625, -0.015625, -0.015625, -0.031250, 0.000000, 0.031250, 0.015625, -0.015625, 0.031250, -0.031250, 0.015625, -0.031250, 0.015625, -0.046875, 0.015625, -0.015625, 0.015625, -0.046875, 0.031250, 0.031250, 0.000000, -0.015625, -0.031250, 0.015625, -0.015625, -0.031250, -0.046875, 0.015625, 0.000000, -0.031250, 0.015625, 0.015625, 0.015625, -0.015625, -0.015625, -0.031250, 0.000000, 0.046875, 0.031250, -0.031250, 0.000000, 0.000000, -0.031250, 0.031250, 0.000000, -0.015625, 0.031250, 0.015625, 0.046875, 0.031250, 0.000000, 0.031250, -0.031250, -0.046875, -0.031250, -0.015625, -0.015625, 0.031250, 0.031250, 0.015625, 0.031250, -0.031250, -0.031250, 0.000000, -0.015625, -0.015625, -0.031250, 0.031250, 0.000000, 0.015625, 0.015625, 0.015625, 0.000000, -0.015625, -0.031250, 0.015625, 0.000000, -0.015625, 0.031250, -0.031250, -0.015625, 0.000000, 0.015625, -0.031250, 0.015625, -0.015625, 0.031250, -0.015625, 0.015625, 0.015625, 0.000000, 0.000000, 0.031250, 0.000000, -0.015625, 0.046875, 0.015625, 0.031250, -0.015625, -0.015625, 0.015625, -0.015625, 0.015625, 0.015625, 0.015625, -0.015625, -0.015625, 0.000000, -0.031250, 0.015625, 0.015625, 0.000000, -0.015625, 0.015625, -0.015625, 0.015625, 0.000000, -0.031250, -0.015625, 0.000000, -0.031250, 0.000000, -0.015625, -0.031250, -0.031250, 0.031250, -0.015625, 0.000000, 0.015625, -0.031250, 0.015625, -0.031250, -0.046875, 0.000000, 0.015625, 0.000000, 0.046875, 0.031250, -0.046875, -0.015625, -0.031250, 0.015625, 0.000000, 0.000000, 0.000000, 0.000000, 0.015625, 0.000000, -0.031250, -0.015625, 0.046875, 0.000000, 0.015625, 0.031250, 0.015625, 0.031250, 0.000000, 0.046875, 0.015625, 0.000000, 0.015625, 0.031250, -0.015625, 0.046875, 0.031250, 0.000000, 0.015625, -0.031250, 0.031250, 0.000000, -0.015625, -0.015625, 0.000000, -0.015625, 0.015625, -0.015625, 0.000000, 0.015625, 0.015625, -0.015625, 0.015625, 0.015625, -0.031250, 0.031250, 0.000000, 0.015625, -0.031250, -0.015625, -0.046875, 0.000000, 0.015625, -0.015625, 0.000000, 0.031250, 0.015625, 0.015625, -0.015625, 0.015625, 0.015625, 0.000000, -0.031250, -0.015625, 0.000000, 0.000000, 0.031250, 0.031250, -0.031250, 0.015625, 0.031250, 0.046875, 0.031250, 0.015625, -0.031250, -0.015625, 0.031250, 0.000000, 0.015625, 0.031250, 0.031250, 0.015625, -0.031250, 0.046875, 0.000000, 0.000000, 0.015625, 0.015625, 0.000000, 0.031250, -0.015625, -0.031250, -0.015625, -0.031250, 0.000000, -0.031250, 0.000000, -0.046875, -0.015625, 0.031250, -0.031250, -0.031250, 0.015625, 0.031250, 0.031250, 0.000000, 0.015625, -0.031250, -0.046875, -0.031250, 0.015625, -0.031250, 0.031250, 0.015625, 0.015625, 0.031250, 0.031250, 0.031250, -0.015625, -0.015625, -0.015625, 0.046875, 0.031250, -0.031250, 0.031250, -0.031250, 0.000000, -0.046875, 0.031250, 0.015625, 0.031250, 0.031250, 0.015625, 0.031250, -0.031250, 0.000000, -0.015625, 0.031250, -0.015625, 0.046875, 0.015625, 0.000000, 0.031250, 0.031250, -0.031250, -0.046875, -0.031250, -0.015625, 0.000000, 0.000000, 0.000000, -0.015625, 0.000000, 0.015625, 0.031250, 0.015625, 0.000000, -0.015625, -0.015625, 0.000000, -0.046875, 0.000000, 0.015625, 0.031250, 0.031250, 0.031250, -0.031250, 0.046875, 0.000000, 0.000000, 0.000000, 0.031250, 0.031250, 0.031250, 0.000000, -0.031250, 0.015625, -0.015625, -0.031250, 0.031250, 0.000000, 0.031250, 0.000000, -0.031250, 0.015625, -0.015625, 0.015625, -0.031250, 0.031250, -0.031250, 0.000000, -0.031250, -0.015625, 0.031250, 0.015625, 0.000000, -0.031250, 0.015625, 0.031250, -0.046875, -0.015625, 0.015625, 0.000000, 0.015625, 0.015625, -0.031250, -0.031250, 0.015625, 0.031250, 0.015625, -0.046875, -0.046875, -0.046875, -0.015625, -0.031250, 0.031250, 0.015625, -0.031250, 0.015625, 0.015625, -0.031250, 0.015625, -0.031250, 0.031250, 0.031250, 0.046875, 0.000000, 0.000000, 0.015625, 0.015625, -0.031250, 0.015625, -0.015625, 0.031250, 0.000000, -0.046875, 0.031250, 0.015625, 0.031250, 0.000000, -0.046875, 0.031250, 0.000000, -0.031250, 0.031250, 0.000000, 0.031250, 0.015625, -0.031250, 0.015625, 0.015625, -0.031250, 0.046875, 0.015625, -0.031250, -0.015625, 0.015625, 0.015625, 0.015625, 0.031250, -0.031250, 0.015625, 0.031250, 0.015625, -0.015625, 0.015625, 0.046875, -0.015625, -0.015625, -0.015625, 0.031250, 0.015625, 0.031250, 0.000000, 0.015625, 0.015625, 0.000000, 0.000000, 0.015625, 0.046875, 0.000000, 0.031250, 0.000000, 0.031250, -0.046875, 0.046875, -0.015625, -0.046875, -0.031250, -0.015625, 0.000000, -0.031250, -0.031250, -0.031250, 0.031250, 0.031250, 0.031250, 0.000000, 0.046875, -0.031250, -0.031250, 0.000000, 0.031250, -0.015625, 0.000000, -0.015625, 0.015625, 0.000000, 0.000000, 0.015625, -0.015625, 0.015625, 0.000000, 0.015625, -0.046875, 0.000000, 0.000000, -0.015625, 0.000000, 0.000000, -0.046875, -0.046875, -0.031250, 0.031250, 0.015625, -0.046875, -0.015625, -0.031250, -0.046875, -0.015625, 0.015625, 0.015625, -0.046875, -0.031250, -0.015625, -0.031250, 0.031250, 0.031250, 0.031250, -0.031250, 0.031250, 0.015625, 0.046875, 0.000000, -0.015625, -0.015625, 0.015625, -0.031250, -0.015625, 0.000000, 0.031250, 0.046875, -0.015625, -0.015625, 0.000000, -0.031250, 0.031250, 0.015625, 0.031250, 0.015625, -0.031250, -0.015625, 0.000000, 0.015625, 0.031250, -0.031250, -0.031250, -0.031250, -0.031250, 0.031250, -0.015625, 0.000000, 0.000000, 0.015625, 0.015625, 0.031250, 0.031250, -0.015625, 0.031250, 0.000000, 0.031250, 0.015625, 0.015625, 0.000000, 0.000000, -0.015625, -0.031250, -0.015625, 0.031250, -0.015625, 0.031250, 0.046875, 0.031250, -0.031250, 0.000000, -0.015625, -0.031250, -0.031250, -0.046875, 0.015625, 0.015625, 0.031250, 0.015625, 0.000000, -0.015625, 0.015625, -0.015625, -0.015625, -0.015625, 0.031250, -0.031250, -0.015625, 0.015625, -0.046875, 0.015625, -0.015625, 0.031250, -0.031250, 0.046875, 0.031250, -0.015625, 0.000000, -0.031250, 0.000000, 0.015625, -0.031250, 0.015625, -0.015625, 0.000000, -0.031250, -0.031250, 0.000000, -0.015625, 0.031250, 0.015625, -0.031250, 0.000000, -0.015625, 0.015625, -0.015625, 0.031250, -0.046875, 0.000000, 0.031250, -0.015625, 0.031250, 0.031250, 0.000000, 0.015625, 0.046875, 0.000000, 0.031250, 0.046875, 0.000000, 0.015625, 0.015625, 0.015625, 0.000000, -0.031250, -0.015625, 0.031250, 0.000000, 0.031250, -0.031250, 0.015625, -0.031250, 0.031250, -0.015625, 0.031250, -0.046875, 0.015625, -0.015625, -0.031250, 0.000000, 0.046875, -0.031250, -0.015625, -0.031250, 0.000000, 0.031250, 0.015625, 0.015625, -0.046875, 0.031250, 0.031250, -0.015625, -0.031250, 0.031250, 0.000000, -0.031250, 0.000000, -0.015625, 0.000000, -0.015625, -0.046875, 0.015625, 0.046875, 0.031250, -0.015625, -0.015625, 0.031250, -0.031250, -0.015625, 0.015625, -0.031250, 0.031250, 0.031250, 0.031250, -0.046875, 0.000000, 0.000000, -0.031250, 0.031250, 0.000000, -0.031250, 0.031250, 0.015625, -0.046875, 0.031250, -0.015625, 0.046875, 0.031250, -0.031250, 0.000000, 0.000000, -0.031250, -0.015625, 0.015625, 0.000000, -0.015625, 0.015625, -0.031250, -0.031250, 0.000000, 0.031250, -0.046875, -0.046875, 0.015625, 0.031250, -0.046875, -0.031250, -0.015625, -0.046875, 0.015625, 0.015625, 0.046875, 0.000000, 0.015625, 0.031250, -0.015625, 0.000000, -0.031250, 0.046875, 0.000000, -0.031250, 0.000000, 0.031250, -0.046875, 0.000000, 0.031250, 0.000000, -0.031250, -0.031250, 0.000000, 0.031250, 0.031250, 0.031250, -0.031250, 0.031250, 0.031250, -0.015625, 0.031250, -0.046875, 0.015625, -0.015625, -0.031250, -0.031250, 0.000000, 0.015625, -0.015625, -0.015625, -0.015625, -0.015625, 0.015625, 0.000000, 0.031250, -0.015625, 0.031250, 0.000000, -0.031250, 0.015625, 0.031250, 0.000000, 0.015625, -0.046875, 0.046875, 0.000000, -0.015625, -0.015625, 0.015625, 0.000000, 0.015625, 0.015625, 0.046875, -0.046875, -0.031250, -0.046875, 0.015625, -0.015625, 0.031250, 0.031250, -0.046875, -0.031250, 0.000000, -0.031250, 0.015625, 0.000000, -0.015625, 0.031250, 0.000000, -0.015625, 0.031250, -0.031250, 0.015625, 0.015625, -0.015625, 0.015625, -0.031250, 0.031250, -0.031250, -0.046875, 0.046875, -0.046875, 0.015625, 0.031250, 0.031250, -0.015625, -0.031250, 0.015625, 0.046875, 0.015625, 0.031250, 0.000000, 0.031250, 0.000000, -0.031250, 0.000000, 0.015625, 0.015625, 0.015625, 0.000000, -0.046875, 0.031250, -0.046875, 0.015625, 0.031250, 0.000000, 0.015625, 0.015625, 0.031250, -0.015625, 0.000000, 0.031250, -0.015625, -0.015625, 0.015625, 0.000000, 0.046875, 0.046875, -0.015625, 0.000000, 0.031250, 0.000000, 0.000000, 0.031250, 0.031250, 0.000000, 0.031250, 0.031250, -0.015625, -0.015625, 0.000000, -0.015625, -0.015625, 0.031250, -0.015625, -0.031250, 0.000000, 0.000000, 0.000000, 0.031250, 0.015625, 0.000000, -0.031250, 0.031250, 0.015625, 0.000000, 0.000000, -0.015625, 0.000000, -0.031250, 0.015625, -0.031250, -0.031250, 0.015625, 0.015625, 0.000000, -0.015625, 0.031250, 0.000000, 0.031250, 0.000000, -0.015625, 0.015625, 0.000000, -0.015625, 0.031250, 0.000000, -0.031250, 0.015625, 0.046875, -0.015625, -0.015625, 0.000000, -0.031250, -0.031250, 0.031250, 0.031250, -0.015625, -0.031250, 0.000000, 0.000000, -0.015625, -0.015625, -0.015625, 0.015625, 0.015625, -0.015625, 0.000000, -0.046875, -0.015625, 0.015625, 0.031250, 0.015625, -0.015625, -0.031250, 0.031250, 0.000000, 0.000000, -0.015625, 0.015625, -0.031250, -0.031250, 0.015625, 0.031250, -0.015625, -0.046875, -0.031250, -0.015625, 0.000000, -0.015625, -0.031250, 0.031250, -0.031250, -0.015625, -0.015625, 0.000000, 0.031250, -0.031250, -0.046875, 0.031250, -0.031250, 0.015625, 0.015625, -0.031250, 0.015625, 0.015625, -0.015625, -0.031250, -0.031250, -0.031250, -0.015625, 0.015625, 0.015625, 0.031250, 0.046875, 0.000000, 0.015625, -0.015625, 0.031250, 0.046875, 0.015625, -0.031250, 0.031250, 0.046875, -0.031250, 0.046875, -0.015625, -0.031250, -0.031250, 0.000000, 0.000000, 0.046875, 0.031250, 0.015625, 0.015625, 0.000000, 0.015625, -0.031250, 0.000000, 0.031250, -0.031250, 0.000000, 0.000000, -0.031250, 0.000000, -0.015625, 0.031250, 0.000000, 0.000000, 0.031250, 0.031250, -0.015625, 0.000000, 0.000000, -0.046875, -0.046875, 0.000000, -0.015625, 0.000000, 0.031250, 0.031250, 0.015625, -0.031250, 0.000000, 0.015625, 0.031250, -0.031250, 0.031250, -0.015625, 0.031250, 0.031250, 0.015625, -0.031250, 0.015625, 0.015625, 0.000000, 0.031250, -0.046875, -0.015625, 0.031250, 0.031250, 0.000000, 0.000000, 0.031250, 0.015625, 0.000000, 0.015625, -0.031250, 0.015625, -0.031250, 0.000000, 0.000000, -0.015625, -0.031250, 0.046875, 0.031250, 0.015625, -0.015625, -0.031250, -0.031250, 0.015625, 0.031250, 0.015625, -0.015625, -0.015625, -0.046875, 0.015625, 0.031250, 0.031250, 0.031250, 0.031250, 0.015625, -0.031250, 0.031250, 0.000000, -0.015625, -0.046875, 0.015625, -0.015625, 0.031250, 0.000000, -0.015625, 0.015625, 0.015625, 0.000000, 0.031250, 0.015625, 0.031250, -0.015625, 0.000000, -0.015625, 0.000000, 0.046875, 0.031250, -0.031250, 0.031250, 0.000000, 0.015625, 0.031250, -0.046875, 0.046875, -0.015625, 0.031250, 0.000000, -0.031250, 0.000000, 0.000000, -0.015625, -0.015625, 0.000000, -0.046875, 0.000000, 0.031250, 0.000000, 0.000000, -0.031250, 0.015625, 0.015625, -0.015625, 0.015625, -0.031250, -0.015625, 0.000000, 0.000000, 0.046875, 0.000000, 0.000000, 0.015625, 0.000000, -0.015625, 0.015625, -0.031250, 0.031250, 0.015625, -0.015625, 0.000000, 0.015625, -0.031250, 0.015625, -0.031250, 0.000000, -0.031250, 0.000000, -0.046875, 0.000000, -0.031250, -0.031250, -0.031250, 0.000000, -0.015625, -0.046875, 0.031250, -0.031250, -0.046875, 0.000000, 0.000000, -0.015625, 0.015625, -0.015625, -0.031250, 0.000000, 0.015625, 0.046875, -0.015625, -0.031250, -0.031250, 0.000000, -0.015625, -0.015625, -0.015625, 0.015625, 0.031250, 0.031250, 0.015625, -0.015625, 0.000000, -0.015625, 0.031250, -0.015625, -0.046875, -0.031250, 0.000000, 0.015625, 0.031250, 0.000000, 0.015625, 0.015625, -0.031250, 0.015625, 0.015625, 0.046875, 0.015625, 0.015625, 0.000000, -0.015625, 0.000000, -0.046875, -0.015625, 0.000000, 0.031250, 0.015625, 0.031250, -0.031250, -0.031250, 0.031250, 0.046875, 0.000000, 0.000000, 0.000000, -0.031250, 0.000000, 0.000000, 0.015625, 0.000000, 0.000000, -0.015625, -0.031250, 0.031250, -0.046875, -0.031250, 0.031250, 0.031250, -0.046875, -0.031250, -0.046875, -0.015625, 0.046875, 0.000000, 0.031250, -0.031250, 0.000000, 0.000000, 0.031250, -0.031250, 0.031250, -0.031250, 0.000000, -0.031250, 0.015625, 0.031250, 0.015625, -0.015625, 0.031250, -0.031250, -0.015625, 0.015625, 0.031250, 0.046875, -0.015625, -0.046875, 0.000000, 0.000000, 0.000000, -0.031250, 0.015625, -0.031250, 0.000000, -0.015625, 0.031250, 0.031250, -0.031250, 0.031250, 0.031250, 0.000000, -0.031250, -0.015625, -0.031250, 0.015625, 0.031250, 0.031250, -0.015625, -0.015625, 0.000000, 0.000000, -0.015625, -0.031250, 0.015625, 0.000000, 0.000000, 0.000000, -0.015625, -0.015625, -0.031250, -0.015625, 0.015625, 0.046875, 0.031250, 0.031250, -0.015625, -0.015625, 0.015625, -0.031250, -0.031250, 0.000000, 0.031250, -0.031250, -0.031250, 0.000000, 0.015625, 0.031250, 0.031250, 0.031250, 0.000000, 0.000000, -0.046875, -0.015625, -0.046875, -0.015625, -0.015625, -0.015625, -0.031250, -0.031250, 0.015625, -0.015625, 0.031250, 0.015625, -0.046875, 0.015625, 0.015625, 0.031250, -0.015625, 0.046875, -0.046875, -0.031250, 0.015625, 0.031250, 0.000000, 0.031250, 0.031250, -0.015625, -0.031250, -0.015625, 0.046875, 0.015625, -0.031250, 0.031250, -0.015625, -0.031250, -0.015625, 0.015625, -0.031250, -0.015625, 0.000000, 0.000000, 0.015625, -0.015625, 0.031250, -0.015625, 0.031250, 0.031250, -0.015625, 0.015625, 0.000000, 0.000000, 0.031250, -0.015625, -0.015625, -0.015625, 0.000000, -0.015625, 0.000000, 0.015625, -0.031250, 0.000000, -0.015625, -0.015625, 0.015625, 0.000000, 0.031250, 0.031250, -0.031250, 0.031250, 0.046875, -0.031250, 0.031250, -0.015625, 0.031250, 0.031250, 0.031250, 0.031250, -0.015625, 0.000000, 0.031250, 0.031250, 0.046875, -0.015625, -0.015625, -0.031250, -0.015625, -0.015625, 0.031250, -0.015625, -0.031250, -0.031250, 0.000000, 0.000000, 0.000000, -0.046875, 0.015625, -0.031250, -0.031250, 0.015625, -0.046875, 0.015625, -0.015625, -0.015625, 0.000000, -0.031250, 0.031250, 0.015625, 0.046875, -0.015625, 0.031250, 0.031250, -0.046875, 0.000000, -0.031250, 0.046875, -0.015625, -0.031250, -0.015625, -0.015625, 0.000000, -0.015625, 0.031250, 0.000000, 0.031250, 0.015625, -0.015625, 0.031250, 0.000000, -0.031250, 0.015625, -0.046875, -0.031250, -0.031250, 0.031250, 0.015625, -0.015625, -0.015625, 0.031250, 0.031250, -0.046875, 0.031250, -0.015625, 0.031250, 0.031250, -0.015625, 0.015625, -0.015625, 0.015625, 0.000000, 0.000000, 0.015625, 0.015625, 0.000000, 0.000000, 0.031250, 0.000000, -0.015625, 0.031250, 0.015625, -0.031250, 0.000000, -0.031250, 0.031250, 0.031250, -0.031250, -0.031250, 0.031250, 0.031250, -0.015625, -0.031250, 0.046875, 0.000000, -0.015625, 0.031250, 0.015625, -0.015625, 0.031250, -0.031250, -0.031250, -0.031250, 0.000000, -0.015625, -0.031250, -0.031250, -0.015625, 0.000000, 0.015625, -0.031250, 0.000000, -0.031250, 0.000000, 0.015625, 0.031250, -0.031250, 0.015625, 0.000000, 0.031250, -0.015625, 0.015625, -0.031250, 0.015625, -0.046875, 0.015625, 0.046875, -0.015625, -0.015625, -0.031250, 0.031250, 0.000000, 0.046875, 0.000000, -0.031250, -0.015625, -0.046875, 0.031250, 0.031250, -0.031250, -0.015625, 0.000000, -0.031250, 0.015625, 0.015625, -0.046875, -0.031250, 0.031250, 0.015625, -0.046875, 0.031250, 0.031250, -0.031250, 0.000000, -0.015625, 0.000000, -0.031250, 0.015625, 0.000000, -0.046875, 0.015625, -0.031250, 0.015625, -0.046875, 0.046875, -0.015625, -0.031250, 0.015625, -0.031250, 0.000000, 0.046875, 0.031250, -0.015625, -0.015625, 0.000000, -0.015625, -0.015625, -0.015625, 0.015625, 0.000000, -0.031250, 0.000000, -0.031250, -0.015625, 0.031250, 0.000000, -0.031250, 0.000000, 0.031250, -0.015625, 0.031250, -0.015625, 0.000000, 0.046875, -0.015625, 0.046875, -0.015625, 0.031250, -0.015625, 0.015625, 0.000000, -0.031250, -0.046875, 0.015625, -0.031250, 0.031250, 0.000000, 0.000000, 0.031250, -0.015625, 0.000000, -0.015625, 0.031250, 0.046875, -0.031250, 0.015625, 0.046875, 0.031250, -0.046875, 0.000000, 0.031250, 0.000000, -0.015625, -0.031250, -0.031250, -0.031250, -0.015625, 0.031250, 0.015625, 0.046875, -0.046875, -0.015625, 0.000000, 0.000000, 0.000000, 0.031250, 0.000000, -0.031250, -0.031250, 0.000000, 0.031250, 0.015625, 0.015625, 0.031250, -0.015625, 0.015625, -0.015625, 0.000000, 0.015625, 0.015625, 0.031250, 0.046875, 0.046875, 0.031250, -0.015625, -0.015625, 0.015625, -0.031250, -0.031250, 0.000000, 0.015625, 0.000000, -0.015625, 0.031250, -0.015625, 0.031250, -0.015625, -0.031250, -0.015625, 0.000000, 0.031250, 0.000000, 0.000000, 0.000000, 0.031250, 0.031250, 0.015625, 0.000000, 0.015625, -0.031250, 0.000000, 0.031250, -0.031250, 0.000000, 0.031250, 0.015625, 0.015625, 0.015625, -0.015625, 0.015625, 0.000000, 0.000000, 0.031250, 0.031250, 0.046875, 0.000000, 0.015625, 0.015625, -0.046875, 0.015625, -0.031250, -0.031250, 0.000000, -0.031250, 0.046875, 0.046875, 0.000000, 0.031250, 0.031250, 0.000000, 0.000000, -0.015625, 0.000000, 0.031250, 0.031250, 0.015625, -0.031250, 0.000000, -0.015625, 0.000000, -0.031250, -0.031250, 0.015625, 0.031250, -0.015625, -0.015625, -0.031250, 0.000000, 0.031250, -0.015625, 0.000000, 0.000000, -0.015625, -0.031250, -0.031250, 0.046875, -0.015625, -0.031250, -0.031250, -0.046875, -0.046875, -0.015625, -0.031250, -0.031250, -0.015625, 0.046875, 0.000000, -0.015625, 0.015625, 0.000000, 0.000000, 0.015625, -0.015625, 0.000000, -0.015625, -0.015625, -0.031250, -0.015625, 0.015625, -0.031250, 0.000000, -0.015625, -0.015625, 0.031250, -0.031250, 0.000000, -0.031250, 0.031250, -0.031250, 0.015625, -0.031250, -0.015625, -0.031250, 0.015625, 0.031250, 0.000000, -0.015625, -0.015625, 0.031250, 0.015625, 0.031250, 0.015625, -0.031250, -0.031250, 0.000000, 0.015625, -0.031250, 0.031250, -0.031250, 0.015625, -0.046875, 0.000000, 0.031250, -0.015625, -0.015625, 0.015625, -0.015625, 0.015625, 0.015625, 0.031250, -0.015625, 0.000000, 0.046875, -0.031250, -0.015625, 0.031250, 0.031250, 0.015625, -0.015625, -0.015625, -0.015625, -0.031250, 0.015625, 0.015625, -0.031250, 0.046875, 0.015625, 0.015625, -0.031250, 0.015625, 0.031250, -0.046875, 0.015625, -0.046875, 0.031250, 0.031250, -0.031250, -0.046875, 0.015625, 0.031250, -0.031250, 0.000000, 0.015625, -0.031250, 0.031250, -0.015625, 0.000000, 0.046875, 0.000000, 0.000000, -0.015625, 0.000000, -0.015625, -0.031250, 0.031250, 0.000000, 0.000000, 0.000000, -0.031250, 0.031250, 0.031250, -0.015625, 0.000000, 0.015625, 0.031250, 0.015625, -0.031250, -0.046875, -0.015625, -0.046875, 0.000000, -0.031250, 0.031250, -0.015625, -0.015625, 0.000000, -0.015625, 0.031250, 0.015625, 0.031250, -0.015625, 0.031250, 0.000000, -0.015625, -0.015625, 0.031250, 0.031250, 0.000000, -0.015625, 0.031250, 0.046875, -0.015625, -0.015625, 0.015625, 0.000000, 0.031250, 0.015625, -0.031250, 0.031250, 0.000000, 0.000000, -0.031250, 0.000000, 0.015625, -0.031250, -0.031250, 0.015625, 0.015625, -0.031250, -0.015625, -0.015625, 0.000000, 0.046875, 0.000000, -0.031250, 0.015625, -0.015625, 0.046875, -0.015625, 0.015625, -0.031250, -0.031250, 0.000000, 0.000000, -0.015625, -0.015625, 0.015625, 0.000000, 0.031250, -0.015625, 0.000000, -0.015625, -0.031250, 0.015625, 0.000000, -0.031250, 0.000000, -0.015625, -0.015625, -0.031250, -0.015625, -0.031250, 0.015625, 0.015625, -0.015625, -0.015625, 0.031250, 0.015625, 0.000000, -0.015625, 0.000000, 0.031250, 0.031250, 0.031250, -0.015625, -0.031250, 0.015625, 0.031250, -0.031250, -0.031250, -0.031250, 0.000000, 0.015625, 0.015625, -0.015625, -0.046875, -0.031250, 0.015625, 0.015625, 0.031250, -0.015625, -0.031250, 0.000000, 0.031250, -0.015625, 0.000000, -0.015625, 0.031250, -0.031250, 0.000000, 0.015625, -0.015625, -0.015625, 0.015625, 0.015625, 0.031250, -0.015625, 0.031250, -0.031250, -0.031250, -0.015625, 0.031250, 0.031250, -0.015625, -0.046875, -0.046875, -0.015625, 0.031250, 0.000000, 0.015625, 0.000000, 0.015625, -0.031250, 0.000000, -0.031250, -0.015625, 0.031250, -0.031250, -0.031250, -0.015625, 0.015625, 0.000000, 0.015625, 0.000000, 0.000000, 0.015625, 0.031250, 0.000000, 0.015625, 0.031250, 0.046875, 0.000000, -0.031250, 0.031250, 0.031250, 0.015625, 0.015625, -0.015625, -0.031250, -0.031250, -0.031250, 0.015625, 0.015625, 0.015625, -0.015625, -0.015625, -0.015625, -0.031250, 0.031250, -0.031250, 0.000000, 0.000000, 0.031250, -0.046875, -0.031250, -0.046875, 0.015625, 0.031250, -0.015625, -0.031250, 0.015625, 0.015625, -0.046875, -0.031250, 0.015625, -0.046875, -0.015625, -0.015625, -0.015625, 0.000000, -0.015625, 0.031250, -0.015625, 0.000000, -0.031250, -0.031250, -0.015625, -0.046875, -0.015625, 0.031250, -0.031250, 0.046875, 0.000000, 0.031250, 0.031250, 0.015625, -0.046875, 0.000000, 0.015625, -0.031250, 0.015625, -0.015625, -0.031250, 0.000000, -0.015625, -0.031250, -0.031250, 0.031250, 0.031250, 0.046875, -0.015625, 0.046875, 0.015625, 0.000000, 0.000000, 0.015625, 0.000000, 0.015625, 0.015625, -0.031250, -0.015625, 0.031250, 0.031250, 0.000000, 0.015625, -0.015625, -0.031250, 0.015625, 0.046875, 0.015625, 0.031250, 0.046875, -0.015625, -0.031250, 0.015625, 0.000000, 0.031250, 0.015625, -0.015625, 0.015625, -0.015625, 0.000000, 0.015625, 0.031250, 0.000000, -0.031250, 0.000000, -0.015625, 0.000000, -0.031250, -0.015625, 0.000000, -0.015625, -0.046875, 0.015625, 0.015625, 0.031250, 0.015625, -0.046875, 0.015625, 0.031250, -0.015625, -0.046875, 0.015625, -0.031250, -0.046875, 0.031250, 0.031250, -0.046875, -0.015625, -0.031250, -0.046875, -0.031250, 0.000000, 0.000000, 0.015625, 0.031250, -0.015625, 0.015625, -0.015625, -0.015625, 0.031250, -0.031250, -0.015625, 0.031250, -0.031250, 0.015625, 0.000000, -0.015625, -0.031250, 0.000000, 0.000000, 0.031250, 0.000000, -0.015625, 0.046875, -0.031250, -0.031250, 0.000000, 0.031250, -0.046875, 0.031250, 0.000000, 0.015625, 0.000000, -0.015625, -0.015625, -0.015625, 0.031250, -0.015625, 0.000000, -0.046875, 0.031250, -0.031250, 0.031250, -0.015625, 0.000000, 0.015625, 0.015625, 0.031250, -0.046875, 0.000000, 0.015625, 0.015625, 0.046875, -0.031250, -0.015625, -0.031250, -0.031250, 0.015625, 0.031250, -0.015625, 0.015625, -0.015625, 0.031250, -0.015625, 0.031250, -0.015625, 0.031250, -0.015625, -0.031250, 0.031250, 0.015625, 0.000000, 0.000000, 0.000000, -0.031250, 0.015625, 0.031250, 0.015625, 0.046875, -0.046875, -0.046875, 0.000000, 0.015625, -0.015625, -0.046875, -0.031250, 0.031250, 0.015625, 0.031250, 0.015625, -0.046875, -0.046875, 0.031250, -0.015625, -0.015625, -0.015625, -0.015625, -0.031250, 0.015625, 0.031250, 0.031250, 0.031250, 0.000000, 0.046875, -0.031250, -0.046875, 0.031250, 0.015625, 0.031250, -0.031250, -0.031250, 0.000000, -0.031250, 0.031250, -0.031250, 0.015625, 0.000000, 0.031250, 0.000000, 0.031250, -0.046875, -0.031250, -0.031250, 0.031250, 0.031250, -0.015625, 0.000000, -0.015625, 0.000000, -0.015625, 0.000000, 0.000000, 0.015625, 0.031250, 0.015625, 0.031250, -0.015625, -0.015625, 0.031250, 0.031250, -0.031250, -0.015625, -0.031250, 0.000000, -0.015625, 0.000000, 0.031250, 0.000000, -0.031250, 0.000000, -0.046875, -0.015625, -0.015625, 0.000000, -0.015625, 0.000000, 0.015625, 0.015625, 0.015625, 0.046875, 0.015625, 0.000000, 0.000000, 0.000000, 0.015625, -0.031250, 0.000000, 0.031250, 0.015625, 0.000000, -0.031250, 0.015625, 0.015625, 0.046875, -0.031250, -0.031250, -0.015625, 0.015625, 0.031250, -0.031250, 0.000000, 0.015625, 0.015625, -0.031250, 0.000000, -0.015625, 0.031250, -0.031250, -0.031250, 0.015625, 0.046875, 0.000000, -0.031250, 0.031250, 0.015625, 0.000000, 0.015625, 0.000000, -0.031250, -0.031250, -0.046875, -0.015625, -0.046875, 0.000000, -0.031250, 0.015625, 0.000000, -0.031250, 0.015625, 0.015625, -0.031250, 0.031250, 0.031250, 0.031250, -0.015625, 0.015625, -0.031250, -0.031250, 0.000000, -0.015625, 0.015625, 0.031250, 0.031250, 0.031250, 0.031250, 0.015625, 0.000000, 0.031250, 0.000000, -0.015625, 0.015625, -0.031250, 0.000000, -0.015625, 0.015625, -0.015625, 0.000000, 0.031250, 0.015625, -0.031250, 0.000000, -0.046875, 0.000000, -0.031250, -0.031250, -0.031250, -0.031250, 0.000000, -0.015625, 0.015625, 0.000000, -0.031250, 0.000000, 0.000000, -0.031250, 0.000000, 0.000000, -0.015625, -0.046875, -0.031250, -0.046875, -0.015625, 0.000000, 0.000000, 0.031250, -0.015625, 0.046875, 0.000000, 0.031250, -0.015625, -0.031250, 0.031250, -0.015625, 0.031250, 0.046875, 0.046875, 0.046875, -0.031250, -0.015625, 0.015625, -0.031250, 0.000000, -0.015625, 0.031250, -0.015625, 0.000000, -0.015625, 0.031250, 0.015625, 0.015625, 0.000000, -0.031250, 0.031250, -0.031250, 0.031250, 0.015625, 0.031250, -0.031250, 0.031250, 0.046875, 0.031250, 0.015625, 0.015625, 0.000000, 0.031250, 0.015625, 0.000000, -0.031250, 0.000000, 0.046875, -0.015625, 0.046875, 0.015625, 0.015625, 0.031250, -0.015625, 0.000000, 0.015625, -0.015625, -0.031250, 0.015625, 0.015625, -0.015625, -0.031250, 0.015625, -0.015625, -0.031250, -0.015625, -0.015625, -0.015625, 0.000000, -0.031250, 0.000000, 0.015625, -0.031250, 0.015625, 0.015625, 0.031250, 0.000000, 0.031250, 0.000000, 0.015625, 0.000000, -0.046875, -0.046875, -0.031250, 0.000000, -0.031250, 0.031250, -0.015625, 0.031250, 0.031250, -0.031250, -0.031250, 0.000000, -0.015625, 0.031250, 0.046875, 0.031250, 0.000000, 0.031250, -0.015625, 0.015625, 0.015625, -0.031250, -0.046875, -0.015625, 0.000000, 0.031250, 0.000000, -0.031250, 0.000000, -0.015625, 0.015625, 0.046875, 0.031250, -0.031250, 0.046875, -0.015625, 0.015625, -0.031250, 0.031250, 0.031250, 0.000000, 0.000000, 0.015625, 0.000000, 0.046875, 0.000000, -0.015625, 0.046875, 0.031250, 0.015625, -0.015625, 0.000000, 0.031250, 0.046875, 0.015625, -0.015625, 0.046875, 0.015625, 0.000000, -0.015625, 0.015625, -0.015625, 0.000000, 0.031250, 0.000000, -0.031250, 0.015625, -0.015625, -0.015625, 0.031250, 0.000000, 0.015625, -0.031250, -0.046875, -0.015625, -0.031250, 0.000000, -0.015625, 0.031250, -0.015625, 0.031250, -0.015625, 0.046875, 0.015625, 0.015625, 0.015625, 0.031250, -0.015625, 0.015625, -0.046875, -0.031250, -0.031250, 0.000000, -0.031250, 0.000000, 0.031250, -0.015625, -0.031250, 0.000000, 0.015625, 0.000000, 0.031250, 0.031250, 0.000000, 0.000000, -0.015625, 0.031250, -0.015625, 0.015625, -0.031250, -0.046875, 0.000000, 0.000000, -0.046875, -0.015625, -0.015625, 0.000000, -0.031250, 0.031250, 0.000000, 0.031250, 0.000000, 0.015625, -0.015625, 0.031250, -0.015625, 0.031250, -0.031250, 0.000000, -0.015625, -0.015625, -0.015625, 0.031250, -0.031250, 0.031250, 0.031250, -0.031250, 0.015625, 0.015625, -0.015625, 0.015625, 0.031250, 0.000000, -0.015625, -0.031250, 0.000000, -0.015625, -0.031250, 0.031250, 0.000000, -0.031250, 0.015625, 0.046875, 0.015625, 0.015625, 0.015625, 0.015625, -0.031250, 0.015625, -0.031250, 0.031250, 0.000000, -0.015625, -0.015625, 0.000000, 0.015625, 0.031250, 0.031250, -0.015625, 0.046875, -0.031250, 0.015625, 0.031250, 0.000000, -0.031250, -0.015625, 0.000000, 0.000000, -0.015625, -0.015625, 0.000000, 0.015625, 0.000000, 0.015625, -0.031250, 0.031250, 0.031250, 0.000000, 0.031250, -0.031250, 0.015625, 0.046875, 0.031250, -0.046875, -0.015625, 0.015625, 0.000000, -0.031250, 0.000000, -0.015625, -0.031250, -0.031250, -0.031250, -0.015625, 0.000000, 0.015625, -0.015625, 0.015625, 0.000000, -0.015625, 0.000000, -0.046875, -0.015625, 0.031250, 0.015625, 0.031250, 0.031250, -0.031250, 0.031250, -0.046875, 0.031250, 0.031250, 0.031250, -0.015625, -0.031250, 0.015625, 0.000000, 0.031250, -0.015625, 0.015625, 0.015625, 0.015625, -0.015625, 0.015625, 0.000000, -0.015625, -0.031250, 0.046875, -0.031250, -0.031250, -0.046875, 0.000000, -0.015625, 0.046875, -0.015625, 0.046875, 0.015625, 0.015625, 0.000000, 0.000000, 0.000000, -0.015625, -0.015625, -0.015625, -0.031250, -0.031250, -0.031250, 0.031250, -0.031250, 0.031250, -0.015625, -0.015625, 0.000000, 0.015625, 0.000000, 0.015625, 0.000000, 0.000000, 0.000000, 0.000000, 0.015625, 0.031250, -0.015625, 0.015625, 0.015625, 0.031250, -0.031250, 0.000000, -0.015625, -0.031250, 0.046875, -0.015625, -0.046875, 0.015625, -0.031250, -0.031250, -0.031250, 0.031250, -0.015625, -0.046875, 0.031250, -0.015625, -0.015625, 0.015625, 0.031250, 0.031250, 0.000000, -0.031250, 0.000000, 0.046875, 0.000000, 0.015625, 0.015625, -0.031250, -0.031250, -0.015625, 0.031250, 0.015625, 0.046875, 0.031250, 0.015625, -0.015625, 0.000000, 0.000000, 0.031250, -0.015625, 0.015625, 0.015625, -0.031250, 0.000000, 0.031250, 0.000000, 0.015625, -0.015625, 0.000000, -0.031250, -0.015625, 0.000000, -0.031250, 0.015625, -0.015625, -0.015625, -0.031250, 0.031250, 0.000000, -0.015625, 0.000000, 0.015625, -0.015625, 0.000000, -0.046875, 0.015625, 0.000000, -0.015625, 0.031250, -0.015625, 0.000000, 0.000000, -0.046875, 0.000000, 0.000000, -0.031250, 0.000000, -0.015625, 0.015625, 0.000000, -0.046875, 0.015625, -0.031250, 0.031250, 0.031250, 0.015625, 0.031250, 0.031250, 0.015625, 0.015625, -0.015625, 0.000000, -0.015625, 0.031250, 0.015625, 0.000000, 0.031250, 0.000000, 0.000000, -0.031250, 0.031250, -0.031250, -0.015625, 0.000000, -0.031250, 0.000000, 0.015625, 0.031250, -0.031250, -0.015625, -0.031250, -0.031250, -0.031250, 0.000000, 0.000000, -0.031250, -0.031250, 0.015625, 0.031250, 0.015625, -0.015625, -0.046875, 0.015625, -0.015625, -0.031250, -0.031250, 0.046875, -0.015625, 0.000000, 0.015625, -0.046875, 0.015625, 0.015625, 0.031250, 0.031250, 0.031250, 0.015625, -0.031250, 0.031250, 0.031250, -0.046875, 0.031250, -0.015625, 0.015625, 0.015625, -0.031250, -0.031250, 0.000000, -0.031250, -0.031250, 0.031250, -0.015625, 0.015625, -0.031250, -0.031250, 0.000000, 0.000000, 0.031250, -0.031250, 0.031250, 0.031250, 0.015625, -0.015625, 0.031250, -0.031250, 0.015625, 0.015625, 0.031250, -0.015625, 0.015625, -0.015625, 0.031250, -0.031250, 0.000000, 0.031250, -0.031250, -0.031250, 0.000000, -0.015625, 0.015625, 0.000000, 0.000000, -0.031250, -0.031250, 0.000000, 0.046875, -0.031250, -0.015625, 0.015625, -0.031250, 0.000000, -0.015625, -0.015625, 0.015625, -0.031250, 0.046875, 0.031250, 0.046875, 0.031250, 0.031250, 0.015625, 0.046875, 0.015625, 0.046875, -0.015625, 0.031250, 0.031250, 0.000000, 0.000000, 0.031250, -0.015625, 0.015625, 0.015625, -0.046875, -0.015625, 0.031250, 0.046875, -0.031250, -0.046875, -0.031250, 0.015625, 0.031250, 0.046875, 0.031250, 0.031250, -0.031250, 0.015625, 0.000000, -0.015625, 0.000000, 0.015625, -0.031250, 0.031250, -0.031250, 0.015625, -0.046875, 0.000000, -0.031250, 0.015625, 0.015625, 0.031250, 0.031250, 0.015625, -0.031250, 0.015625, 0.031250, 0.015625, 0.015625, 0.000000, 0.031250, -0.031250, 0.015625, 0.015625, 0.000000, 0.046875, -0.046875, 0.000000, -0.015625, 0.000000, 0.000000, -0.031250, 0.015625, -0.015625, 0.031250, -0.031250, 0.000000, 0.015625, 0.000000, -0.031250, -0.031250, 0.031250, -0.031250, 0.046875, -0.015625, 0.000000, 0.000000, 0.031250, -0.031250, 0.031250, 0.015625, 0.015625, 0.000000, -0.015625, 0.031250, -0.015625, 0.000000, 0.015625, 0.000000, 0.000000, 0.015625, -0.031250, 0.031250, 0.031250, -0.015625, 0.031250, -0.015625, -0.031250, 0.031250, 0.015625, 0.031250, 0.000000, -0.046875, -0.015625, 0.000000, -0.031250, 0.046875, 0.031250, -0.046875, -0.046875, 0.000000, -0.031250, -0.031250, 0.000000, 0.031250, 0.015625, -0.015625, -0.031250, -0.046875, -0.031250, 0.031250, 0.015625, -0.031250, 0.046875, 0.000000, 0.031250, 0.000000, 0.031250, 0.015625, 0.000000, 0.015625, 0.000000, 0.015625, -0.031250, 0.015625, 0.000000, 0.015625, 0.031250, 0.031250, -0.015625, -0.015625, 0.000000, -0.015625, 0.015625, -0.015625, -0.015625, -0.015625, -0.031250, 0.031250, -0.015625, 0.046875, 0.031250, 0.046875, 0.046875, -0.015625, 0.031250, 0.046875, -0.031250, 0.000000, 0.031250, 0.031250, 0.031250, 0.000000, -0.015625, 0.031250, 0.031250, -0.015625, 0.046875, -0.031250, 0.031250, -0.015625, 0.015625, 0.031250, 0.031250, 0.031250, 0.000000, 0.046875, 0.015625, -0.031250, -0.015625, -0.015625, 0.000000, 0.015625, -0.015625, -0.031250, -0.031250, 0.015625, 0.015625, 0.031250, 0.000000, -0.015625, 0.015625, 0.000000, 0.015625, 0.031250, 0.031250, -0.031250, -0.015625, -0.031250, 0.000000, -0.031250, -0.031250, -0.015625, -0.031250, 0.000000, -0.046875, 0.031250, 0.015625, -0.046875, 0.031250, -0.031250, -0.031250, 0.015625, -0.015625, 0.031250, 0.031250, 0.015625, -0.015625, 0.031250, -0.031250, -0.015625, -0.031250, -0.015625, 0.015625, -0.031250, 0.015625, -0.015625, 0.000000, 0.031250, 0.000000, 0.046875, 0.000000, -0.031250, 0.000000, 0.015625, 0.000000, -0.031250, 0.000000, 0.031250, -0.046875, -0.015625, 0.031250, -0.015625, -0.015625, -0.015625, -0.031250, -0.031250, -0.015625, 0.000000, -0.031250, -0.031250, 0.000000, -0.015625, 0.031250, 0.046875, -0.015625, 0.046875, -0.015625, 0.000000, 0.015625, 0.046875, -0.031250, -0.031250, 0.015625, 0.015625, -0.031250, -0.031250, 0.015625, -0.015625, 0.000000, 0.031250, 0.000000, -0.031250, 0.015625, 0.000000, 0.015625, -0.031250, 0.000000, -0.031250, -0.031250, 0.000000, 0.015625, 0.015625, 0.031250, 0.031250, 0.031250, -0.031250, 0.031250, 0.000000, 0.000000, -0.031250, -0.031250, 0.031250, 0.000000, -0.015625, -0.015625, 0.015625, -0.015625, 0.031250, -0.015625, 0.000000, 0.031250, -0.046875, -0.046875, 0.031250, 0.015625, -0.046875, 0.031250, 0.031250, 0.031250, 0.015625, -0.046875, -0.031250, 0.015625, -0.031250, -0.015625, 0.000000, 0.015625, 0.031250, 0.000000, -0.015625, 0.031250, 0.031250, 0.031250, -0.031250, 0.015625, 0.031250, -0.031250, 0.015625, 0.000000, -0.046875, 0.046875, 0.031250, 0.031250, -0.031250, -0.031250, -0.031250, 0.000000, 0.046875, -0.031250, -0.015625, 0.015625, 0.015625, 0.031250, 0.031250, 0.031250, -0.015625, 0.015625, 0.031250, 0.000000, 0.000000, 0.046875, 0.046875, -0.031250, 0.015625, 0.015625, 0.031250, -0.031250, 0.031250, -0.031250, 0.000000, -0.015625, -0.046875, 0.031250, 0.031250, -0.015625, -0.015625, 0.031250, -0.031250, 0.015625, -0.015625, 0.015625, 0.000000, -0.015625, -0.031250, 0.031250, -0.046875, -0.046875, -0.031250, -0.015625, -0.031250, 0.046875, -0.031250, 0.031250, 0.000000, 0.000000, -0.015625, -0.015625, -0.031250, -0.015625, -0.031250, 0.015625, -0.031250, 0.015625, -0.015625, 0.031250, -0.031250, 0.031250, 0.000000, -0.031250, -0.031250, -0.015625, -0.031250, 0.031250, -0.015625, -0.031250, 0.031250, 0.000000, 0.015625, 0.031250, 0.031250, 0.031250, -0.031250, -0.031250, 0.046875, 0.015625, 0.031250, 0.046875, -0.015625, -0.015625, 0.031250, 0.015625, 0.015625, -0.031250, 0.015625, 0.015625, 0.031250, 0.015625, 0.015625, -0.031250, -0.015625, 0.031250, 0.015625, 0.031250, 0.000000, 0.015625, 0.015625, 0.046875, 0.000000, 0.000000, -0.015625, -0.015625, 0.000000, -0.015625, -0.046875, 0.031250, 0.000000, 0.015625, 0.031250, -0.015625, -0.031250, 0.046875, -0.046875, -0.046875, 0.031250, 0.015625, -0.015625, 0.046875, -0.015625, 0.015625, -0.031250, 0.031250, 0.015625, 0.000000, -0.015625, 0.015625, 0.031250, -0.031250, 0.000000, -0.031250, -0.031250, 0.000000, 0.000000, -0.015625, 0.015625, 0.000000, 0.031250, 0.015625, 0.000000, 0.015625, 0.031250, 0.015625, 0.015625, -0.015625, 0.000000, -0.031250, -0.015625, -0.031250, 0.031250, 0.000000, 0.015625, 0.000000, -0.046875, 0.015625, 0.000000, 0.015625, 0.031250, 0.000000, -0.031250, 0.015625, -0.031250, 0.015625, -0.031250, 0.000000, -0.015625, -0.031250, 0.015625, -0.015625, -0.031250, 0.031250, 0.031250, -0.031250, 0.015625, 0.015625, 0.000000, 0.015625, 0.031250, -0.015625, -0.046875, 0.031250, -0.031250, 0.000000, 0.015625, -0.046875, -0.031250, 0.031250, 0.031250, 0.015625, -0.031250, 0.031250, -0.031250, 0.046875, 0.031250, -0.031250, 0.000000, -0.015625, -0.031250, 0.031250, -0.031250, 0.000000, 0.046875, 0.015625, 0.031250, 0.031250, 0.031250, 0.000000, 0.031250, -0.031250, 0.015625, 0.031250, -0.015625, 0.000000, 0.046875, 0.015625, 0.000000, -0.046875, -0.031250, -0.015625, 0.000000, 0.000000, 0.015625, 0.031250, -0.031250, 0.000000, -0.046875, 0.031250, 0.031250, -0.031250, 0.031250, -0.015625, 0.000000, -0.031250, -0.015625, 0.046875, -0.046875, -0.031250, 0.046875, 0.000000, 0.031250, 0.000000, -0.031250, 0.015625, -0.015625, -0.015625, 0.031250, 0.015625, 0.015625, 0.031250, -0.015625, -0.015625, 0.031250, 0.031250, 0.015625, -0.046875, 0.031250, 0.015625, -0.031250, 0.000000, -0.015625, -0.046875, 0.015625, -0.015625, 0.031250, -0.015625, -0.031250, 0.031250, 0.031250, -0.031250, 0.031250, -0.031250, -0.031250, 0.015625, 0.031250, 0.000000, -0.015625, 0.031250, 0.000000, 0.000000, -0.031250, 0.015625, 0.015625, 0.000000, 0.031250, -0.015625, 0.015625, -0.031250, -0.046875, 0.015625, -0.031250, 0.000000, 0.015625, 0.046875, 0.046875, 0.046875, 0.000000, 0.031250, 0.031250, -0.015625, 0.031250, 0.015625, 0.031250, 0.000000, 0.046875, 0.031250, 0.015625, -0.031250, 0.015625, 0.031250, 0.015625, 0.031250, 0.015625, 0.015625, -0.031250, 0.031250, 0.015625, 0.000000, -0.015625, -0.015625, -0.015625, 0.046875, 0.015625, -0.015625, 0.000000, 0.000000, -0.031250, 0.031250, 0.015625, 0.015625, -0.046875, 0.031250, 0.031250, 0.015625, 0.031250, 0.015625, 0.031250, 0.000000, 0.015625, -0.015625, 0.015625, -0.015625, 0.031250, 0.031250, 0.000000, 0.031250, 0.000000, 0.015625, -0.015625, 0.031250, 0.000000, -0.031250, -0.031250, 0.000000, 0.015625, 0.031250, -0.031250, 0.031250, -0.015625, 0.000000, -0.031250, -0.015625, 0.015625, -0.031250, -0.031250, 0.000000, -0.031250, -0.015625, -0.015625, 0.031250, 0.031250, 0.000000, 0.015625, 0.015625, 0.031250, 0.015625, 0.000000, 0.000000, 0.015625, -0.046875, 0.000000, -0.031250, 0.000000, 0.031250, -0.015625, 0.031250, 0.000000, -0.015625, 0.015625, -0.031250, -0.046875, -0.031250, 0.046875, 0.000000, -0.031250, -0.015625, 0.000000, -0.031250, -0.031250, -0.046875, -0.031250, 0.031250, -0.031250, -0.015625, 0.000000, 0.000000, 0.031250, 0.000000, -0.015625, 0.031250, -0.015625, 0.015625, 0.000000, 0.000000, -0.015625, -0.031250, -0.015625, 0.015625, 0.031250, 0.015625, 0.015625, 0.015625, -0.015625, 0.031250, -0.015625, 0.015625, -0.031250, 0.015625, 0.031250, 0.031250, -0.015625, -0.015625, 0.015625, -0.015625, -0.015625, 0.015625, 0.000000, -0.015625, 0.015625, 0.000000, 0.015625, 0.046875, 0.031250, -0.015625, -0.015625, 0.031250, 0.000000, 0.015625, 0.000000, 0.015625, -0.015625, 0.046875, 0.000000, -0.015625, 0.015625, -0.031250, 0.015625, 0.015625, 0.015625, 0.000000, 0.015625, -0.031250, 0.015625, 0.031250, -0.031250, 0.031250, -0.046875, -0.031250, -0.031250, -0.046875, 0.046875, -0.031250, 0.031250, 0.015625, 0.015625, 0.000000, 0.000000, 0.031250, 0.015625, 0.015625, 0.000000, -0.031250, 0.031250, -0.031250, 0.000000, 0.031250, 0.031250, 0.015625, -0.031250, -0.015625, 0.015625, -0.015625, 0.000000, 0.031250, -0.015625, -0.031250, -0.046875, 0.015625, -0.031250, -0.046875, -0.015625, 0.031250, -0.031250, -0.046875, -0.031250, 0.031250, -0.031250, 0.015625, -0.031250, 0.046875, 0.031250, 0.000000, -0.031250, 0.031250, 0.000000, -0.015625, 0.000000, -0.015625, -0.031250, 0.015625, -0.031250, 0.015625, -0.015625, 0.031250, 0.015625, 0.046875, 0.000000, -0.046875, 0.000000, -0.015625, 0.015625, -0.031250, 0.046875, 0.000000, 0.015625, 0.000000, 0.031250, 0.015625, 0.000000, 0.000000, 0.000000, 0.000000, -0.015625, 0.000000, 0.000000, -0.015625, 0.000000, -0.015625, 0.015625, -0.031250, 0.015625, 0.015625, -0.031250, 0.031250, 0.000000, 0.031250, 0.015625, 0.015625, 0.031250, 0.046875, 0.000000, 0.046875, 0.000000, 0.015625, 0.031250, 0.031250, 0.031250, 0.000000, -0.031250, 0.000000, -0.031250, 0.000000, 0.031250, 0.000000, -0.031250, 0.015625, -0.031250, 0.000000, -0.015625, 0.031250, 0.031250, 0.031250, 0.000000, 0.000000, -0.031250, 0.015625, 0.000000, 0.015625, 0.031250, 0.000000, 0.015625, -0.015625, 0.015625, 0.000000, 0.015625, -0.015625, -0.031250, -0.031250, -0.015625, -0.046875, 0.046875, -0.046875, 0.031250, 0.031250, 0.031250, 0.031250, -0.015625, 0.031250, 0.015625, -0.031250, 0.015625, 0.046875, 0.046875, 0.000000, -0.031250, -0.031250, 0.015625, 0.031250, -0.015625, -0.015625, 0.000000, -0.015625, -0.015625, -0.015625, 0.031250, -0.015625, 0.015625, 0.000000, -0.015625, -0.031250, 0.015625, -0.015625, 0.015625, 0.015625, 0.015625, -0.031250, 0.000000, -0.046875, -0.046875, 0.015625, 0.000000, 0.015625, 0.031250, 0.000000, -0.031250, -0.046875, 0.000000, 0.015625, 0.015625, 0.031250, 0.000000, 0.000000, -0.031250, 0.015625, 0.015625, 0.031250, 0.031250, 0.000000, 0.015625, 0.000000, 0.015625, 0.031250, 0.015625, 0.031250, 0.046875, 0.031250, -0.015625, -0.031250, 0.031250, 0.015625, -0.015625, 0.015625, 0.015625, 0.046875, -0.015625, 0.015625, 0.015625, -0.015625, -0.031250, -0.015625, -0.015625, 0.000000, -0.046875, 0.015625, -0.015625, 0.000000, 0.000000, -0.031250, -0.015625, -0.015625, 0.000000, -0.031250, 0.031250, 0.000000, -0.031250, -0.046875, -0.031250, 0.000000, -0.031250, 0.031250, 0.031250, -0.015625, -0.031250, 0.031250, -0.015625, 0.046875, 0.000000, -0.015625, -0.015625, 0.015625, 0.015625, -0.031250, -0.015625, -0.031250, 0.031250, -0.031250, -0.031250, 0.015625, 0.000000, 0.031250, -0.015625, -0.031250, -0.031250, -0.031250, 0.031250, 0.015625, 0.015625, -0.031250, 0.000000, 0.046875, -0.031250, 0.000000, -0.015625, -0.015625, -0.015625, 0.046875, -0.031250, 0.000000, -0.031250, 0.031250, 0.015625, 0.031250, 0.015625, -0.031250, 0.015625, 0.031250, 0.015625, 0.000000, 0.015625, -0.015625, 0.000000, 0.031250, 0.000000, 0.046875, 0.015625, -0.031250, 0.031250, -0.031250, 0.031250, 0.046875, -0.015625, -0.046875, -0.031250, -0.015625, 0.015625, -0.046875, -0.031250, -0.015625, -0.015625, 0.015625, -0.046875, 0.000000, 0.000000, -0.015625, 0.031250, -0.031250, -0.046875, 0.000000, 0.015625, -0.015625, 0.031250, -0.031250, 0.015625, 0.015625, 0.000000, -0.031250, -0.046875, 0.000000, 0.031250, 0.000000, -0.015625, 0.031250, 0.031250, -0.015625, -0.015625, -0.031250, -0.015625, 0.000000, 0.031250, -0.015625, -0.031250, 0.015625, 0.000000, 0.046875, 0.031250, 0.000000, -0.046875, -0.031250, 0.031250, -0.015625, -0.031250, 0.015625, -0.015625, 0.046875, 0.000000, 0.031250, -0.015625, 0.000000, 0.031250, 0.000000, -0.031250, 0.000000, 0.031250, 0.015625, -0.031250, 0.015625, 0.000000, 0.031250, 0.015625, -0.046875, -0.031250, -0.031250, 0.031250, 0.015625, -0.031250, -0.031250, -0.031250, 0.015625, 0.031250, -0.031250, 0.000000, -0.015625, -0.031250, 0.015625, -0.015625, 0.031250, 0.046875, 0.000000, -0.015625, -0.031250, -0.015625, 0.000000, 0.015625, 0.031250, -0.015625, 0.046875, 0.000000, 0.000000, -0.015625, 0.000000, -0.046875, 0.031250, 0.015625, 0.000000, 0.000000, -0.015625, 0.000000, 0.015625, 0.000000, -0.031250, 0.000000, 0.046875, -0.015625, -0.031250, 0.046875, -0.031250, 0.000000, -0.015625, 0.000000, 0.031250, -0.046875, 0.000000, 0.000000, 0.031250, -0.015625, -0.046875, 0.031250, 0.015625, -0.015625, -0.015625, -0.031250, -0.015625, 0.046875, 0.000000, 0.046875, 0.031250, 0.015625, 0.031250, -0.031250, -0.031250, 0.000000, -0.015625, 0.000000, 0.000000, 0.000000, 0.015625, 0.015625, 0.000000, 0.000000, -0.015625, 0.015625, -0.015625, 0.015625, 0.031250, -0.015625, 0.015625, 0.031250, -0.015625, 0.000000, 0.031250, 0.000000, 0.031250, -0.015625, -0.015625, -0.015625, -0.031250, 0.000000, 0.031250, -0.015625, 0.000000, 0.015625, 0.000000, 0.031250, 0.031250, 0.000000, 0.000000, 0.031250, -0.015625, -0.015625, 0.000000, 0.000000, -0.046875, 0.000000, -0.031250, -0.015625, 0.031250, 0.000000, 0.000000, -0.046875, 0.015625, 0.000000, 0.031250, -0.031250, -0.031250, 0.031250, -0.031250, 0.000000, -0.015625, -0.031250, 0.000000, -0.031250, 0.000000, -0.031250, 0.031250, -0.015625, 0.031250, -0.015625, 0.031250, 0.015625, -0.046875, -0.015625, -0.031250, 0.031250, 0.015625, 0.000000, -0.015625, 0.000000, -0.015625, 0.015625, 0.000000, 0.031250, 0.015625, -0.031250, -0.031250, 0.046875, 0.031250, -0.015625, 0.031250, 0.000000, -0.015625, -0.015625, -0.031250, -0.046875, 0.031250, -0.031250, -0.015625, 0.031250, -0.015625, 0.000000, -0.031250, -0.015625, -0.015625, -0.015625, 0.015625, -0.031250, 0.046875, -0.031250, 0.015625, -0.015625, -0.046875, 0.015625, 0.031250, 0.031250, -0.046875, -0.031250, 0.015625, 0.031250, 0.031250, 0.015625, 0.046875, -0.015625, -0.031250, 0.000000, -0.031250, 0.015625, -0.031250, 0.000000, 0.000000, 0.046875, 0.031250, 0.031250, -0.031250, 0.015625, 0.015625, -0.015625, 0.031250, 0.015625, -0.015625, -0.015625, -0.015625, 0.015625, -0.015625, 0.046875, 0.000000, 0.031250, 0.015625, 0.031250, 0.000000, -0.031250, -0.031250, 0.031250, 0.000000, -0.015625, 0.046875, -0.015625, 0.031250, -0.031250, 0.031250, -0.031250, 0.000000, -0.031250, 0.031250, 0.031250, -0.015625, -0.015625, -0.015625, 0.031250, 0.000000, 0.000000, 0.015625, -0.015625, -0.015625, 0.031250, 0.031250, 0.031250, 0.031250, 0.000000, 0.000000, -0.031250, -0.046875, -0.015625, -0.031250, -0.015625, -0.015625, 0.000000, 0.031250, 0.000000, 0.000000, -0.046875, -0.015625, 0.015625, 0.015625, -0.015625, -0.015625, -0.015625, -0.046875, -0.015625, 0.000000, 0.015625, 0.015625, 0.000000, 0.000000, -0.015625, 0.031250, 0.031250, 0.015625, 0.015625, -0.031250, 0.046875, 0.015625, 0.031250, 0.031250, -0.015625, 0.015625, -0.015625, 0.031250, 0.046875, 0.000000, -0.015625, 0.000000, 0.031250, 0.000000, 0.015625, 0.000000, -0.031250, 0.015625, -0.031250, -0.031250, -0.031250, 0.031250, -0.031250, 0.015625, -0.031250, 0.000000, 0.031250, 0.000000, -0.015625, 0.031250, -0.031250, 0.031250, 0.031250, 0.000000, -0.031250, 0.031250, -0.031250, 0.000000, 0.015625, 0.000000, 0.015625, 0.000000, -0.015625, 0.000000, -0.031250, 0.031250, -0.015625, 0.031250, -0.015625, -0.031250, 0.000000, 0.046875, 0.015625, 0.000000, 0.015625, -0.015625, -0.031250, -0.046875, 0.000000, 0.031250, 0.015625, -0.046875, -0.031250, 0.000000, -0.031250, 0.015625, 0.000000, 0.000000, -0.031250, -0.015625, -0.031250, 0.031250, 0.000000, -0.015625, -0.015625, -0.015625, 0.031250, 0.046875, 0.000000, 0.031250, 0.000000, 0.015625, -0.015625, 0.000000, -0.031250, 0.031250, -0.015625, 0.031250, 0.031250, 0.031250, -0.046875, 0.031250, 0.015625, 0.031250, 0.000000, 0.015625, 0.000000, -0.046875, 0.000000, -0.031250, -0.031250, 0.046875, 0.015625, -0.015625, 0.031250, -0.031250, -0.031250, 0.015625, 0.000000, -0.031250, 0.000000, -0.031250, 0.015625, 0.000000, 0.031250, 0.015625, -0.015625, -0.031250, 0.031250, 0.031250, 0.031250, 0.031250, -0.031250, -0.015625, -0.046875, -0.031250, -0.015625, 0.000000, 0.000000, -0.046875, 0.031250, -0.031250, -0.046875, -0.015625, 0.000000, 0.046875, 0.000000, -0.031250, 0.031250, -0.015625, -0.015625, 0.015625, -0.046875, 0.000000, -0.015625, 0.031250, 0.015625, 0.031250, -0.046875, -0.015625, 0.000000, 0.015625, 0.015625, 0.000000, -0.031250, 0.015625, -0.031250, 0.015625, 0.031250, -0.031250, 0.015625, -0.015625, -0.015625, 0.015625, 0.000000, 0.000000, 0.015625, -0.031250, 0.000000, 0.000000, 0.000000, 0.000000, 0.015625, 0.031250, 0.031250, 0.000000, 0.015625, -0.015625, -0.031250, 0.015625, 0.031250, 0.015625, 0.000000, 0.015625, 0.000000, -0.031250, 0.031250, 0.000000, -0.015625, -0.031250, -0.031250, -0.031250, 0.015625, 0.015625, 0.015625, -0.046875, -0.031250, 0.015625, -0.031250, -0.031250, -0.046875, 0.031250, 0.015625, 0.015625, 0.000000, 0.015625, 0.031250, 0.031250, 0.000000, 0.046875, -0.015625, 0.000000, 0.015625, -0.015625, -0.031250, -0.015625, 0.046875, -0.015625, 0.000000, 0.015625, 0.031250, 0.000000, 0.015625, -0.015625, -0.031250, -0.015625, 0.031250, -0.031250, 0.015625, 0.000000, -0.015625, 0.015625, 0.000000, 0.031250, 0.015625, 0.031250, 0.015625, 0.031250, 0.015625, 0.000000, -0.031250, -0.031250, 0.000000, 0.015625, 0.015625, -0.031250, 0.031250, -0.046875, 0.031250, -0.046875, 0.031250, 0.015625, -0.031250, -0.031250, 0.015625, -0.031250, -0.031250, -0.031250, 0.000000, -0.031250, 0.000000, 0.031250, -0.015625, -0.015625, -0.015625, 0.046875, 0.000000, 0.031250, -0.046875, 0.000000, 0.000000, 0.031250, 0.031250, -0.031250, -0.031250, 0.000000, -0.015625, -0.031250, -0.031250, 0.031250, 0.000000, -0.015625, 0.031250, -0.015625, 0.000000, -0.031250, 0.015625, 0.015625, 0.046875, 0.000000, 0.031250, -0.046875, -0.031250, 0.031250, -0.031250, 0.000000, 0.031250, 0.000000, 0.031250, -0.015625, 0.031250, 0.015625, -0.031250, -0.031250, -0.046875, -0.015625, -0.031250, 0.000000, -0.031250, 0.000000, -0.031250, 0.000000, -0.015625, 0.046875, 0.015625, 0.000000, 0.015625, -0.031250, 0.015625, 0.015625, 0.000000, -0.046875, 0.000000, 0.046875, 0.015625, -0.015625, 0.015625, -0.046875, 0.000000, 0.015625, 0.000000, 0.000000, -0.015625, 0.000000, -0.031250, 0.015625, -0.015625, -0.031250, -0.015625, 0.015625, -0.031250, 0.000000, 0.031250, 0.046875, -0.015625, -0.031250, -0.015625, -0.031250, 0.015625, -0.031250, -0.031250, 0.000000, -0.015625, -0.046875, 0.031250, 0.000000, 0.000000, 0.031250, 0.046875, 0.000000, 0.000000, 0.015625, 0.015625, 0.031250, 0.031250, 0.015625, -0.015625, 0.015625, 0.015625, 0.015625, -0.031250, 0.046875, 0.031250, -0.015625, -0.031250, 0.031250, 0.015625, -0.046875, 0.015625, 0.000000, 0.000000, 0.015625, 0.046875, 0.031250, 0.046875, -0.046875, 0.000000, -0.031250, 0.015625, -0.046875, -0.031250, -0.031250, 0.031250, 0.031250, -0.031250, 0.015625, -0.046875, -0.015625, 0.000000, -0.015625, -0.031250, 0.031250, 0.000000, 0.000000, 0.031250, 0.031250, 0.015625, 0.031250, -0.015625, 0.031250, -0.031250, -0.015625, 0.000000, -0.015625, 0.046875, -0.031250, -0.046875, 0.000000, 0.015625, -0.015625, 0.046875, -0.015625, -0.031250, -0.031250, 0.015625, -0.015625, -0.015625, 0.000000, 0.015625, 0.000000, -0.031250, 0.015625, 0.000000, 0.000000, -0.031250, 0.031250, 0.000000, 0.031250, 0.031250, 0.015625, 0.031250, -0.015625, 0.015625, 0.000000, 0.031250, 0.031250, -0.015625, -0.015625, 0.031250, 0.031250, -0.031250, -0.031250, 0.000000, 0.015625, -0.015625, -0.031250, -0.031250, 0.031250, 0.000000, -0.015625, -0.015625, -0.031250, 0.031250, -0.046875, 0.000000, 0.046875, 0.000000, 0.015625, 0.046875, -0.015625, -0.031250, -0.046875, -0.015625, 0.015625, 0.015625, 0.031250, 0.000000, -0.015625, 0.000000, 0.015625, 0.046875, 0.046875, 0.015625, 0.015625, 0.000000, 0.000000, 0.031250, 0.031250, 0.031250, 0.031250, -0.031250, 0.000000, -0.031250, 0.015625, 0.015625, -0.031250, 0.015625, -0.031250, -0.015625, -0.015625, 0.000000, -0.031250, 0.000000, -0.031250, -0.015625, 0.031250, -0.046875, 0.015625, 0.031250, 0.015625, 0.031250, -0.046875, -0.015625, 0.046875, -0.015625, 0.015625, 0.000000, 0.031250, 0.046875, 0.000000, 0.000000, 0.000000, 0.031250, 0.000000, -0.031250, -0.015625, 0.000000, 0.031250, -0.015625, -0.031250, -0.031250, 0.015625, 0.031250, 0.000000, 0.015625, -0.015625, 0.015625, -0.015625, 0.031250, -0.031250, 0.000000, -0.015625, 0.015625, 0.031250, -0.046875, 0.031250, -0.015625, 0.015625, -0.031250, 0.015625, -0.031250, 0.000000, -0.015625, 0.000000, 0.000000, -0.015625, 0.046875, 0.031250, 0.015625, -0.031250, 0.031250, 0.031250, 0.031250, 0.000000, -0.031250, -0.031250, -0.015625, 0.000000, -0.015625, 0.015625, -0.031250, 0.000000, 0.031250, 0.015625, -0.031250, 0.000000, -0.031250, -0.031250, 0.031250, 0.031250, 0.015625, -0.031250, -0.031250, -0.031250, 0.046875, -0.031250, 0.031250, -0.031250, -0.046875, -0.031250, -0.015625, 0.046875, -0.031250, -0.031250, 0.031250, -0.046875, 0.046875, 0.031250, -0.015625, 0.000000, -0.015625, 0.015625, 0.015625, -0.015625, -0.015625, -0.015625, -0.015625, 0.000000, -0.015625, 0.031250, 0.015625, 0.015625, 0.031250, 0.000000, 0.031250, 0.015625, -0.031250, 0.000000, 0.000000, -0.015625, 0.031250, 0.031250, 0.000000, -0.046875, 0.000000, -0.015625, 0.015625, 0.046875, -0.015625, -0.031250, 0.015625, -0.015625, -0.031250, -0.031250, 0.031250, 0.015625, -0.046875, 0.015625, 0.000000, 0.000000, 0.046875, -0.031250, -0.031250, 0.015625, -0.015625, -0.031250, 0.046875, 0.015625, 0.015625, -0.031250, 0.000000, -0.031250, 0.015625, 0.015625, -0.015625, -0.031250, 0.031250, -0.015625, -0.015625, -0.015625, 0.000000, 0.015625, 0.015625, -0.015625, 0.031250, -0.015625, -0.015625, 0.031250, -0.015625, 0.000000, 0.031250, -0.015625, -0.015625, 0.031250, -0.015625, 0.000000, 0.031250, -0.031250, 0.000000, 0.015625, 0.015625, -0.031250, 0.015625, 0.031250, 0.000000, -0.031250, 0.000000, 0.031250, 0.015625, 0.046875, -0.031250, -0.046875, 0.015625, -0.046875, -0.031250, 0.015625, 0.015625, 0.015625, -0.031250, -0.015625, 0.031250, 0.000000, -0.015625, 0.031250, -0.031250, -0.031250, 0.031250, 0.000000, 0.046875, 0.015625, -0.031250, 0.031250, -0.031250, 0.015625, -0.046875, -0.031250, 0.031250, 0.015625, 0.015625, 0.015625, -0.046875, 0.031250, 0.046875, 0.015625, 0.000000, -0.015625, -0.031250, -0.031250, 0.000000, 0.000000, 0.015625, 0.000000, 0.015625, 0.015625, 0.000000, 0.000000, 0.000000, 0.031250, 0.015625, -0.031250, -0.031250, 0.000000};
#endif

#endif
