//Numpy array shape [3, 3, 64, 128]
//Min -0.062500000000
//Max 0.062500000000
//Number of zeros 9897

#ifndef W20_H_
#define W20_H_

#ifndef __SYNTHESIS__
weight20_t w20[73728];
#else
weight20_t w20[73728] = {-0.031250, -0.015625, 0.015625, 0.031250, 0.046875, 0.015625, -0.031250, -0.031250, -0.046875, 0.031250, 0.015625, -0.046875, 0.000000, -0.046875, -0.031250, 0.000000, -0.031250, 0.031250, -0.015625, -0.015625, -0.015625, -0.031250, 0.031250, 0.046875, -0.062500, 0.000000, -0.046875, -0.046875, 0.000000, 0.015625, -0.062500, -0.031250, -0.046875, 0.000000, -0.031250, 0.031250, 0.000000, -0.062500, -0.062500, 0.031250, 0.015625, 0.015625, 0.031250, 0.015625, -0.031250, -0.031250, -0.015625, 0.062500, -0.031250, -0.031250, -0.046875, 0.062500, 0.031250, -0.031250, -0.015625, -0.015625, 0.046875, -0.046875, 0.015625, 0.046875, -0.046875, -0.015625, -0.015625, 0.000000, -0.031250, 0.046875, -0.015625, 0.031250, 0.000000, 0.046875, -0.046875, -0.015625, 0.046875, -0.046875, 0.000000, 0.000000, 0.062500, 0.015625, -0.015625, 0.015625, 0.015625, -0.031250, 0.046875, 0.031250, -0.031250, 0.015625, -0.062500, 0.015625, -0.046875, 0.015625, -0.015625, 0.000000, -0.015625, -0.046875, 0.015625, 0.000000, 0.015625, -0.046875, 0.015625, 0.046875, 0.000000, -0.031250, 0.031250, -0.031250, -0.046875, 0.015625, -0.046875, -0.031250, 0.046875, -0.015625, -0.046875, -0.015625, 0.000000, -0.015625, -0.015625, -0.031250, -0.031250, -0.031250, -0.015625, 0.031250, -0.015625, 0.015625, -0.046875, -0.015625, 0.046875, -0.046875, 0.031250, 0.031250, -0.046875, -0.031250, -0.031250, -0.015625, 0.015625, 0.000000, 0.015625, 0.031250, -0.046875, -0.015625, 0.046875, -0.015625, 0.031250, 0.015625, 0.031250, 0.000000, -0.015625, 0.015625, 0.046875, -0.015625, 0.046875, 0.015625, -0.015625, 0.031250, 0.046875, -0.015625, -0.015625, 0.062500, 0.015625, 0.046875, 0.031250, -0.015625, 0.031250, -0.046875, -0.062500, -0.031250, 0.046875, -0.046875, -0.015625, 0.031250, 0.046875, 0.015625, -0.031250, -0.015625, 0.015625, -0.031250, 0.046875, 0.000000, -0.015625, -0.015625, 0.000000, -0.015625, -0.046875, -0.046875, -0.046875, 0.015625, -0.015625, -0.031250, 0.046875, 0.000000, 0.031250, 0.000000, -0.046875, 0.015625, 0.031250, 0.031250, 0.000000, -0.015625, -0.015625, -0.046875, 0.031250, 0.046875, 0.031250, 0.015625, 0.046875, -0.046875, -0.015625, 0.015625, 0.031250, -0.015625, -0.062500, 0.046875, -0.031250, 0.015625, -0.031250, 0.046875, 0.046875, 0.031250, 0.031250, 0.015625, 0.046875, -0.031250, 0.046875, 0.015625, 0.031250, -0.046875, 0.000000, 0.062500, 0.046875, 0.015625, -0.015625, 0.000000, 0.046875, -0.062500, -0.015625, 0.000000, 0.000000, 0.062500, -0.046875, 0.046875, -0.031250, 0.046875, 0.031250, 0.046875, -0.062500, 0.000000, -0.031250, -0.015625, 0.046875, -0.062500, 0.015625, 0.031250, 0.031250, -0.046875, -0.062500, 0.046875, 0.000000, 0.046875, -0.015625, 0.015625, -0.062500, 0.046875, -0.031250, -0.031250, 0.000000, 0.046875, 0.046875, -0.031250, 0.046875, 0.031250, 0.062500, 0.015625, 0.000000, 0.015625, 0.000000, 0.000000, 0.046875, 0.046875, 0.031250, 0.015625, -0.031250, 0.031250, 0.031250, 0.031250, 0.046875, -0.031250, -0.046875, -0.046875, -0.031250, -0.062500, -0.031250, 0.000000, 0.046875, 0.000000, -0.031250, 0.062500, 0.000000, -0.015625, 0.015625, -0.046875, 0.031250, 0.000000, -0.031250, 0.046875, 0.031250, 0.015625, -0.046875, -0.062500, -0.015625, -0.046875, -0.031250, -0.015625, 0.031250, 0.046875, 0.031250, -0.031250, -0.015625, -0.046875, 0.000000, -0.046875, 0.031250, -0.031250, 0.062500, -0.015625, 0.046875, -0.031250, 0.000000, 0.046875, 0.015625, 0.000000, -0.046875, 0.000000, 0.000000, 0.015625, 0.046875, 0.062500, 0.046875, 0.046875, 0.015625, 0.046875, 0.000000, 0.031250, 0.031250, 0.015625, 0.000000, -0.031250, -0.015625, 0.031250, -0.046875, 0.000000, 0.000000, -0.046875, 0.015625, 0.046875, 0.046875, 0.062500, -0.046875, -0.046875, 0.046875, 0.031250, -0.031250, -0.015625, -0.015625, 0.031250, 0.046875, 0.031250, 0.031250, 0.015625, -0.031250, 0.046875, 0.046875, -0.031250, 0.015625, 0.046875, 0.000000, -0.046875, -0.015625, 0.000000, -0.046875, 0.031250, -0.046875, -0.046875, 0.046875, -0.031250, 0.046875, -0.031250, 0.046875, -0.015625, -0.015625, -0.046875, 0.046875, 0.015625, 0.062500, -0.015625, -0.046875, 0.046875, -0.031250, 0.000000, 0.000000, 0.015625, 0.046875, -0.015625, 0.031250, -0.046875, 0.015625, 0.031250, 0.000000, 0.000000, 0.015625, -0.062500, -0.015625, 0.000000, 0.031250, -0.015625, 0.031250, 0.000000, 0.031250, 0.031250, -0.015625, 0.031250, 0.046875, -0.031250, 0.031250, -0.046875, -0.015625, 0.015625, 0.000000, 0.015625, 0.000000, 0.015625, -0.031250, 0.015625, 0.046875, -0.046875, -0.046875, -0.046875, 0.062500, -0.031250, -0.031250, 0.000000, 0.031250, 0.000000, 0.000000, 0.031250, -0.031250, -0.015625, -0.031250, 0.031250, -0.046875, 0.046875, 0.015625, -0.046875, 0.015625, 0.046875, 0.046875, -0.046875, 0.031250, -0.031250, -0.046875, 0.031250, 0.062500, 0.015625, -0.062500, 0.000000, -0.015625, 0.046875, 0.031250, 0.000000, -0.046875, 0.015625, -0.031250, 0.031250, 0.031250, -0.015625, -0.031250, -0.046875, 0.015625, -0.046875, -0.031250, 0.000000, 0.015625, -0.046875, 0.031250, -0.031250, 0.000000, -0.015625, 0.031250, -0.046875, 0.046875, 0.015625, 0.046875, 0.015625, -0.015625, -0.062500, -0.062500, 0.046875, 0.031250, -0.046875, 0.046875, -0.046875, -0.046875, 0.015625, 0.046875, -0.062500, -0.031250, 0.046875, 0.000000, -0.031250, 0.031250, 0.046875, 0.015625, 0.000000, 0.062500, -0.062500, 0.000000, 0.000000, 0.031250, 0.015625, 0.046875, -0.031250, 0.046875, 0.046875, 0.031250, -0.046875, 0.015625, 0.015625, -0.031250, 0.015625, 0.015625, 0.062500, 0.046875, 0.046875, 0.000000, -0.015625, 0.015625, -0.015625, -0.031250, -0.046875, 0.031250, -0.031250, -0.031250, -0.062500, 0.031250, 0.062500, 0.000000, 0.015625, -0.031250, 0.046875, -0.031250, -0.031250, -0.062500, -0.046875, 0.000000, -0.015625, 0.031250, 0.000000, 0.031250, -0.046875, 0.046875, -0.046875, 0.031250, 0.046875, -0.046875, 0.062500, 0.046875, 0.031250, 0.031250, 0.046875, 0.046875, -0.031250, 0.000000, 0.046875, -0.062500, -0.031250, -0.031250, 0.046875, 0.046875, 0.062500, 0.031250, 0.062500, 0.062500, -0.046875, -0.062500, 0.015625, 0.031250, 0.015625, -0.031250, -0.046875, -0.031250, 0.015625, -0.046875, 0.015625, 0.015625, 0.046875, -0.031250, 0.031250, 0.015625, -0.046875, -0.031250, 0.000000, 0.046875, -0.062500, 0.062500, -0.015625, 0.015625, 0.015625, 0.000000, -0.046875, 0.015625, -0.031250, 0.031250, -0.046875, 0.031250, 0.031250, -0.031250, -0.031250, -0.015625, -0.015625, -0.031250, 0.000000, 0.062500, -0.015625, 0.000000, 0.062500, 0.015625, 0.000000, 0.046875, 0.046875, 0.015625, -0.015625, -0.046875, 0.046875, 0.046875, 0.046875, -0.062500, 0.031250, -0.046875, -0.062500, 0.015625, -0.046875, 0.000000, -0.031250, -0.015625, -0.046875, 0.046875, -0.046875, -0.046875, -0.046875, -0.031250, -0.031250, 0.015625, 0.015625, 0.031250, -0.046875, -0.046875, 0.031250, 0.046875, -0.062500, -0.031250, -0.015625, -0.015625, -0.046875, 0.046875, 0.000000, 0.015625, 0.000000, 0.031250, -0.046875, -0.015625, 0.031250, -0.015625, -0.015625, 0.015625, 0.000000, 0.046875, 0.031250, 0.046875, 0.015625, 0.046875, -0.015625, 0.000000, 0.000000, -0.062500, -0.015625, 0.000000, 0.015625, 0.031250, 0.031250, -0.015625, 0.031250, 0.015625, 0.046875, 0.046875, 0.031250, 0.015625, 0.015625, 0.015625, -0.015625, 0.000000, 0.000000, 0.046875, -0.031250, -0.046875, -0.015625, -0.031250, 0.015625, 0.000000, 0.000000, -0.046875, -0.046875, 0.015625, -0.015625, -0.046875, -0.015625, 0.046875, 0.046875, -0.031250, -0.031250, 0.062500, -0.046875, -0.015625, -0.046875, 0.015625, -0.015625, 0.015625, 0.015625, -0.031250, 0.015625, 0.046875, 0.031250, -0.015625, 0.046875, -0.031250, 0.000000, -0.046875, 0.000000, 0.000000, -0.046875, -0.046875, -0.015625, 0.000000, -0.031250, 0.062500, 0.000000, -0.046875, -0.046875, 0.031250, -0.015625, 0.000000, 0.000000, -0.062500, -0.046875, 0.046875, 0.000000, 0.046875, 0.031250, -0.046875, 0.000000, 0.015625, -0.062500, 0.015625, -0.062500, 0.000000, 0.015625, 0.015625, 0.031250, -0.031250, -0.062500, -0.031250, 0.015625, 0.031250, -0.015625, -0.031250, -0.046875, 0.000000, 0.031250, 0.000000, -0.015625, 0.000000, 0.015625, 0.046875, -0.062500, 0.000000, 0.031250, 0.031250, -0.031250, -0.015625, 0.000000, 0.062500, -0.031250, 0.031250, 0.031250, 0.031250, -0.031250, 0.031250, -0.046875, -0.046875, 0.015625, -0.046875, -0.015625, -0.015625, -0.031250, 0.000000, -0.031250, -0.031250, -0.046875, 0.046875, -0.015625, -0.046875, -0.031250, -0.015625, 0.062500, -0.015625, 0.000000, 0.046875, -0.031250, -0.046875, 0.000000, 0.046875, 0.046875, 0.031250, -0.046875, 0.031250, -0.015625, 0.000000, 0.031250, -0.031250, 0.062500, -0.015625, 0.015625, 0.000000, 0.000000, 0.031250, 0.000000, 0.000000, 0.031250, 0.046875, 0.031250, -0.015625, 0.000000, 0.000000, -0.031250, 0.015625, -0.031250, 0.062500, -0.031250, 0.031250, 0.046875, 0.000000, 0.062500, 0.015625, 0.031250, 0.062500, -0.046875, 0.015625, -0.046875, 0.031250, 0.031250, 0.046875, 0.062500, 0.015625, 0.046875, -0.046875, -0.031250, -0.015625, 0.000000, 0.031250, -0.046875, 0.046875, -0.046875, -0.046875, 0.031250, 0.000000, 0.000000, 0.046875, -0.046875, -0.031250, 0.031250, -0.031250, -0.015625, 0.046875, 0.031250, 0.031250, -0.046875, -0.046875, 0.046875, -0.031250, -0.015625, 0.000000, -0.046875, 0.046875, 0.000000, -0.031250, 0.031250, 0.000000, -0.015625, 0.015625, -0.031250, 0.031250, 0.046875, 0.000000, -0.031250, 0.031250, -0.062500, -0.031250, 0.015625, -0.046875, 0.000000, 0.000000, 0.015625, -0.046875, 0.000000, -0.015625, 0.031250, -0.046875, -0.015625, 0.046875, -0.046875, 0.031250, 0.031250, 0.000000, 0.031250, -0.015625, 0.015625, 0.031250, -0.046875, 0.031250, 0.015625, 0.015625, -0.031250, 0.000000, 0.046875, -0.046875, -0.031250, -0.046875, 0.031250, -0.062500, -0.031250, -0.046875, 0.015625, -0.062500, -0.062500, 0.031250, -0.046875, 0.000000, 0.000000, 0.046875, -0.031250, -0.046875, 0.015625, 0.031250, 0.015625, 0.031250, -0.031250, -0.031250, 0.000000, -0.046875, -0.015625, -0.015625, 0.062500, 0.015625, 0.015625, -0.031250, 0.046875, 0.000000, 0.000000, -0.015625, -0.046875, 0.000000, 0.015625, -0.031250, 0.031250, -0.046875, -0.046875, -0.046875, -0.015625, 0.062500, -0.046875, -0.031250, -0.015625, -0.046875, -0.031250, -0.015625, 0.015625, -0.031250, 0.046875, 0.000000, 0.015625, 0.046875, 0.031250, -0.015625, -0.015625, -0.015625, -0.015625, -0.015625, 0.015625, 0.015625, -0.015625, -0.015625, 0.062500, 0.000000, -0.015625, -0.046875, 0.000000, 0.000000, -0.046875, 0.015625, 0.000000, -0.046875, -0.031250, -0.015625, -0.046875, 0.046875, -0.046875, 0.062500, 0.031250, -0.015625, 0.015625, -0.015625, -0.031250, -0.031250, -0.046875, 0.031250, 0.000000, -0.031250, 0.031250, -0.031250, -0.062500, -0.015625, -0.046875, 0.000000, -0.031250, 0.062500, 0.031250, 0.031250, 0.015625, -0.031250, 0.015625, 0.046875, -0.031250, -0.031250, -0.015625, 0.031250, -0.015625, -0.015625, -0.031250, -0.015625, 0.062500, -0.015625, -0.015625, 0.015625, -0.046875, -0.015625, -0.046875, 0.000000, -0.046875, 0.000000, 0.000000, -0.015625, -0.031250, 0.046875, 0.031250, -0.015625, 0.031250, 0.046875, 0.015625, 0.046875, -0.046875, 0.046875, 0.046875, -0.015625, -0.062500, 0.015625, 0.046875, -0.062500, 0.015625, -0.031250, 0.015625, 0.046875, 0.046875, 0.062500, 0.000000, -0.062500, 0.062500, 0.015625, -0.046875, 0.031250, -0.046875, -0.031250, 0.046875, -0.046875, -0.031250, -0.046875, -0.046875, 0.046875, 0.015625, 0.031250, 0.000000, 0.031250, 0.031250, -0.046875, -0.015625, 0.000000, -0.015625, -0.031250, -0.046875, 0.031250, -0.046875, -0.031250, 0.031250, -0.031250, -0.046875, 0.046875, 0.000000, 0.046875, 0.031250, 0.046875, 0.000000, -0.015625, -0.031250, 0.000000, 0.000000, -0.015625, 0.015625, 0.062500, 0.046875, -0.046875, 0.000000, -0.015625, 0.000000, -0.015625, -0.015625, 0.031250, 0.015625, 0.031250, 0.031250, 0.000000, 0.046875, -0.046875, 0.015625, 0.031250, -0.046875, -0.031250, 0.031250, 0.062500, 0.015625, -0.046875, -0.046875, -0.046875, 0.031250, 0.046875, 0.000000, 0.015625, -0.046875, 0.031250, 0.000000, 0.031250, -0.046875, -0.046875, -0.046875, -0.031250, 0.046875, 0.015625, 0.046875, -0.046875, 0.000000, -0.015625, 0.046875, 0.000000, -0.015625, -0.046875, -0.046875, -0.015625, 0.000000, 0.031250, 0.046875, 0.000000, 0.015625, -0.062500, -0.031250, 0.031250, 0.015625, 0.000000, 0.015625, 0.046875, 0.031250, -0.062500, -0.031250, -0.015625, -0.031250, 0.015625, 0.000000, -0.015625, 0.031250, -0.031250, -0.031250, 0.000000, 0.046875, -0.031250, 0.046875, 0.000000, 0.062500, 0.000000, -0.031250, 0.000000, 0.031250, 0.031250, -0.015625, 0.015625, -0.031250, 0.031250, 0.046875, -0.031250, 0.000000, -0.046875, 0.000000, 0.046875, 0.000000, -0.046875, 0.000000, 0.031250, 0.000000, -0.046875, 0.046875, -0.046875, 0.000000, -0.015625, -0.046875, 0.000000, 0.046875, 0.031250, -0.015625, 0.046875, 0.015625, -0.062500, -0.031250, 0.000000, 0.000000, 0.046875, -0.046875, -0.046875, 0.015625, -0.015625, -0.015625, -0.015625, 0.015625, -0.046875, -0.062500, 0.031250, -0.015625, -0.015625, 0.000000, 0.046875, 0.046875, 0.031250, 0.000000, -0.031250, 0.015625, -0.031250, -0.062500, 0.015625, -0.046875, 0.000000, 0.031250, -0.046875, 0.031250, 0.000000, -0.031250, 0.015625, -0.046875, 0.015625, -0.015625, -0.046875, 0.000000, -0.046875, -0.015625, -0.062500, 0.000000, -0.062500, 0.015625, -0.015625, 0.046875, -0.031250, 0.031250, 0.046875, -0.015625, 0.015625, 0.046875, -0.031250, 0.000000, 0.031250, 0.031250, 0.031250, -0.015625, 0.015625, 0.046875, -0.015625, 0.046875, 0.031250, 0.031250, 0.046875, 0.031250, 0.062500, 0.000000, 0.015625, -0.046875, 0.015625, -0.046875, -0.031250, -0.015625, -0.031250, 0.031250, 0.046875, 0.000000, 0.046875, 0.031250, 0.062500, 0.000000, 0.031250, 0.015625, 0.031250, -0.046875, 0.031250, 0.062500, -0.046875, 0.046875, -0.015625, 0.000000, 0.031250, 0.046875, 0.031250, 0.000000, -0.046875, -0.062500, 0.000000, 0.046875, 0.000000, -0.046875, 0.031250, 0.046875, -0.031250, 0.000000, -0.015625, -0.046875, 0.046875, 0.031250, -0.031250, -0.046875, 0.015625, 0.062500, 0.000000, 0.031250, -0.031250, 0.031250, 0.000000, -0.062500, 0.031250, 0.000000, 0.031250, 0.046875, 0.015625, 0.015625, 0.015625, -0.046875, 0.031250, -0.015625, -0.046875, -0.015625, 0.000000, 0.031250, 0.046875, 0.062500, -0.015625, -0.031250, -0.062500, 0.015625, 0.031250, 0.015625, -0.046875, -0.031250, 0.046875, 0.000000, 0.015625, 0.015625, 0.015625, -0.046875, 0.031250, 0.046875, 0.031250, 0.046875, -0.046875, -0.046875, 0.000000, 0.046875, 0.000000, -0.031250, 0.046875, 0.031250, -0.046875, 0.000000, -0.031250, 0.015625, 0.015625, 0.000000, 0.000000, -0.015625, 0.015625, -0.031250, 0.015625, -0.046875, 0.062500, 0.046875, -0.015625, 0.000000, 0.000000, -0.046875, 0.031250, 0.015625, -0.031250, -0.015625, -0.046875, -0.046875, 0.015625, 0.031250, -0.031250, 0.031250, 0.031250, 0.000000, -0.046875, 0.000000, -0.015625, 0.031250, -0.015625, 0.031250, 0.062500, -0.015625, 0.000000, 0.015625, -0.015625, 0.015625, 0.062500, -0.031250, 0.015625, 0.000000, 0.031250, 0.000000, -0.015625, -0.015625, 0.000000, 0.031250, 0.046875, 0.046875, 0.031250, -0.031250, -0.046875, -0.046875, -0.046875, 0.015625, -0.015625, -0.046875, 0.015625, 0.031250, -0.015625, -0.015625, -0.046875, -0.046875, 0.015625, 0.000000, 0.031250, -0.031250, 0.015625, 0.015625, 0.015625, 0.015625, 0.046875, -0.015625, 0.046875, 0.046875, 0.062500, 0.062500, 0.046875, -0.031250, -0.015625, 0.000000, 0.000000, 0.015625, 0.031250, 0.000000, 0.000000, -0.046875, -0.046875, -0.015625, 0.000000, -0.046875, -0.015625, 0.000000, 0.046875, 0.000000, 0.046875, 0.015625, -0.062500, -0.031250, 0.046875, 0.031250, -0.015625, 0.046875, -0.015625, -0.031250, -0.015625, 0.031250, 0.062500, -0.046875, -0.031250, 0.000000, 0.062500, 0.046875, 0.015625, 0.015625, -0.031250, -0.062500, -0.046875, 0.000000, 0.031250, -0.031250, -0.015625, -0.031250, -0.031250, 0.031250, 0.031250, -0.031250, -0.015625, 0.015625, 0.000000, 0.015625, -0.015625, 0.015625, 0.062500, -0.031250, 0.015625, -0.046875, 0.000000, -0.031250, 0.031250, -0.046875, -0.031250, 0.031250, -0.015625, -0.031250, 0.031250, 0.031250, 0.000000, 0.031250, 0.015625, -0.046875, -0.062500, 0.031250, -0.046875, 0.046875, -0.046875, 0.015625, 0.046875, 0.000000, 0.000000, 0.000000, 0.000000, -0.015625, -0.015625, -0.031250, 0.015625, -0.015625, 0.015625, 0.000000, 0.015625, -0.015625, -0.031250, 0.046875, 0.031250, -0.046875, 0.015625, -0.062500, 0.031250, -0.015625, 0.031250, 0.046875, 0.046875, -0.046875, 0.031250, -0.046875, -0.031250, 0.031250, 0.015625, -0.046875, 0.015625, 0.031250, 0.000000, -0.031250, 0.046875, 0.046875, 0.031250, -0.062500, 0.015625, -0.015625, -0.062500, 0.000000, 0.015625, -0.031250, -0.015625, 0.031250, -0.031250, 0.000000, 0.031250, 0.000000, 0.031250, -0.031250, 0.000000, 0.015625, -0.031250, -0.015625, -0.031250, -0.015625, -0.031250, -0.031250, 0.046875, -0.031250, -0.015625, -0.062500, -0.031250, -0.046875, -0.046875, -0.046875, -0.015625, 0.015625, -0.031250, 0.046875, 0.015625, 0.000000, -0.015625, 0.046875, -0.046875, 0.000000, 0.000000, 0.046875, -0.046875, -0.062500, -0.046875, 0.046875, -0.015625, 0.046875, 0.015625, -0.046875, -0.046875, 0.015625, 0.031250, 0.031250, 0.031250, 0.015625, 0.000000, -0.015625, -0.015625, 0.031250, -0.046875, 0.015625, -0.031250, 0.015625, -0.046875, 0.031250, 0.015625, 0.000000, 0.000000, 0.000000, -0.015625, 0.000000, 0.000000, -0.015625, -0.046875, 0.031250, 0.046875, 0.015625, 0.062500, 0.015625, -0.062500, 0.046875, 0.015625, 0.015625, 0.062500, -0.031250, 0.000000, 0.046875, 0.015625, -0.046875, 0.000000, 0.062500, -0.062500, -0.015625, -0.046875, 0.000000, 0.046875, -0.031250, 0.031250, -0.046875, 0.031250, 0.046875, 0.031250, -0.046875, 0.031250, 0.015625, 0.000000, 0.046875, -0.031250, -0.046875, 0.031250, 0.015625, -0.015625, -0.015625, 0.000000, 0.046875, 0.000000, 0.015625, 0.000000, 0.046875, 0.046875, 0.000000, 0.015625, -0.046875, 0.000000, -0.046875, -0.031250, 0.000000, -0.046875, 0.062500, 0.031250, 0.000000, -0.031250, -0.062500, -0.046875, 0.031250, 0.046875, 0.031250, 0.000000, -0.031250, 0.062500, 0.015625, -0.046875, -0.031250, -0.031250, -0.015625, 0.000000, -0.046875, -0.046875, -0.046875, -0.031250, -0.031250, -0.015625, 0.015625, -0.031250, -0.046875, 0.046875, 0.046875, -0.031250, -0.046875, -0.015625, 0.015625, -0.031250, -0.015625, -0.031250, 0.015625, 0.015625, 0.000000, 0.046875, 0.031250, -0.046875, 0.046875, 0.031250, 0.000000, -0.031250, -0.062500, 0.015625, -0.031250, -0.031250, 0.046875, 0.015625, -0.015625, -0.031250, -0.062500, 0.046875, -0.015625, 0.046875, 0.031250, -0.015625, -0.046875, 0.031250, 0.000000, -0.046875, -0.062500, 0.031250, 0.015625, -0.015625, 0.000000, 0.031250, -0.015625, 0.046875, -0.031250, 0.031250, 0.046875, 0.015625, -0.031250, 0.000000, -0.046875, 0.015625, -0.031250, 0.031250, 0.062500, -0.046875, 0.062500, -0.015625, 0.046875, -0.031250, -0.031250, -0.031250, 0.062500, 0.062500, 0.015625, -0.062500, -0.031250, 0.000000, 0.000000, 0.000000, -0.015625, 0.046875, -0.031250, 0.000000, -0.031250, 0.046875, -0.015625, -0.046875, -0.062500, 0.015625, 0.031250, 0.000000, 0.062500, 0.000000, 0.062500, -0.015625, 0.015625, 0.046875, -0.015625, 0.046875, -0.031250, 0.000000, 0.000000, -0.015625, -0.015625, 0.015625, 0.046875, -0.031250, 0.000000, -0.015625, -0.062500, -0.046875, 0.015625, -0.046875, -0.031250, 0.046875, -0.046875, -0.015625, 0.000000, -0.046875, -0.046875, -0.031250, -0.015625, -0.046875, -0.031250, -0.015625, 0.046875, 0.000000, 0.000000, -0.062500, -0.015625, 0.015625, 0.031250, -0.031250, 0.015625, 0.000000, 0.000000, -0.046875, 0.046875, 0.015625, -0.046875, -0.062500, -0.046875, -0.046875, -0.015625, -0.062500, -0.015625, 0.000000, 0.000000, -0.015625, -0.031250, -0.031250, -0.031250, 0.015625, -0.015625, 0.000000, -0.031250, -0.015625, 0.046875, -0.046875, 0.031250, 0.031250, 0.000000, 0.015625, -0.031250, 0.015625, 0.000000, -0.015625, -0.015625, 0.015625, -0.015625, 0.031250, -0.046875, 0.046875, 0.000000, 0.046875, 0.000000, 0.015625, 0.031250, -0.062500, 0.046875, 0.062500, -0.031250, 0.046875, -0.015625, 0.000000, 0.015625, -0.031250, -0.015625, -0.031250, -0.015625, 0.031250, 0.046875, 0.031250, -0.031250, -0.046875, 0.000000, 0.046875, 0.046875, -0.031250, -0.046875, 0.000000, 0.062500, -0.015625, 0.031250, -0.062500, 0.015625, 0.046875, 0.031250, -0.031250, -0.046875, -0.046875, 0.000000, 0.046875, -0.015625, -0.031250, 0.031250, 0.062500, 0.000000, -0.015625, 0.015625, -0.062500, 0.031250, -0.015625, 0.031250, 0.031250, -0.046875, 0.000000, 0.031250, 0.062500, -0.015625, 0.000000, 0.000000, 0.046875, 0.000000, -0.015625, -0.046875, 0.046875, -0.015625, 0.046875, -0.031250, 0.046875, 0.031250, 0.015625, 0.031250, 0.031250, 0.062500, 0.046875, 0.046875, 0.000000, -0.046875, 0.031250, 0.046875, 0.000000, -0.046875, 0.015625, -0.046875, -0.031250, -0.046875, -0.031250, 0.046875, 0.046875, -0.031250, -0.046875, 0.000000, 0.000000, 0.000000, -0.062500, 0.000000, -0.046875, 0.015625, -0.015625, 0.046875, -0.015625, -0.046875, 0.031250, 0.031250, -0.015625, 0.000000, 0.015625, 0.031250, -0.015625, 0.000000, -0.062500, 0.031250, 0.031250, 0.031250, -0.031250, -0.046875, 0.031250, -0.031250, 0.046875, 0.015625, -0.031250, -0.046875, -0.046875, 0.000000, -0.015625, 0.031250, 0.015625, -0.046875, 0.046875, 0.000000, -0.046875, 0.000000, 0.046875, 0.000000, 0.046875, 0.031250, 0.046875, 0.031250, -0.062500, -0.015625, -0.046875, 0.046875, -0.046875, 0.000000, 0.031250, -0.046875, 0.015625, -0.015625, 0.000000, -0.062500, 0.031250, -0.015625, -0.015625, 0.046875, 0.000000, 0.031250, 0.000000, -0.015625, 0.000000, -0.062500, 0.031250, 0.031250, 0.015625, 0.031250, 0.015625, 0.015625, 0.031250, 0.015625, 0.000000, 0.031250, 0.046875, 0.031250, 0.062500, -0.015625, 0.046875, -0.031250, -0.046875, 0.062500, -0.031250, 0.046875, -0.046875, -0.015625, -0.031250, -0.031250, -0.062500, 0.046875, -0.031250, -0.046875, 0.046875, -0.031250, -0.015625, -0.046875, 0.000000, 0.015625, -0.031250, -0.046875, 0.015625, 0.000000, -0.062500, 0.000000, -0.031250, 0.046875, 0.062500, -0.046875, 0.015625, 0.031250, -0.031250, 0.000000, -0.031250, 0.031250, 0.000000, 0.015625, -0.015625, 0.031250, 0.031250, 0.046875, -0.062500, 0.031250, -0.031250, 0.031250, 0.031250, -0.015625, 0.031250, 0.000000, -0.046875, 0.000000, -0.046875, -0.046875, 0.015625, -0.015625, 0.015625, 0.015625, 0.031250, -0.046875, -0.062500, -0.015625, 0.046875, -0.015625, 0.015625, 0.015625, 0.046875, 0.015625, 0.000000, 0.015625, -0.031250, 0.000000, 0.031250, -0.015625, -0.031250, -0.046875, 0.046875, -0.015625, 0.031250, -0.031250, 0.046875, 0.000000, 0.015625, -0.046875, -0.031250, 0.031250, 0.015625, 0.046875, 0.046875, 0.031250, -0.031250, 0.000000, 0.015625, -0.031250, 0.015625, -0.046875, 0.031250, 0.015625, 0.031250, 0.015625, 0.031250, 0.046875, -0.015625, -0.031250, -0.031250, 0.000000, -0.062500, -0.031250, -0.046875, -0.046875, 0.015625, 0.000000, -0.031250, -0.062500, 0.015625, 0.031250, -0.046875, 0.031250, -0.015625, -0.046875, -0.031250, -0.046875, 0.031250, 0.015625, 0.000000, 0.031250, -0.046875, -0.046875, -0.046875, -0.046875, 0.031250, -0.062500, -0.015625, 0.000000, 0.046875, 0.062500, 0.015625, 0.015625, -0.015625, -0.015625, 0.046875, -0.015625, -0.031250, -0.046875, 0.000000, 0.015625, -0.015625, 0.000000, 0.015625, -0.062500, -0.015625, 0.062500, 0.046875, 0.046875, 0.062500, 0.031250, 0.046875, 0.031250, 0.000000, -0.031250, -0.031250, 0.015625, -0.046875, -0.046875, 0.046875, -0.046875, 0.046875, 0.000000, -0.046875, 0.000000, 0.015625, -0.046875, -0.015625, 0.000000, 0.031250, 0.000000, 0.000000, -0.015625, -0.062500, 0.000000, -0.031250, -0.031250, 0.046875, -0.031250, 0.046875, -0.015625, -0.046875, 0.015625, 0.015625, -0.046875, 0.015625, 0.046875, -0.031250, 0.046875, 0.031250, -0.046875, 0.046875, -0.046875, 0.015625, -0.015625, -0.015625, -0.031250, 0.062500, -0.015625, -0.015625, -0.046875, 0.000000, -0.046875, 0.000000, 0.031250, 0.062500, -0.062500, -0.015625, 0.000000, -0.031250, 0.046875, -0.015625, 0.031250, -0.062500, 0.015625, -0.015625, 0.046875, -0.046875, 0.046875, 0.031250, 0.000000, -0.046875, -0.015625, -0.046875, -0.015625, -0.046875, -0.031250, 0.015625, 0.046875, 0.000000, 0.000000, 0.031250, 0.000000, 0.031250, 0.031250, 0.015625, 0.015625, 0.015625, -0.031250, -0.031250, 0.031250, -0.031250, -0.046875, -0.046875, 0.031250, 0.031250, 0.046875, 0.031250, -0.015625, -0.031250, 0.031250, 0.046875, 0.031250, 0.015625, -0.046875, -0.031250, 0.000000, 0.046875, -0.031250, -0.046875, 0.000000, -0.015625, 0.031250, 0.046875, 0.031250, -0.046875, -0.031250, 0.031250, -0.015625, 0.015625, -0.015625, -0.015625, -0.015625, -0.031250, 0.000000, -0.031250, -0.046875, 0.031250, 0.015625, 0.000000, 0.000000, -0.046875, -0.046875, -0.046875, -0.046875, -0.031250, -0.046875, 0.046875, 0.046875, -0.031250, 0.000000, 0.031250, 0.000000, 0.062500, -0.031250, -0.046875, 0.015625, 0.046875, 0.000000, 0.015625, -0.031250, 0.015625, -0.046875, -0.015625, 0.046875, 0.015625, 0.000000, -0.031250, 0.046875, 0.000000, 0.015625, 0.000000, 0.046875, -0.046875, 0.031250, -0.062500, 0.015625, -0.015625, 0.015625, 0.031250, -0.046875, 0.031250, 0.046875, -0.046875, -0.015625, 0.015625, -0.046875, 0.015625, 0.046875, -0.031250, 0.015625, 0.031250, 0.031250, -0.046875, 0.031250, -0.031250, 0.046875, -0.015625, 0.015625, 0.046875, 0.015625, -0.015625, -0.046875, -0.015625, -0.046875, 0.046875, 0.046875, 0.046875, 0.031250, 0.000000, -0.046875, 0.031250, -0.031250, 0.015625, -0.046875, -0.015625, 0.015625, 0.000000, -0.031250, 0.000000, 0.015625, -0.031250, 0.015625, 0.000000, 0.062500, 0.046875, 0.000000, 0.031250, -0.046875, -0.062500, 0.000000, 0.046875, 0.046875, -0.031250, 0.000000, -0.015625, -0.015625, 0.000000, -0.062500, -0.031250, -0.031250, -0.046875, -0.015625, 0.031250, 0.031250, -0.046875, 0.000000, 0.000000, 0.046875, -0.046875, 0.062500, 0.000000, 0.000000, 0.000000, -0.046875, 0.062500, -0.031250, 0.000000, 0.031250, 0.046875, -0.046875, -0.031250, -0.046875, -0.062500, -0.062500, 0.015625, 0.015625, 0.046875, 0.015625, 0.046875, -0.015625, 0.031250, 0.015625, 0.000000, 0.015625, -0.015625, 0.046875, -0.015625, 0.062500, 0.046875, 0.046875, -0.062500, -0.015625, -0.046875, 0.000000, -0.015625, -0.015625, -0.046875, 0.046875, -0.031250, 0.015625, 0.000000, -0.015625, -0.046875, 0.031250, 0.015625, -0.046875, 0.015625, -0.015625, 0.015625, 0.031250, 0.031250, 0.031250, 0.046875, 0.046875, 0.046875, 0.046875, -0.031250, -0.031250, -0.015625, -0.031250, -0.015625, 0.046875, 0.031250, -0.046875, 0.046875, 0.015625, 0.000000, 0.000000, -0.015625, -0.015625, -0.015625, 0.031250, -0.046875, 0.062500, -0.046875, 0.015625, -0.062500, -0.046875, 0.000000, 0.000000, 0.046875, 0.031250, 0.046875, -0.031250, 0.046875, 0.046875, -0.015625, -0.046875, 0.046875, -0.015625, -0.015625, 0.031250, 0.046875, -0.031250, -0.046875, -0.015625, 0.046875, 0.000000, 0.015625, 0.000000, 0.015625, 0.062500, 0.000000, -0.031250, 0.031250, -0.031250, -0.046875, 0.000000, -0.046875, 0.031250, 0.031250, 0.000000, -0.062500, -0.031250, 0.031250, 0.046875, 0.046875, -0.031250, 0.031250, 0.015625, 0.015625, -0.031250, 0.031250, -0.062500, 0.046875, 0.046875, 0.000000, 0.015625, 0.046875, 0.000000, 0.062500, 0.046875, 0.046875, 0.000000, 0.000000, 0.031250, -0.015625, 0.046875, -0.031250, 0.031250, -0.046875, -0.015625, 0.031250, 0.000000, -0.046875, 0.015625, 0.000000, 0.031250, 0.000000, -0.046875, -0.031250, -0.015625, -0.046875, -0.031250, 0.000000, -0.015625, 0.062500, 0.015625, -0.031250, -0.046875, 0.031250, 0.031250, 0.062500, 0.046875, 0.031250, 0.015625, -0.046875, 0.046875, -0.015625, 0.046875, 0.000000, -0.015625, -0.031250, -0.031250, 0.015625, 0.031250, 0.000000, 0.015625, 0.000000, 0.015625, -0.031250, 0.000000, 0.015625, 0.015625, 0.015625, 0.015625, 0.015625, -0.015625, -0.046875, 0.031250, -0.015625, -0.031250, 0.031250, -0.046875, -0.015625, 0.000000, -0.015625, 0.000000, -0.046875, -0.046875, 0.015625, -0.031250, 0.015625, -0.031250, 0.031250, -0.046875, -0.031250, 0.000000, 0.000000, 0.000000, -0.046875, 0.015625, -0.046875, -0.015625, 0.046875, -0.015625, 0.000000, 0.046875, -0.062500, -0.046875, 0.000000, 0.046875, -0.062500, 0.046875, 0.015625, 0.015625, -0.015625, 0.015625, -0.046875, 0.046875, 0.031250, -0.031250, 0.015625, -0.031250, 0.031250, -0.031250, 0.031250, -0.031250, 0.062500, 0.031250, -0.031250, -0.031250, -0.031250, -0.031250, -0.062500, 0.000000, -0.015625, -0.015625, 0.046875, -0.046875, 0.062500, 0.015625, -0.046875, 0.031250, -0.031250, 0.031250, 0.031250, 0.046875, -0.031250, 0.046875, 0.015625, 0.031250, 0.046875, -0.046875, 0.046875, -0.046875, -0.031250, 0.046875, -0.046875, 0.031250, 0.046875, -0.015625, -0.031250, 0.062500, -0.046875, -0.062500, -0.031250, 0.046875, 0.031250, -0.015625, 0.000000, -0.015625, 0.062500, -0.015625, 0.046875, -0.015625, -0.046875, 0.000000, -0.015625, 0.031250, 0.000000, -0.046875, 0.031250, -0.046875, 0.046875, 0.000000, 0.015625, -0.046875, 0.046875, 0.000000, 0.031250, -0.015625, 0.046875, -0.015625, -0.015625, -0.046875, -0.046875, 0.000000, 0.015625, 0.062500, 0.046875, 0.046875, 0.015625, -0.031250, -0.062500, 0.000000, 0.000000, 0.031250, 0.062500, -0.015625, 0.000000, 0.031250, 0.046875, -0.062500, -0.062500, 0.046875, -0.031250, 0.015625, 0.000000, 0.031250, -0.031250, -0.015625, -0.015625, 0.031250, -0.046875, 0.000000, -0.031250, -0.031250, -0.031250, -0.015625, 0.015625, -0.046875, 0.000000, 0.062500, 0.046875, -0.015625, -0.015625, -0.062500, 0.046875, 0.015625, 0.000000, 0.046875, 0.031250, 0.046875, 0.031250, 0.000000, -0.031250, 0.031250, 0.031250, -0.015625, -0.046875, 0.031250, -0.015625, 0.015625, -0.046875, 0.015625, 0.031250, -0.015625, -0.062500, 0.031250, 0.000000, 0.031250, 0.046875, -0.046875, -0.031250, 0.062500, 0.015625, -0.015625, 0.046875, 0.046875, 0.015625, -0.062500, 0.015625, 0.046875, -0.031250, 0.031250, -0.015625, -0.015625, 0.015625, -0.046875, -0.046875, -0.031250, 0.046875, -0.015625, 0.000000, 0.046875, 0.015625, 0.015625, 0.046875, -0.031250, -0.015625, 0.062500, 0.000000, 0.000000, -0.015625, 0.000000, 0.000000, 0.000000, 0.031250, 0.000000, -0.015625, 0.031250, -0.062500, -0.031250, 0.046875, 0.015625, 0.046875, 0.015625, 0.046875, -0.046875, 0.046875, 0.031250, -0.046875, -0.031250, 0.015625, -0.031250, 0.000000, 0.000000, -0.015625, 0.046875, -0.015625, 0.000000, -0.031250, -0.062500, -0.015625, -0.031250, 0.015625, -0.015625, -0.062500, 0.015625, -0.031250, 0.015625, 0.031250, -0.031250, -0.046875, -0.046875, 0.031250, -0.031250, 0.000000, -0.046875, 0.062500, 0.015625, -0.031250, -0.046875, -0.046875, 0.000000, 0.031250, 0.000000, -0.015625, 0.000000, -0.015625, 0.000000, -0.031250, 0.000000, 0.000000, 0.031250, 0.000000, 0.031250, 0.000000, -0.046875, 0.015625, 0.046875, 0.031250, -0.046875, 0.062500, -0.015625, 0.000000, 0.046875, 0.062500, -0.015625, 0.000000, -0.046875, 0.015625, 0.046875, -0.031250, -0.015625, 0.046875, 0.000000, -0.031250, 0.000000, -0.031250, 0.031250, -0.046875, 0.031250, -0.015625, 0.031250, -0.015625, -0.015625, -0.031250, 0.031250, -0.046875, -0.031250, 0.062500, -0.015625, -0.015625, -0.062500, 0.046875, 0.000000, 0.062500, -0.015625, 0.000000, 0.000000, 0.031250, 0.046875, 0.046875, -0.015625, -0.031250, 0.062500, 0.015625, 0.031250, 0.000000, 0.000000, 0.046875, -0.015625, 0.046875, 0.031250, -0.015625, 0.046875, 0.046875, -0.015625, 0.046875, -0.062500, 0.000000, -0.031250, 0.000000, 0.015625, 0.015625, 0.046875, 0.046875, 0.015625, -0.031250, -0.031250, 0.031250, -0.062500, 0.015625, -0.062500, -0.031250, 0.031250, 0.015625, -0.046875, 0.015625, 0.000000, 0.015625, -0.015625, 0.015625, 0.046875, -0.046875, 0.000000, 0.062500, 0.000000, -0.015625, -0.015625, 0.046875, -0.015625, 0.000000, -0.015625, 0.046875, -0.062500, -0.031250, 0.062500, 0.000000, -0.046875, 0.015625, -0.031250, -0.031250, -0.015625, 0.015625, -0.046875, -0.046875, -0.031250, -0.015625, 0.000000, 0.015625, -0.031250, 0.000000, 0.015625, -0.015625, -0.015625, -0.031250, 0.062500, 0.031250, 0.000000, 0.046875, -0.015625, -0.031250, -0.015625, -0.031250, 0.000000, 0.046875, 0.000000, 0.062500, -0.046875, 0.046875, 0.031250, -0.046875, 0.046875, -0.031250, 0.031250, 0.031250, 0.015625, -0.046875, 0.031250, -0.031250, 0.000000, 0.031250, -0.015625, 0.046875, -0.031250, -0.046875, 0.046875, 0.015625, 0.046875, 0.046875, 0.015625, -0.046875, 0.062500, -0.031250, 0.031250, -0.046875, -0.046875, -0.062500, -0.062500, 0.062500, -0.031250, -0.015625, 0.000000, 0.015625, -0.031250, 0.031250, -0.015625, 0.031250, 0.046875, 0.000000, 0.062500, -0.046875, 0.046875, 0.015625, 0.000000, 0.031250, -0.015625, 0.000000, 0.031250, -0.015625, 0.031250, 0.031250, -0.015625, 0.015625, -0.031250, -0.031250, 0.046875, 0.015625, 0.031250, -0.046875, 0.000000, -0.015625, 0.031250, -0.046875, 0.046875, -0.046875, 0.031250, 0.046875, -0.046875, -0.031250, 0.015625, -0.015625, -0.031250, -0.031250, 0.046875, 0.000000, 0.015625, 0.000000, 0.062500, -0.031250, -0.015625, 0.015625, -0.062500, -0.046875, 0.031250, -0.015625, 0.000000, 0.031250, -0.015625, 0.000000, -0.015625, -0.031250, -0.062500, 0.000000, 0.046875, 0.000000, 0.000000, -0.031250, -0.031250, 0.015625, -0.015625, -0.031250, 0.046875, -0.046875, 0.031250, -0.015625, -0.031250, 0.000000, -0.046875, 0.031250, -0.046875, 0.015625, -0.015625, 0.031250, -0.062500, 0.031250, -0.046875, -0.015625, 0.031250, 0.046875, -0.046875, 0.000000, 0.015625, -0.015625, -0.015625, 0.031250, -0.015625, 0.031250, 0.046875, 0.031250, 0.015625, 0.000000, -0.046875, 0.000000, 0.062500, 0.031250, 0.046875, -0.031250, -0.046875, -0.031250, 0.031250, 0.015625, 0.031250, -0.015625, -0.046875, -0.031250, 0.031250, 0.031250, 0.046875, -0.015625, 0.015625, 0.015625, -0.046875, -0.015625, -0.046875, 0.031250, 0.046875, 0.031250, 0.015625, 0.000000, 0.015625, -0.015625, 0.031250, 0.031250, 0.015625, 0.046875, 0.000000, -0.062500, -0.046875, 0.031250, 0.000000, 0.000000, -0.031250, 0.015625, -0.046875, 0.015625, -0.031250, 0.000000, 0.046875, 0.000000, 0.046875, -0.046875, 0.000000, -0.031250, 0.046875, 0.031250, -0.046875, 0.015625, 0.031250, 0.000000, -0.046875, 0.000000, -0.046875, -0.031250, 0.046875, -0.031250, -0.046875, 0.062500, 0.031250, 0.000000, -0.015625, -0.046875, 0.046875, 0.000000, 0.000000, -0.046875, -0.015625, 0.031250, -0.046875, 0.046875, -0.015625, 0.000000, 0.015625, 0.046875, 0.000000, -0.046875, 0.046875, -0.015625, 0.046875, 0.015625, -0.046875, -0.015625, -0.015625, 0.046875, 0.046875, 0.062500, 0.015625, 0.015625, 0.000000, 0.015625, -0.015625, -0.031250, -0.015625, 0.000000, 0.000000, 0.031250, 0.015625, 0.046875, 0.031250, -0.046875, -0.046875, -0.015625, -0.046875, 0.015625, -0.015625, -0.031250, 0.000000, -0.031250, -0.015625, -0.015625, 0.015625, 0.015625, -0.031250, 0.046875, 0.031250, -0.062500, -0.062500, -0.015625, 0.031250, 0.000000, -0.046875, -0.015625, 0.031250, 0.015625, 0.031250, 0.000000, 0.031250, -0.031250, -0.015625, -0.031250, 0.015625, 0.046875, -0.031250, 0.015625, -0.015625, 0.000000, -0.046875, 0.031250, -0.015625, -0.046875, -0.046875, 0.000000, 0.015625, 0.046875, -0.046875, 0.000000, -0.031250, -0.015625, -0.031250, 0.046875, 0.015625, -0.031250, -0.015625, 0.031250, 0.046875, -0.062500, 0.046875, 0.046875, 0.015625, -0.031250, -0.031250, -0.031250, -0.031250, -0.031250, 0.046875, 0.062500, -0.015625, 0.031250, -0.031250, -0.031250, 0.046875, 0.015625, -0.046875, -0.031250, 0.046875, 0.015625, 0.031250, 0.046875, -0.031250, 0.000000, 0.015625, -0.062500, 0.000000, -0.046875, 0.000000, -0.046875, 0.000000, -0.031250, 0.031250, 0.046875, 0.000000, -0.031250, -0.062500, 0.000000, -0.062500, -0.031250, -0.046875, -0.046875, -0.015625, 0.000000, 0.046875, -0.031250, 0.000000, -0.062500, 0.000000, 0.015625, -0.015625, 0.015625, 0.062500, -0.062500, 0.031250, -0.015625, 0.046875, -0.015625, 0.000000, 0.046875, -0.062500, -0.046875, -0.031250, 0.031250, -0.046875, 0.046875, 0.046875, -0.031250, 0.000000, 0.031250, -0.031250, 0.031250, -0.046875, 0.015625, 0.000000, 0.062500, 0.000000, 0.015625, -0.046875, -0.062500, -0.046875, -0.031250, -0.031250, -0.015625, 0.000000, -0.015625, -0.046875, 0.031250, 0.031250, 0.046875, 0.015625, 0.046875, -0.046875, 0.015625, -0.031250, 0.000000, 0.062500, -0.046875, 0.062500, 0.046875, 0.031250, -0.015625, -0.031250, 0.046875, -0.046875, -0.046875, 0.031250, -0.062500, -0.031250, 0.015625, -0.031250, 0.031250, 0.000000, -0.031250, -0.046875, 0.062500, 0.000000, 0.000000, 0.000000, -0.015625, 0.000000, -0.031250, 0.062500, 0.000000, -0.046875, -0.031250, 0.046875, 0.000000, 0.015625, 0.046875, 0.015625, -0.031250, 0.046875, -0.031250, 0.031250, 0.046875, 0.000000, 0.046875, -0.046875, 0.046875, -0.015625, -0.015625, -0.015625, 0.046875, -0.031250, 0.031250, -0.031250, -0.062500, -0.046875, -0.046875, 0.000000, 0.000000, 0.015625, 0.062500, 0.015625, -0.046875, 0.046875, -0.015625, -0.046875, 0.031250, -0.031250, 0.000000, 0.015625, -0.031250, -0.015625, 0.015625, 0.046875, 0.046875, -0.046875, 0.015625, 0.046875, 0.062500, 0.031250, -0.046875, 0.062500, 0.000000, 0.000000, 0.015625, 0.046875, 0.031250, 0.000000, 0.031250, 0.000000, -0.031250, -0.046875, 0.062500, 0.015625, 0.031250, -0.015625, 0.031250, 0.031250, 0.046875, -0.046875, 0.062500, -0.046875, 0.015625, 0.031250, -0.046875, -0.015625, 0.046875, 0.031250, 0.015625, 0.015625, -0.046875, 0.046875, 0.031250, -0.062500, -0.031250, 0.015625, 0.046875, 0.000000, -0.046875, 0.031250, 0.015625, 0.015625, -0.062500, 0.031250, 0.015625, 0.015625, -0.015625, -0.046875, 0.000000, -0.031250, -0.015625, -0.046875, 0.031250, 0.031250, 0.015625, -0.031250, 0.046875, 0.000000, -0.046875, 0.015625, 0.000000, -0.015625, -0.031250, 0.046875, -0.031250, 0.031250, -0.031250, 0.015625, 0.031250, -0.015625, 0.046875, 0.031250, 0.000000, 0.046875, 0.031250, -0.031250, 0.000000, 0.031250, 0.000000, 0.046875, -0.046875, -0.031250, 0.015625, 0.046875, 0.031250, 0.015625, 0.031250, -0.062500, 0.031250, 0.031250, 0.046875, 0.000000, 0.015625, 0.000000, 0.062500, 0.031250, 0.015625, 0.015625, -0.015625, -0.031250, -0.015625, -0.015625, 0.000000, 0.046875, -0.031250, 0.046875, -0.031250, 0.062500, -0.031250, -0.046875, -0.046875, 0.046875, 0.015625, 0.046875, -0.015625, -0.046875, -0.046875, 0.015625, -0.015625, -0.031250, 0.031250, 0.031250, 0.015625, 0.046875, -0.031250, -0.031250, 0.046875, -0.046875, -0.046875, -0.015625, 0.031250, 0.031250, 0.046875, -0.015625, -0.031250, 0.000000, -0.031250, -0.031250, -0.046875, -0.031250, 0.015625, 0.000000, 0.031250, 0.000000, 0.031250, 0.015625, 0.000000, 0.000000, 0.031250, 0.015625, 0.031250, 0.046875, -0.031250, 0.000000, 0.046875, -0.046875, 0.031250, -0.015625, 0.000000, 0.015625, -0.031250, 0.000000, -0.046875, 0.046875, 0.031250, 0.031250, -0.046875, -0.046875, -0.046875, 0.015625, 0.015625, 0.046875, -0.015625, -0.062500, 0.046875, -0.015625, 0.000000, -0.015625, 0.000000, 0.000000, 0.015625, -0.046875, 0.046875, 0.046875, 0.015625, 0.046875, -0.015625, -0.031250, -0.031250, 0.000000, -0.031250, -0.031250, 0.031250, 0.046875, 0.046875, 0.046875, 0.000000, -0.031250, 0.031250, 0.046875, -0.062500, -0.015625, -0.046875, 0.031250, 0.046875, 0.015625, -0.031250, 0.062500, -0.031250, 0.031250, -0.062500, -0.031250, -0.031250, -0.015625, 0.062500, -0.046875, 0.000000, 0.000000, 0.046875, -0.031250, 0.000000, 0.000000, -0.031250, -0.031250, 0.062500, -0.031250, 0.031250, -0.015625, 0.000000, -0.015625, -0.046875, -0.031250, -0.031250, 0.015625, 0.015625, 0.046875, 0.000000, 0.015625, 0.015625, 0.000000, 0.031250, 0.046875, 0.000000, 0.062500, 0.031250, -0.031250, 0.046875, -0.031250, -0.046875, 0.046875, -0.031250, -0.031250, 0.000000, 0.031250, 0.000000, 0.046875, -0.046875, -0.015625, 0.000000, 0.031250, -0.046875, 0.000000, -0.015625, 0.062500, 0.046875, 0.031250, -0.031250, -0.015625, 0.000000, 0.000000, 0.000000, 0.031250, -0.031250, 0.031250, -0.046875, 0.000000, 0.046875, 0.000000, -0.031250, -0.062500, -0.031250, 0.062500, -0.031250, 0.015625, -0.031250, -0.015625, -0.015625, -0.031250, -0.015625, -0.046875, 0.015625, -0.046875, 0.000000, 0.031250, -0.046875, -0.031250, 0.015625, -0.031250, 0.000000, -0.046875, 0.031250, 0.031250, -0.031250, 0.062500, 0.015625, -0.015625, -0.031250, -0.062500, 0.031250, 0.046875, -0.015625, 0.000000, 0.046875, -0.031250, 0.046875, 0.031250, -0.015625, 0.046875, -0.031250, -0.015625, 0.046875, -0.062500, -0.062500, 0.000000, -0.046875, 0.000000, -0.031250, -0.062500, 0.000000, 0.046875, 0.046875, 0.015625, 0.062500, -0.031250, 0.046875, 0.046875, -0.046875, -0.046875, -0.031250, 0.046875, 0.000000, 0.031250, -0.015625, 0.015625, -0.031250, 0.000000, -0.062500, 0.031250, 0.015625, -0.062500, 0.000000, 0.046875, -0.031250, 0.000000, -0.031250, 0.000000, 0.015625, 0.031250, 0.046875, -0.015625, -0.046875, -0.031250, 0.062500, 0.015625, 0.000000, 0.031250, 0.015625, -0.015625, -0.062500, -0.015625, -0.031250, -0.015625, -0.015625, -0.046875, 0.015625, -0.015625, -0.062500, 0.031250, -0.031250, -0.031250, -0.031250, 0.015625, 0.015625, -0.015625, -0.031250, -0.015625, 0.000000, 0.031250, 0.015625, -0.015625, -0.031250, -0.046875, -0.046875, 0.015625, -0.046875, 0.031250, 0.062500, -0.015625, 0.015625, -0.031250, -0.031250, -0.046875, -0.015625, 0.000000, 0.000000, -0.046875, -0.046875, 0.062500, -0.031250, 0.031250, 0.046875, -0.031250, -0.031250, -0.031250, 0.000000, -0.031250, 0.046875, 0.062500, -0.046875, -0.031250, 0.000000, 0.031250, -0.015625, 0.000000, 0.046875, -0.031250, -0.031250, 0.046875, -0.046875, -0.015625, -0.015625, 0.000000, 0.031250, -0.015625, -0.046875, 0.015625, 0.015625, -0.046875, 0.062500, -0.046875, -0.015625, -0.031250, 0.015625, 0.046875, 0.031250, -0.015625, -0.046875, 0.031250, -0.046875, -0.031250, 0.031250, -0.046875, -0.031250, 0.046875, 0.015625, -0.015625, -0.062500, 0.000000, 0.031250, 0.015625, 0.046875, 0.015625, -0.015625, -0.062500, -0.015625, 0.015625, 0.015625, 0.046875, 0.015625, -0.031250, 0.046875, -0.031250, -0.031250, -0.046875, -0.031250, 0.046875, -0.046875, 0.046875, 0.015625, -0.046875, -0.015625, 0.046875, 0.000000, -0.015625, 0.000000, 0.031250, -0.015625, -0.031250, 0.031250, 0.015625, 0.046875, -0.046875, -0.015625, 0.046875, 0.015625, -0.015625, 0.000000, -0.062500, -0.046875, 0.031250, -0.015625, 0.046875, -0.046875, -0.031250, -0.046875, 0.046875, -0.046875, 0.000000, 0.000000, 0.015625, -0.046875, -0.015625, 0.031250, 0.046875, 0.046875, 0.000000, 0.031250, 0.000000, -0.015625, 0.046875, 0.015625, 0.046875, 0.046875, -0.015625, -0.015625, 0.062500, -0.015625, -0.015625, 0.015625, 0.015625, 0.046875, 0.015625, -0.031250, 0.046875, -0.015625, 0.015625, 0.062500, -0.031250, 0.046875, 0.031250, -0.046875, 0.046875, -0.015625, -0.046875, -0.015625, -0.015625, 0.000000, 0.046875, -0.015625, 0.015625, -0.031250, 0.000000, -0.015625, 0.062500, 0.031250, 0.015625, -0.015625, 0.015625, -0.046875, -0.031250, 0.031250, 0.031250, -0.015625, -0.015625, -0.031250, 0.046875, -0.015625, -0.046875, 0.015625, 0.062500, 0.046875, -0.031250, 0.000000, 0.000000, 0.031250, 0.046875, -0.046875, -0.031250, 0.015625, 0.046875, 0.000000, 0.015625, -0.031250, 0.031250, 0.046875, -0.031250, 0.015625, 0.000000, -0.031250, -0.046875, -0.015625, 0.000000, 0.046875, 0.000000, -0.046875, -0.046875, 0.015625, 0.000000, 0.031250, -0.046875, 0.000000, 0.046875, 0.000000, -0.046875, -0.031250, -0.046875, 0.046875, -0.031250, -0.015625, -0.015625, 0.062500, 0.015625, 0.015625, 0.015625, 0.046875, -0.031250, -0.015625, -0.031250, -0.015625, 0.031250, -0.046875, 0.046875, 0.000000, 0.031250, 0.015625, 0.015625, 0.015625, 0.000000, -0.015625, 0.031250, 0.046875, -0.031250, 0.031250, -0.031250, 0.031250, -0.046875, -0.062500, 0.046875, 0.015625, -0.015625, -0.046875, 0.046875, 0.031250, 0.062500, -0.015625, -0.015625, -0.015625, -0.046875, -0.046875, 0.000000, 0.000000, 0.031250, -0.046875, 0.000000, -0.046875, 0.015625, 0.015625, 0.000000, 0.031250, -0.015625, -0.015625, 0.000000, 0.046875, 0.015625, -0.015625, 0.031250, 0.062500, -0.015625, -0.031250, 0.046875, -0.015625, 0.000000, -0.046875, -0.015625, 0.031250, -0.062500, -0.031250, -0.046875, -0.015625, 0.031250, 0.062500, 0.000000, -0.046875, -0.015625, 0.046875, 0.046875, 0.031250, -0.046875, 0.046875, 0.046875, 0.015625, 0.046875, 0.000000, 0.031250, 0.031250, 0.031250, 0.031250, 0.031250, 0.015625, 0.015625, 0.046875, -0.015625, 0.031250, 0.000000, -0.015625, 0.031250, 0.031250, 0.015625, -0.046875, 0.000000, 0.015625, 0.015625, -0.015625, 0.031250, 0.000000, 0.046875, -0.031250, -0.046875, 0.031250, -0.015625, 0.015625, 0.031250, 0.046875, -0.062500, -0.015625, 0.031250, 0.015625, 0.015625, 0.031250, 0.046875, -0.046875, 0.000000, -0.015625, 0.046875, -0.015625, 0.046875, 0.031250, 0.015625, 0.031250, -0.015625, -0.046875, 0.031250, -0.015625, 0.062500, 0.015625, -0.031250, -0.046875, -0.015625, 0.062500, -0.046875, 0.031250, -0.015625, 0.031250, 0.062500, 0.046875, 0.031250, -0.046875, 0.046875, -0.031250, 0.000000, 0.000000, -0.046875, 0.046875, 0.031250, 0.046875, 0.015625, 0.062500, 0.015625, -0.031250, 0.062500, 0.015625, 0.046875, 0.000000, -0.031250, 0.031250, 0.046875, 0.046875, 0.000000, -0.046875, -0.031250, 0.031250, -0.015625, -0.015625, 0.000000, 0.031250, 0.015625, -0.046875, 0.062500, -0.062500, 0.046875, 0.046875, 0.046875, 0.031250, -0.031250, 0.031250, 0.031250, -0.046875, -0.015625, 0.000000, 0.062500, 0.046875, 0.031250, -0.046875, 0.015625, -0.031250, 0.031250, 0.046875, -0.031250, 0.015625, 0.031250, -0.015625, 0.031250, -0.015625, -0.046875, -0.062500, 0.000000, -0.015625, 0.015625, -0.015625, -0.046875, 0.046875, 0.015625, -0.046875, -0.046875, -0.031250, 0.046875, -0.031250, -0.031250, -0.031250, -0.031250, 0.062500, -0.046875, -0.046875, -0.031250, 0.031250, -0.015625, -0.015625, -0.015625, 0.046875, -0.031250, -0.062500, -0.046875, 0.000000, 0.031250, -0.046875, 0.062500, -0.015625, -0.046875, 0.015625, 0.046875, 0.031250, 0.031250, 0.000000, -0.015625, 0.046875, -0.046875, -0.046875, -0.046875, 0.046875, 0.015625, 0.015625, -0.015625, 0.015625, 0.000000, 0.000000, -0.031250, -0.015625, -0.015625, 0.046875, -0.015625, 0.031250, 0.046875, 0.031250, -0.031250, 0.046875, -0.046875, 0.062500, 0.046875, -0.015625, -0.046875, 0.031250, 0.031250, -0.046875, 0.046875, 0.000000, 0.015625, 0.000000, 0.031250, 0.015625, 0.031250, 0.046875, 0.000000, -0.046875, -0.031250, 0.000000, 0.031250, 0.031250, -0.015625, -0.015625, -0.062500, 0.046875, -0.031250, 0.031250, 0.062500, 0.031250, -0.046875, -0.015625, -0.046875, -0.046875, -0.031250, -0.062500, -0.046875, -0.046875, -0.031250, 0.031250, 0.000000, -0.046875, 0.046875, -0.031250, 0.000000, 0.031250, 0.046875, 0.046875, 0.015625, 0.031250, 0.046875, 0.031250, -0.046875, 0.000000, 0.015625, 0.015625, -0.062500, 0.031250, -0.062500, -0.031250, -0.062500, 0.015625, -0.031250, -0.046875, 0.015625, -0.046875, -0.015625, 0.046875, -0.046875, 0.015625, -0.015625, 0.046875, -0.031250, 0.031250, 0.031250, 0.015625, 0.046875, 0.015625, -0.031250, 0.046875, 0.000000, 0.015625, 0.046875, -0.031250, 0.031250, 0.015625, -0.031250, 0.031250, 0.015625, -0.046875, -0.046875, -0.031250, -0.015625, 0.015625, -0.031250, 0.000000, -0.031250, 0.000000, 0.046875, 0.031250, -0.015625, 0.000000, 0.031250, 0.031250, 0.015625, 0.015625, 0.015625, -0.015625, 0.000000, -0.015625, -0.015625, -0.031250, 0.062500, 0.046875, 0.015625, -0.031250, 0.046875, 0.031250, -0.031250, 0.046875, 0.031250, -0.046875, -0.031250, 0.046875, 0.015625, 0.046875, 0.031250, -0.062500, 0.000000, 0.062500, 0.015625, 0.046875, 0.015625, 0.015625, 0.015625, 0.015625, -0.046875, 0.046875, 0.000000, -0.015625, 0.031250, 0.015625, 0.000000, 0.015625, -0.031250, -0.046875, 0.062500, -0.015625, 0.031250, 0.000000, 0.046875, -0.015625, -0.015625, -0.031250, 0.015625, -0.031250, -0.046875, -0.062500, 0.000000, -0.046875, 0.046875, -0.031250, -0.031250, -0.031250, 0.015625, 0.031250, -0.031250, 0.015625, 0.000000, -0.046875, 0.046875, 0.015625, 0.015625, 0.046875, 0.046875, -0.031250, -0.046875, 0.031250, 0.015625, 0.031250, -0.015625, 0.046875, -0.031250, 0.046875, 0.062500, -0.031250, 0.015625, 0.031250, 0.015625, 0.015625, 0.031250, -0.046875, -0.015625, -0.015625, 0.046875, 0.031250, 0.046875, 0.000000, 0.031250, 0.031250, 0.015625, -0.031250, 0.031250, 0.015625, -0.062500, 0.015625, 0.000000, 0.000000, -0.031250, 0.015625, 0.031250, -0.015625, 0.031250, 0.000000, -0.015625, -0.031250, 0.046875, 0.015625, -0.046875, 0.031250, -0.046875, 0.015625, 0.000000, -0.031250, 0.015625, 0.046875, 0.046875, -0.046875, 0.031250, 0.031250, 0.031250, -0.015625, -0.046875, 0.000000, -0.015625, -0.046875, 0.031250, 0.062500, -0.031250, -0.062500, -0.046875, -0.015625, -0.015625, -0.062500, 0.046875, -0.015625, -0.015625, -0.046875, -0.015625, -0.031250, 0.031250, -0.062500, 0.062500, 0.046875, 0.015625, 0.000000, 0.046875, 0.000000, 0.000000, 0.015625, -0.015625, -0.046875, -0.015625, -0.046875, 0.015625, 0.031250, -0.046875, 0.031250, 0.015625, 0.015625, 0.046875, 0.015625, -0.046875, 0.046875, 0.031250, 0.000000, 0.031250, 0.046875, -0.046875, 0.046875, 0.031250, 0.031250, 0.046875, -0.062500, 0.015625, 0.046875, 0.031250, -0.015625, 0.031250, -0.031250, -0.015625, -0.015625, 0.046875, -0.046875, 0.031250, 0.015625, 0.000000, 0.046875, -0.046875, 0.000000, -0.031250, -0.031250, 0.062500, -0.046875, 0.031250, -0.046875, 0.031250, 0.015625, 0.046875, -0.046875, 0.015625, -0.062500, 0.000000, 0.046875, 0.031250, -0.062500, 0.046875, 0.015625, 0.031250, -0.046875, -0.046875, 0.015625, -0.031250, -0.062500, -0.031250, 0.046875, -0.015625, 0.031250, 0.031250, 0.000000, 0.015625, 0.046875, -0.015625, 0.031250, 0.046875, -0.046875, -0.015625, 0.031250, -0.046875, -0.015625, -0.031250, 0.015625, -0.031250, -0.046875, 0.000000, 0.046875, 0.046875, 0.046875, 0.015625, -0.062500, 0.062500, -0.046875, -0.031250, 0.000000, 0.062500, 0.015625, -0.031250, 0.000000, 0.046875, 0.031250, -0.046875, 0.000000, 0.046875, 0.031250, 0.000000, -0.031250, 0.046875, -0.031250, 0.062500, 0.000000, 0.000000, -0.031250, 0.062500, -0.031250, -0.031250, 0.000000, 0.015625, 0.000000, -0.062500, 0.031250, 0.015625, 0.000000, 0.031250, -0.031250, 0.031250, 0.062500, -0.015625, -0.015625, 0.015625, 0.046875, -0.031250, 0.062500, -0.031250, 0.031250, -0.031250, 0.015625, -0.046875, 0.031250, 0.031250, 0.015625, -0.031250, -0.031250, -0.046875, 0.000000, 0.015625, 0.031250, 0.031250, 0.000000, -0.015625, -0.031250, -0.046875, 0.031250, -0.062500, 0.046875, 0.031250, -0.015625, -0.046875, -0.062500, -0.031250, 0.046875, -0.031250, -0.031250, 0.015625, -0.031250, 0.015625, -0.046875, 0.000000, -0.046875, 0.062500, -0.046875, 0.031250, 0.031250, -0.046875, -0.015625, 0.000000, 0.031250, -0.046875, -0.015625, -0.015625, -0.015625, -0.015625, 0.015625, 0.031250, 0.015625, 0.000000, -0.046875, -0.031250, 0.000000, 0.015625, 0.046875, -0.031250, 0.031250, 0.031250, 0.031250, 0.031250, 0.046875, -0.046875, -0.015625, -0.046875, 0.031250, 0.015625, -0.046875, 0.000000, -0.031250, 0.031250, 0.015625, -0.015625, 0.046875, 0.015625, 0.000000, 0.000000, 0.000000, -0.031250, 0.046875, 0.000000, 0.046875, 0.000000, -0.015625, 0.046875, 0.031250, -0.046875, -0.046875, 0.015625, 0.015625, 0.000000, -0.015625, -0.015625, -0.046875, 0.031250, -0.046875, -0.015625, -0.015625, -0.015625, -0.031250, 0.015625, 0.046875, 0.046875, 0.046875, -0.015625, 0.046875, -0.031250, 0.031250, 0.046875, 0.046875, 0.031250, -0.062500, 0.046875, -0.046875, 0.000000, 0.015625, 0.062500, 0.015625, 0.046875, 0.046875, 0.000000, 0.031250, -0.015625, 0.000000, 0.031250, -0.031250, 0.000000, 0.000000, 0.031250, -0.015625, 0.046875, -0.015625, -0.031250, -0.031250, -0.046875, 0.000000, -0.015625, 0.031250, -0.015625, 0.031250, 0.046875, -0.046875, -0.015625, 0.031250, -0.046875, -0.031250, 0.015625, 0.046875, -0.031250, -0.031250, -0.046875, 0.031250, 0.000000, -0.031250, -0.015625, -0.031250, 0.046875, 0.046875, 0.000000, 0.000000, 0.031250, -0.015625, 0.015625, 0.031250, 0.031250, -0.015625, -0.031250, -0.015625, 0.046875, -0.062500, 0.000000, -0.015625, 0.046875, 0.046875, -0.046875, 0.000000, 0.000000, 0.015625, -0.046875, -0.031250, -0.046875, -0.031250, -0.031250, 0.015625, 0.062500, 0.000000, -0.046875, -0.031250, 0.046875, 0.062500, -0.015625, -0.015625, -0.046875, -0.015625, 0.000000, -0.046875, -0.015625, -0.046875, 0.000000, -0.031250, 0.000000, 0.000000, 0.015625, -0.062500, 0.015625, -0.015625, 0.046875, 0.046875, 0.062500, -0.046875, -0.015625, -0.015625, 0.015625, -0.062500, 0.046875, -0.015625, 0.031250, 0.031250, 0.031250, -0.031250, 0.031250, 0.062500, 0.000000, -0.031250, 0.015625, -0.031250, 0.046875, -0.015625, -0.046875, -0.046875, 0.046875, -0.031250, -0.046875, 0.015625, 0.000000, -0.031250, -0.015625, 0.046875, 0.031250, -0.046875, 0.015625, 0.031250, 0.046875, -0.046875, 0.031250, 0.031250, 0.031250, 0.031250, 0.000000, 0.015625, 0.062500, -0.046875, 0.046875, 0.015625, 0.000000, -0.015625, 0.000000, 0.031250, -0.046875, 0.031250, -0.015625, 0.000000, 0.031250, 0.031250, -0.046875, 0.000000, 0.000000, 0.046875, 0.000000, 0.015625, 0.000000, 0.062500, -0.031250, 0.046875, -0.015625, 0.046875, 0.046875, 0.015625, 0.015625, -0.031250, 0.046875, 0.015625, 0.031250, -0.046875, -0.031250, -0.031250, -0.031250, 0.031250, 0.015625, -0.031250, 0.046875, 0.015625, -0.015625, 0.046875, -0.031250, 0.046875, 0.062500, -0.046875, 0.015625, -0.046875, -0.015625, -0.015625, 0.000000, 0.031250, 0.046875, -0.046875, -0.015625, -0.031250, -0.046875, -0.015625, 0.015625, 0.062500, 0.000000, 0.015625, 0.046875, 0.046875, 0.031250, 0.015625, 0.046875, 0.031250, 0.062500, -0.031250, 0.046875, 0.000000, 0.031250, -0.015625, -0.015625, 0.046875, 0.031250, -0.062500, 0.031250, 0.031250, 0.031250, 0.000000, 0.015625, -0.015625, 0.015625, -0.031250, -0.031250, -0.046875, -0.015625, 0.031250, 0.046875, -0.031250, -0.031250, -0.046875, 0.015625, 0.015625, 0.000000, 0.015625, 0.000000, -0.015625, 0.000000, 0.000000, 0.000000, 0.000000, 0.046875, 0.031250, -0.046875, 0.046875, -0.031250, -0.046875, -0.015625, 0.062500, -0.015625, -0.031250, 0.015625, 0.031250, -0.015625, -0.031250, 0.046875, 0.046875, 0.046875, 0.015625, -0.031250, 0.031250, 0.015625, 0.046875, 0.000000, -0.031250, 0.046875, 0.015625, -0.015625, -0.031250, -0.031250, 0.015625, 0.015625, -0.015625, 0.031250, -0.031250, -0.046875, 0.046875, 0.046875, 0.015625, -0.046875, 0.046875, 0.031250, 0.046875, 0.062500, -0.046875, 0.031250, 0.046875, 0.046875, 0.000000, 0.000000, 0.015625, -0.031250, -0.015625, 0.031250, -0.031250, -0.062500, -0.031250, -0.046875, 0.015625, 0.046875, -0.062500, 0.031250, 0.031250, -0.015625, 0.046875, 0.031250, 0.000000, 0.046875, 0.000000, -0.046875, 0.015625, -0.046875, 0.031250, 0.000000, -0.031250, -0.031250, -0.046875, 0.046875, -0.062500, 0.000000, 0.046875, -0.031250, -0.046875, 0.031250, 0.046875, 0.000000, 0.031250, 0.046875, -0.046875, -0.046875, -0.046875, 0.000000, -0.046875, -0.031250, -0.046875, -0.046875, 0.031250, -0.046875, -0.046875, 0.062500, 0.015625, 0.015625, -0.046875, 0.046875, -0.015625, -0.031250, -0.015625, 0.031250, 0.015625, -0.015625, 0.015625, 0.062500, 0.031250, 0.000000, 0.000000, 0.031250, -0.031250, -0.015625, -0.031250, 0.000000, -0.031250, 0.000000, 0.000000, 0.000000, 0.046875, 0.031250, -0.046875, -0.015625, 0.015625, 0.000000, -0.031250, 0.046875, -0.031250, -0.015625, -0.015625, 0.000000, 0.031250, -0.015625, 0.062500, 0.015625, -0.031250, -0.015625, -0.046875, -0.046875, -0.031250, 0.062500, 0.000000, -0.046875, -0.015625, -0.031250, 0.046875, 0.046875, -0.062500, 0.015625, -0.015625, 0.046875, 0.015625, 0.000000, 0.046875, 0.046875, 0.046875, -0.031250, 0.000000, -0.031250, 0.015625, -0.046875, 0.031250, 0.031250, 0.015625, 0.015625, -0.046875, 0.046875, -0.031250, 0.000000, -0.031250, -0.031250, 0.062500, 0.046875, -0.046875, 0.000000, -0.031250, -0.031250, 0.015625, 0.046875, 0.031250, -0.015625, 0.062500, 0.031250, 0.015625, -0.015625, 0.000000, -0.062500, -0.046875, -0.046875, 0.046875, -0.015625, -0.062500, -0.062500, -0.046875, 0.015625, -0.015625, 0.015625, -0.031250, 0.000000, 0.000000, -0.015625, 0.062500, 0.046875, 0.031250, 0.000000, -0.031250, -0.031250, 0.015625, 0.000000, -0.015625, -0.015625, 0.031250, -0.046875, -0.046875, 0.031250, -0.031250, 0.046875, 0.031250, 0.031250, -0.031250, -0.046875, 0.015625, 0.046875, 0.031250, -0.031250, -0.015625, 0.015625, 0.031250, 0.031250, -0.015625, 0.015625, 0.015625, 0.046875, 0.031250, 0.046875, 0.046875, -0.015625, 0.015625, 0.015625, -0.062500, 0.031250, 0.046875, 0.046875, -0.015625, -0.031250, -0.046875, 0.031250, 0.000000, -0.031250, 0.046875, 0.046875, -0.046875, 0.031250, -0.046875, -0.046875, 0.031250, 0.015625, -0.015625, -0.015625, 0.000000, 0.015625, 0.031250, 0.031250, 0.015625, -0.046875, 0.015625, 0.000000, -0.046875, 0.000000, -0.015625, 0.046875, -0.046875, 0.031250, 0.062500, 0.046875, 0.031250, -0.015625, 0.031250, -0.015625, -0.031250, -0.015625, -0.015625, -0.046875, 0.000000, -0.015625, -0.031250, 0.046875, 0.046875, -0.031250, -0.046875, -0.015625, -0.015625, 0.046875, 0.062500, 0.015625, 0.000000, 0.031250, -0.031250, 0.046875, 0.000000, -0.031250, 0.015625, 0.000000, -0.031250, 0.031250, 0.046875, 0.000000, 0.015625, 0.062500, 0.062500, 0.031250, 0.062500, -0.015625, -0.015625, 0.000000, -0.015625, -0.062500, 0.000000, 0.031250, 0.031250, 0.015625, -0.015625, -0.031250, 0.000000, 0.015625, 0.046875, 0.000000, 0.046875, -0.046875, -0.015625, -0.046875, 0.062500, 0.000000, -0.031250, 0.046875, 0.031250, -0.031250, 0.031250, 0.046875, -0.046875, 0.000000, -0.062500, 0.000000, 0.015625, 0.015625, -0.015625, -0.031250, -0.046875, 0.015625, -0.031250, 0.031250, -0.031250, 0.015625, -0.031250, 0.015625, 0.015625, -0.046875, 0.031250, -0.046875, -0.015625, 0.046875, -0.015625, -0.046875, 0.000000, 0.046875, 0.000000, 0.046875, 0.031250, -0.015625, 0.015625, 0.031250, -0.015625, 0.046875, -0.046875, -0.046875, 0.031250, 0.031250, 0.031250, -0.062500, 0.000000, 0.015625, 0.015625, 0.046875, -0.015625, 0.015625, -0.046875, 0.046875, -0.046875, -0.046875, -0.015625, 0.015625, -0.031250, -0.046875, -0.031250, -0.015625, 0.046875, -0.046875, -0.046875, -0.015625, 0.046875, -0.015625, -0.046875, -0.031250, -0.062500, 0.000000, -0.015625, -0.046875, 0.015625, 0.031250, 0.015625, 0.000000, 0.062500, 0.015625, 0.000000, 0.000000, -0.015625, 0.046875, 0.062500, 0.015625, -0.015625, 0.046875, -0.031250, -0.046875, -0.015625, 0.046875, 0.015625, 0.046875, 0.015625, 0.062500, 0.000000, 0.031250, 0.031250, -0.031250, -0.031250, 0.015625, -0.046875, 0.000000, -0.046875, 0.046875, 0.031250, 0.046875, 0.031250, -0.046875, 0.046875, -0.046875, -0.046875, -0.046875, 0.015625, -0.015625, 0.046875, -0.015625, 0.046875, -0.046875, -0.015625, -0.031250, -0.062500, -0.046875, 0.046875, 0.000000, 0.000000, 0.046875, 0.000000, 0.046875, 0.000000, 0.015625, -0.015625, 0.046875, 0.031250, -0.046875, 0.062500, 0.000000, -0.015625, -0.015625, 0.031250, 0.062500, 0.015625, -0.046875, -0.031250, -0.015625, 0.031250, -0.046875, 0.031250, 0.015625, 0.000000, -0.031250, 0.000000, -0.031250, -0.015625, 0.046875, -0.031250, 0.031250, -0.015625, 0.000000, 0.000000, 0.046875, -0.015625, 0.046875, 0.000000, -0.062500, -0.015625, 0.046875, 0.031250, -0.031250, 0.046875, -0.046875, -0.015625, 0.015625, 0.062500, -0.046875, -0.015625, -0.046875, 0.015625, -0.031250, 0.015625, 0.046875, 0.031250, 0.046875, -0.046875, 0.015625, -0.046875, 0.015625, -0.046875, -0.015625, 0.046875, 0.000000, 0.046875, 0.062500, 0.046875, 0.015625, -0.046875, -0.046875, -0.046875, -0.062500, -0.046875, 0.000000, 0.031250, -0.031250, -0.015625, 0.015625, -0.015625, 0.000000, 0.031250, 0.046875, -0.046875, 0.015625, 0.000000, -0.015625, -0.046875, -0.031250, 0.031250, -0.015625, 0.031250, -0.046875, 0.000000, 0.015625, 0.046875, -0.015625, -0.015625, -0.015625, 0.000000, 0.000000, 0.046875, 0.031250, 0.031250, 0.046875, -0.062500, -0.046875, 0.046875, 0.062500, -0.046875, 0.015625, -0.046875, 0.031250, -0.046875, -0.046875, 0.000000, 0.031250, 0.015625, 0.000000, -0.031250, -0.046875, -0.015625, 0.046875, -0.031250, 0.031250, -0.031250, -0.015625, -0.046875, 0.015625, 0.015625, -0.062500, -0.046875, 0.062500, -0.031250, 0.015625, -0.015625, -0.031250, 0.046875, 0.000000, -0.046875, 0.000000, 0.015625, 0.015625, 0.000000, 0.015625, 0.015625, 0.031250, 0.000000, 0.015625, 0.031250, -0.015625, -0.046875, 0.031250, 0.046875, 0.000000, 0.015625, -0.031250, 0.046875, 0.031250, -0.046875, 0.031250, -0.046875, 0.046875, -0.015625, 0.031250, 0.031250, -0.031250, -0.046875, 0.000000, 0.031250, -0.031250, -0.046875, 0.046875, -0.031250, -0.031250, -0.031250, -0.031250, 0.015625, -0.031250, 0.046875, 0.015625, 0.000000, 0.000000, 0.015625, 0.000000, 0.031250, 0.000000, -0.046875, 0.031250, -0.062500, -0.015625, 0.000000, 0.046875, -0.015625, -0.031250, -0.031250, 0.031250, 0.046875, 0.015625, 0.046875, -0.031250, 0.046875, -0.031250, 0.031250, -0.015625, 0.031250, 0.000000, -0.046875, 0.046875, 0.015625, -0.015625, -0.015625, 0.000000, 0.000000, 0.031250, -0.031250, 0.046875, -0.031250, 0.031250, -0.031250, 0.015625, 0.031250, -0.031250, 0.062500, 0.000000, -0.015625, 0.015625, 0.046875, -0.031250, -0.031250, -0.031250, -0.015625, 0.000000, 0.031250, -0.031250, 0.046875, -0.062500, 0.000000, 0.031250, -0.062500, 0.062500, 0.046875, -0.015625, 0.046875, 0.015625, -0.015625, 0.000000, 0.015625, -0.031250, 0.046875, 0.062500, 0.046875, 0.000000, -0.031250, -0.062500, -0.046875, -0.031250, -0.031250, -0.062500, 0.000000, 0.015625, 0.046875, -0.015625, 0.000000, 0.031250, 0.046875, 0.000000, -0.031250, 0.046875, 0.000000, -0.046875, 0.046875, -0.015625, 0.062500, 0.000000, 0.031250, 0.000000, -0.031250, -0.046875, 0.046875, -0.015625, -0.062500, 0.031250, -0.046875, 0.046875, 0.046875, -0.031250, 0.015625, 0.031250, -0.015625, 0.046875, -0.046875, -0.046875, 0.000000, 0.031250, 0.015625, -0.046875, 0.046875, 0.046875, 0.000000, -0.031250, 0.015625, -0.046875, 0.015625, -0.015625, -0.015625, -0.046875, 0.000000, -0.046875, -0.046875, 0.000000, 0.031250, 0.000000, 0.062500, 0.015625, 0.015625, 0.031250, 0.046875, -0.046875, 0.046875, 0.031250, -0.046875, 0.031250, -0.046875, -0.015625, 0.015625, 0.000000, 0.000000, -0.031250, 0.031250, 0.015625, 0.031250, 0.031250, 0.015625, -0.031250, 0.046875, 0.015625, -0.031250, -0.046875, -0.015625, -0.031250, 0.031250, 0.062500, 0.062500, 0.062500, 0.031250, -0.015625, 0.046875, 0.031250, -0.046875, -0.015625, -0.046875, 0.031250, 0.046875, -0.031250, 0.031250, 0.046875, 0.046875, -0.046875, 0.015625, 0.046875, 0.031250, -0.015625, 0.000000, 0.015625, 0.031250, 0.015625, 0.000000, 0.062500, 0.031250, 0.031250, -0.015625, 0.031250, -0.031250, -0.031250, -0.015625, 0.000000, 0.015625, -0.015625, 0.000000, 0.000000, 0.031250, -0.046875, -0.046875, -0.031250, 0.046875, -0.015625, 0.031250, 0.000000, 0.000000, 0.015625, 0.046875, -0.062500, 0.000000, 0.046875, 0.015625, 0.046875, -0.062500, 0.015625, -0.015625, 0.031250, -0.031250, 0.031250, -0.015625, 0.031250, 0.015625, 0.046875, 0.031250, -0.046875, -0.046875, 0.000000, -0.031250, 0.046875, 0.000000, -0.015625, 0.046875, -0.015625, -0.046875, -0.046875, 0.031250, 0.015625, -0.015625, 0.046875, 0.046875, 0.046875, 0.015625, 0.015625, 0.000000, -0.031250, 0.031250, 0.031250, 0.000000, -0.031250, 0.000000, 0.000000, 0.031250, 0.046875, -0.015625, -0.046875, 0.031250, 0.000000, -0.015625, 0.000000, -0.046875, -0.046875, 0.046875, -0.062500, 0.031250, 0.015625, -0.031250, 0.031250, 0.062500, 0.031250, 0.062500, -0.015625, 0.046875, 0.000000, 0.046875, 0.000000, -0.031250, -0.046875, -0.031250, -0.046875, 0.000000, 0.031250, -0.031250, 0.015625, -0.015625, 0.015625, -0.031250, -0.031250, 0.031250, -0.062500, -0.015625, 0.031250, -0.031250, 0.062500, 0.015625, -0.015625, 0.015625, 0.046875, -0.046875, 0.046875, -0.046875, -0.031250, 0.031250, 0.000000, 0.015625, 0.046875, 0.015625, -0.046875, -0.015625, 0.015625, -0.015625, 0.031250, 0.015625, 0.031250, -0.031250, 0.015625, 0.015625, 0.000000, 0.000000, 0.031250, -0.062500, -0.015625, -0.046875, -0.046875, -0.015625, -0.015625, 0.000000, -0.031250, 0.046875, -0.031250, 0.046875, 0.015625, -0.015625, 0.046875, 0.015625, 0.000000, 0.015625, -0.015625, -0.015625, 0.000000, -0.046875, 0.015625, -0.046875, 0.062500, -0.046875, 0.000000, 0.015625, 0.015625, 0.046875, -0.015625, -0.031250, -0.015625, -0.015625, -0.046875, 0.000000, -0.015625, 0.062500, -0.015625, -0.015625, -0.046875, -0.046875, -0.031250, 0.000000, 0.000000, 0.015625, -0.031250, 0.031250, 0.031250, 0.000000, 0.031250, 0.062500, 0.000000, -0.031250, 0.031250, 0.031250, -0.015625, 0.046875, 0.000000, 0.000000, -0.046875, 0.000000, 0.031250, -0.031250, 0.000000, 0.000000, 0.046875, 0.015625, 0.000000, 0.015625, 0.000000, -0.031250, 0.015625, 0.046875, -0.062500, -0.046875, 0.015625, 0.046875, 0.015625, -0.031250, 0.031250, -0.031250, -0.015625, -0.031250, 0.031250, 0.031250, -0.046875, -0.031250, 0.000000, 0.046875, -0.046875, 0.031250, -0.015625, -0.031250, 0.046875, -0.062500, 0.000000, 0.015625, 0.000000, 0.046875, -0.015625, 0.000000, -0.031250, 0.031250, 0.015625, 0.046875, 0.000000, -0.015625, -0.015625, 0.046875, 0.000000, -0.046875, 0.015625, 0.046875, 0.015625, -0.031250, -0.046875, 0.046875, -0.015625, -0.015625, -0.015625, -0.062500, -0.031250, -0.046875, -0.046875, 0.046875, 0.015625, -0.031250, -0.031250, 0.062500, 0.062500, 0.000000, 0.046875, -0.031250, 0.031250, 0.046875, 0.000000, -0.015625, 0.031250, 0.031250, -0.031250, -0.015625, -0.046875, -0.031250, -0.046875, 0.015625, 0.046875, 0.000000, 0.046875, -0.015625, -0.046875, 0.062500, -0.046875, 0.015625, 0.031250, 0.015625, 0.031250, 0.031250, -0.015625, 0.046875, -0.062500, 0.000000, -0.015625, 0.015625, -0.046875, 0.000000, -0.046875, 0.000000, 0.031250, 0.000000, 0.046875, -0.046875, -0.031250, 0.015625, 0.000000, -0.062500, 0.000000, 0.046875, -0.031250, 0.062500, -0.031250, 0.031250, -0.031250, 0.046875, 0.015625, -0.046875, 0.031250, -0.031250, 0.015625, -0.031250, 0.031250, -0.015625, 0.015625, 0.031250, 0.046875, 0.015625, 0.000000, 0.000000, 0.015625, -0.031250, 0.031250, 0.046875, 0.046875, -0.046875, -0.031250, 0.046875, -0.031250, -0.046875, -0.031250, 0.031250, 0.000000, 0.046875, -0.015625, 0.015625, 0.000000, -0.031250, -0.015625, 0.000000, -0.031250, 0.046875, 0.015625, 0.000000, -0.046875, -0.062500, -0.046875, 0.062500, 0.046875, 0.000000, 0.000000, -0.015625, -0.031250, -0.046875, 0.015625, 0.046875, 0.046875, 0.015625, -0.046875, 0.031250, 0.000000, -0.031250, -0.031250, 0.015625, 0.000000, -0.015625, -0.015625, 0.031250, 0.000000, -0.031250, 0.015625, 0.000000, 0.031250, -0.046875, -0.031250, -0.015625, 0.015625, -0.031250, -0.031250, 0.015625, 0.000000, 0.031250, 0.031250, 0.046875, -0.062500, -0.046875, -0.031250, 0.015625, 0.015625, 0.015625, -0.046875, -0.062500, 0.015625, 0.046875, 0.000000, 0.015625, 0.015625, -0.046875, -0.046875, -0.046875, 0.031250, -0.015625, 0.000000, -0.046875, -0.062500, 0.046875, 0.031250, -0.062500, 0.031250, -0.046875, -0.046875, 0.015625, -0.046875, -0.062500, 0.000000, -0.031250, -0.015625, 0.000000, 0.031250, -0.015625, -0.031250, 0.015625, 0.000000, 0.031250, -0.031250, 0.031250, -0.046875, 0.000000, -0.031250, -0.046875, -0.046875, -0.015625, 0.062500, 0.015625, 0.000000, 0.015625, 0.000000, -0.031250, -0.031250, 0.031250, 0.046875, 0.000000, -0.031250, 0.046875, 0.015625, 0.031250, -0.046875, 0.062500, 0.031250, -0.031250, 0.015625, 0.046875, -0.062500, -0.046875, -0.015625, 0.015625, 0.046875, -0.015625, -0.031250, -0.031250, 0.046875, 0.000000, 0.000000, 0.031250, 0.015625, 0.031250, 0.046875, 0.046875, -0.031250, -0.046875, -0.015625, -0.062500, -0.031250, 0.031250, 0.015625, -0.046875, -0.046875, 0.000000, -0.031250, -0.046875, -0.015625, -0.046875, -0.031250, -0.015625, -0.015625, 0.031250, 0.046875, -0.046875, 0.031250, 0.000000, 0.000000, -0.015625, 0.000000, 0.015625, 0.062500, -0.031250, -0.031250, -0.015625, -0.031250, 0.031250, -0.046875, 0.031250, -0.031250, -0.015625, 0.046875, 0.046875, 0.015625, 0.000000, -0.046875, 0.046875, 0.015625, 0.031250, -0.046875, 0.015625, 0.046875, 0.000000, 0.031250, 0.000000, 0.062500, 0.031250, -0.046875, 0.015625, -0.015625, -0.031250, -0.015625, 0.000000, 0.000000, -0.031250, 0.015625, -0.062500, -0.031250, 0.046875, -0.062500, -0.015625, -0.015625, -0.062500, -0.046875, 0.031250, 0.000000, -0.031250, -0.015625, 0.046875, -0.062500, 0.046875, 0.062500, 0.062500, 0.031250, 0.000000, 0.046875, -0.015625, 0.031250, -0.015625, -0.062500, 0.031250, 0.000000, 0.062500, 0.015625, 0.031250, 0.046875, 0.000000, 0.000000, -0.046875, -0.015625, 0.000000, -0.031250, 0.046875, -0.046875, -0.015625, -0.015625, 0.000000, -0.015625, -0.046875, -0.046875, 0.046875, 0.000000, -0.015625, 0.015625, -0.046875, -0.046875, 0.031250, 0.031250, 0.062500, 0.000000, 0.031250, 0.000000, -0.015625, -0.046875, 0.000000, -0.015625, -0.015625, 0.000000, 0.015625, 0.015625, -0.015625, 0.031250, -0.015625, 0.015625, 0.015625, 0.031250, 0.031250, 0.015625, -0.015625, 0.031250, 0.000000, -0.031250, 0.000000, 0.031250, -0.015625, -0.015625, -0.046875, 0.031250, 0.031250, -0.015625, -0.046875, 0.046875, 0.000000, -0.046875, -0.015625, -0.015625, -0.062500, -0.062500, 0.000000, 0.031250, 0.000000, 0.000000, 0.062500, -0.046875, 0.046875, -0.031250, 0.031250, 0.015625, 0.015625, -0.015625, 0.000000, 0.000000, 0.031250, -0.046875, -0.015625, 0.015625, 0.046875, 0.046875, 0.046875, -0.031250, 0.000000, 0.031250, -0.015625, -0.031250, -0.015625, -0.031250, 0.046875, 0.046875, -0.062500, 0.031250, -0.015625, 0.031250, 0.062500, 0.000000, 0.031250, -0.046875, 0.000000, 0.031250, 0.015625, -0.062500, -0.015625, 0.046875, 0.000000, -0.015625, -0.031250, 0.062500, 0.031250, -0.031250, 0.015625, 0.015625, -0.062500, -0.046875, 0.000000, -0.062500, -0.046875, 0.046875, 0.031250, -0.015625, -0.062500, -0.062500, 0.031250, 0.062500, 0.015625, -0.046875, -0.046875, -0.031250, -0.015625, 0.046875, -0.062500, -0.046875, 0.015625, 0.015625, 0.015625, 0.031250, 0.031250, -0.046875, 0.031250, 0.015625, 0.031250, -0.031250, -0.015625, -0.015625, -0.046875, -0.015625, 0.015625, 0.000000, 0.015625, 0.015625, -0.015625, 0.046875, 0.046875, 0.000000, 0.000000, 0.031250, -0.031250, 0.031250, 0.046875, -0.015625, 0.000000, -0.031250, -0.015625, 0.031250, -0.015625, 0.046875, 0.031250, -0.031250, 0.062500, -0.046875, -0.046875, 0.015625, 0.000000, 0.046875, -0.031250, -0.046875, -0.015625, 0.046875, 0.000000, -0.046875, 0.031250, -0.046875, -0.015625, -0.062500, 0.046875, 0.000000, 0.015625, 0.046875, -0.015625, -0.015625, -0.031250, -0.031250, 0.015625, -0.031250, 0.015625, -0.031250, 0.000000, 0.046875, -0.031250, 0.000000, 0.031250, -0.031250, -0.031250, 0.046875, -0.046875, 0.046875, 0.031250, -0.031250, 0.000000, -0.015625, 0.046875, 0.062500, 0.015625, 0.015625, 0.015625, -0.015625, -0.031250, 0.015625, -0.046875, 0.000000, -0.046875, 0.031250, 0.000000, 0.015625, -0.062500, 0.046875, 0.015625, 0.000000, 0.000000, 0.015625, -0.015625, 0.000000, 0.046875, -0.015625, -0.031250, -0.031250, 0.000000, 0.031250, 0.031250, 0.015625, 0.046875, 0.015625, 0.031250, -0.031250, -0.031250, 0.000000, -0.046875, 0.015625, -0.015625, 0.000000, -0.031250, 0.000000, 0.015625, 0.046875, 0.031250, 0.015625, 0.062500, -0.062500, -0.015625, 0.000000, -0.031250, -0.046875, -0.031250, -0.046875, -0.031250, 0.000000, 0.000000, 0.000000, 0.000000, 0.000000, -0.015625, -0.015625, -0.046875, 0.000000, 0.000000, 0.015625, -0.031250, 0.000000, 0.015625, 0.015625, -0.046875, -0.046875, -0.031250, -0.062500, -0.015625, 0.062500, -0.046875, 0.031250, -0.015625, -0.015625, -0.062500, 0.046875, 0.015625, 0.000000, -0.031250, -0.031250, 0.046875, -0.015625, -0.031250, -0.046875, -0.046875, 0.015625, -0.046875, 0.000000, -0.046875, 0.000000, -0.031250, 0.031250, 0.046875, -0.046875, 0.000000, -0.046875, 0.046875, 0.046875, 0.062500, -0.015625, 0.015625, 0.015625, 0.046875, -0.031250, 0.062500, 0.000000, 0.031250, -0.062500, 0.000000, -0.015625, 0.031250, 0.000000, 0.015625, -0.031250, 0.000000, -0.031250, -0.015625, 0.000000, 0.000000, 0.031250, -0.015625, 0.015625, 0.031250, 0.015625, 0.031250, -0.015625, -0.062500, 0.046875, -0.031250, 0.046875, 0.000000, -0.046875, 0.000000, -0.015625, 0.062500, -0.015625, -0.015625, -0.046875, 0.000000, 0.046875, 0.015625, -0.031250, 0.046875, 0.031250, 0.000000, -0.031250, -0.031250, 0.015625, 0.046875, 0.031250, 0.031250, 0.031250, -0.046875, 0.000000, 0.046875, 0.046875, 0.000000, -0.031250, 0.062500, 0.015625, -0.031250, 0.015625, -0.031250, -0.046875, -0.031250, 0.000000, 0.015625, 0.000000, 0.000000, -0.062500, -0.031250, -0.031250, 0.046875, -0.046875, 0.015625, 0.046875, -0.015625, 0.015625, 0.015625, -0.031250, -0.046875, 0.031250, 0.000000, -0.046875, 0.046875, -0.015625, -0.062500, 0.000000, -0.031250, 0.031250, -0.015625, -0.062500, -0.046875, -0.031250, 0.046875, 0.062500, 0.046875, 0.046875, -0.031250, 0.046875, -0.046875, 0.046875, -0.046875, -0.031250, 0.015625, -0.062500, 0.015625, -0.031250, -0.015625, 0.015625, -0.046875, -0.062500, -0.046875, -0.046875, -0.046875, 0.031250, 0.031250, 0.000000, 0.031250, -0.031250, 0.000000, 0.015625, 0.046875, -0.015625, 0.031250, 0.031250, 0.015625, -0.015625, -0.046875, 0.046875, 0.000000, 0.031250, 0.046875, 0.015625, 0.046875, 0.046875, 0.031250, -0.015625, 0.046875, -0.046875, -0.046875, 0.031250, 0.046875, 0.046875, 0.046875, 0.015625, -0.031250, 0.031250, 0.031250, 0.000000, 0.046875, -0.015625, -0.031250, 0.015625, -0.031250, 0.046875, -0.062500, -0.031250, -0.031250, 0.031250, -0.031250, 0.000000, 0.000000, -0.015625, -0.015625, -0.015625, 0.031250, 0.046875, -0.015625, -0.046875, 0.015625, 0.015625, -0.015625, 0.031250, 0.046875, 0.000000, 0.000000, -0.031250, -0.015625, -0.046875, -0.031250, 0.015625, 0.031250, -0.031250, 0.062500, -0.046875, 0.015625, -0.015625, -0.015625, -0.015625, 0.062500, 0.000000, 0.000000, -0.015625, 0.015625, 0.046875, 0.000000, -0.015625, 0.015625, -0.031250, -0.046875, -0.015625, -0.046875, 0.046875, -0.031250, -0.015625, 0.000000, -0.031250, -0.046875, 0.031250, 0.000000, 0.000000, 0.031250, 0.015625, -0.046875, 0.000000, -0.015625, 0.046875, 0.015625, -0.015625, -0.046875, 0.031250, 0.046875, -0.015625, 0.031250, -0.046875, 0.015625, 0.031250, 0.046875, -0.046875, 0.000000, -0.046875, 0.000000, -0.015625, -0.046875, -0.015625, -0.031250, 0.000000, -0.046875, -0.031250, -0.046875, 0.015625, -0.046875, 0.000000, -0.031250, 0.000000, 0.031250, -0.031250, -0.046875, -0.015625, -0.031250, -0.031250, 0.031250, -0.062500, 0.031250, 0.015625, -0.046875, 0.046875, 0.046875, 0.031250, 0.062500, 0.015625, 0.031250, 0.031250, -0.015625, 0.031250, 0.046875, 0.000000, 0.031250, -0.062500, 0.015625, -0.031250, 0.000000, 0.000000, -0.015625, -0.031250, 0.000000, 0.015625, -0.031250, -0.031250, 0.000000, 0.062500, 0.046875, -0.046875, -0.015625, 0.015625, 0.000000, 0.015625, 0.031250, -0.015625, 0.000000, 0.046875, -0.046875, -0.046875, 0.015625, -0.046875, -0.031250, -0.031250, 0.031250, 0.031250, 0.000000, -0.031250, -0.062500, 0.046875, -0.046875, 0.046875, -0.046875, -0.015625, 0.015625, -0.046875, 0.031250, -0.015625, 0.000000, -0.046875, 0.000000, -0.015625, 0.015625, 0.000000, 0.062500, 0.046875, -0.046875, 0.000000, -0.031250, -0.046875, 0.015625, 0.000000, 0.062500, -0.062500, -0.046875, -0.015625, -0.062500, -0.015625, 0.046875, 0.000000, 0.015625, 0.000000, 0.062500, 0.046875, 0.031250, 0.015625, 0.046875, -0.062500, 0.046875, 0.015625, -0.046875, -0.046875, -0.031250, 0.031250, 0.046875, 0.000000, -0.046875, 0.046875, 0.000000, 0.031250, 0.015625, 0.062500, -0.015625, 0.015625, 0.031250, -0.046875, 0.000000, 0.000000, 0.046875, 0.031250, -0.031250, 0.015625, 0.031250, 0.031250, 0.046875, -0.015625, -0.015625, 0.046875, -0.015625, 0.046875, 0.000000, 0.015625, 0.015625, -0.031250, 0.000000, 0.000000, 0.046875, -0.015625, 0.000000, -0.015625, -0.046875, 0.046875, -0.046875, -0.046875, 0.015625, -0.031250, -0.015625, -0.015625, 0.046875, 0.015625, -0.062500, -0.046875, 0.000000, 0.000000, -0.031250, 0.000000, 0.000000, -0.062500, 0.000000, 0.000000, -0.031250, 0.015625, 0.000000, -0.031250, 0.015625, -0.015625, 0.031250, 0.062500, -0.031250, 0.000000, 0.000000, 0.031250, 0.000000, 0.015625, -0.046875, 0.015625, -0.046875, 0.015625, -0.031250, 0.015625, -0.046875, 0.046875, -0.015625, -0.015625, -0.031250, -0.015625, 0.031250, 0.000000, 0.015625, 0.031250, -0.031250, -0.046875, -0.015625, 0.062500, -0.015625, 0.046875, -0.031250, -0.015625, 0.000000, 0.015625, -0.015625, 0.015625, -0.046875, 0.000000, -0.031250, -0.031250, 0.062500, -0.046875, 0.000000, 0.031250, -0.015625, 0.000000, 0.000000, -0.015625, -0.046875, -0.046875, 0.062500, -0.031250, 0.000000, -0.062500, 0.015625, 0.031250, -0.046875, 0.031250, 0.031250, 0.046875, -0.046875, 0.000000, -0.031250, 0.046875, -0.031250, 0.046875, 0.031250, 0.015625, -0.031250, 0.031250, 0.015625, 0.046875, 0.046875, -0.046875, -0.046875, -0.015625, 0.062500, 0.031250, -0.031250, 0.015625, 0.046875, 0.000000, -0.031250, 0.015625, 0.046875, -0.031250, 0.046875, 0.031250, 0.015625, 0.031250, 0.015625, 0.000000, 0.046875, -0.062500, -0.031250, -0.031250, 0.031250, 0.031250, 0.046875, 0.046875, 0.000000, -0.046875, 0.000000, 0.046875, 0.046875, 0.031250, 0.031250, -0.015625, -0.046875, -0.031250, -0.046875, -0.015625, 0.046875, -0.046875, -0.062500, 0.031250, 0.031250, -0.046875, -0.031250, -0.031250, 0.031250, -0.015625, -0.062500, 0.031250, -0.015625, 0.062500, 0.000000, -0.015625, -0.015625, 0.000000, -0.046875, -0.046875, -0.046875, 0.015625, 0.015625, 0.031250, 0.046875, -0.046875, -0.015625, -0.046875, -0.015625, -0.031250, 0.000000, 0.046875, 0.000000, 0.046875, 0.046875, -0.015625, 0.046875, 0.015625, 0.000000, -0.031250, 0.031250, 0.000000, 0.062500, 0.062500, 0.046875, 0.031250, 0.031250, -0.015625, 0.000000, -0.015625, 0.000000, -0.015625, -0.031250, 0.015625, 0.046875, -0.046875, -0.031250, -0.046875, 0.062500, 0.015625, -0.031250, 0.000000, 0.015625, 0.031250, -0.062500, 0.031250, 0.015625, 0.000000, -0.046875, 0.031250, -0.015625, 0.015625, -0.015625, -0.015625, 0.015625, -0.062500, -0.031250, 0.015625, 0.000000, -0.031250, -0.046875, -0.015625, -0.031250, 0.031250, -0.031250, 0.015625, 0.031250, 0.000000, -0.046875, 0.015625, -0.015625, 0.000000, 0.062500, 0.015625, -0.062500, 0.000000, 0.000000, 0.046875, 0.000000, 0.031250, -0.046875, -0.046875, 0.015625, 0.062500, 0.031250, -0.015625, 0.000000, 0.000000, 0.000000, -0.046875, -0.046875, -0.015625, 0.031250, 0.000000, -0.031250, 0.015625, -0.031250, -0.046875, 0.031250, 0.031250, -0.046875, 0.015625, -0.046875, -0.015625, -0.046875, -0.031250, 0.031250, -0.031250, 0.000000, -0.046875, -0.015625, -0.031250, -0.046875, -0.031250, 0.015625, 0.031250, -0.015625, -0.015625, 0.031250, 0.000000, -0.046875, -0.015625, 0.015625, 0.031250, -0.046875, -0.031250, 0.046875, 0.000000, 0.031250, 0.000000, 0.046875, 0.031250, 0.000000, -0.046875, 0.000000, -0.031250, -0.046875, 0.015625, 0.046875, -0.015625, -0.046875, -0.062500, 0.031250, -0.046875, -0.046875, -0.031250, 0.015625, -0.031250, 0.015625, -0.015625, -0.031250, 0.000000, -0.015625, 0.046875, 0.031250, 0.031250, -0.015625, 0.046875, 0.000000, 0.031250, 0.000000, -0.015625, -0.046875, -0.031250, 0.031250, 0.031250, 0.031250, -0.031250, 0.000000, 0.062500, -0.031250, 0.000000, 0.015625, 0.031250, -0.062500, 0.046875, 0.031250, -0.015625, 0.031250, -0.015625, -0.015625, 0.015625, 0.031250, 0.031250, 0.031250, 0.015625, 0.046875, 0.031250, 0.015625, 0.062500, 0.046875, 0.031250, 0.000000, -0.062500, -0.031250, 0.000000, 0.000000, 0.031250, -0.015625, 0.046875, 0.015625, -0.015625, 0.000000, 0.015625, -0.046875, 0.046875, 0.046875, -0.046875, -0.046875, -0.046875, 0.015625, 0.015625, 0.031250, -0.031250, -0.015625, 0.000000, -0.015625, 0.046875, 0.046875, 0.000000, -0.031250, 0.046875, 0.000000, -0.046875, 0.046875, -0.031250, -0.031250, 0.031250, 0.031250, -0.015625, -0.015625, -0.046875, 0.062500, 0.015625, -0.015625, -0.046875, 0.000000, -0.031250, 0.031250, 0.015625, 0.046875, -0.015625, -0.031250, 0.000000, 0.000000, -0.031250, 0.031250, -0.031250, 0.031250, 0.000000, 0.031250, 0.031250, 0.046875, 0.031250, -0.015625, 0.015625, 0.046875, -0.046875, -0.031250, -0.031250, 0.062500, 0.046875, -0.046875, -0.015625, -0.031250, 0.000000, -0.046875, 0.000000, 0.031250, 0.015625, 0.046875, -0.031250, -0.015625, -0.062500, 0.046875, -0.046875, 0.046875, 0.000000, 0.031250, 0.031250, 0.031250, -0.015625, 0.031250, 0.031250, -0.031250, -0.031250, 0.000000, -0.031250, 0.046875, 0.000000, 0.000000, -0.046875, 0.000000, 0.000000, 0.015625, 0.046875, 0.015625, 0.031250, 0.000000, -0.015625, 0.031250, -0.062500, 0.015625, -0.015625, 0.000000, 0.000000, 0.031250, -0.046875, 0.031250, -0.031250, -0.031250, 0.031250, 0.000000, -0.046875, 0.015625, -0.062500, -0.015625, 0.000000, 0.000000, 0.046875, 0.000000, 0.015625, 0.046875, -0.015625, -0.015625, -0.031250, -0.031250, 0.046875, 0.046875, -0.015625, 0.062500, -0.015625, 0.046875, 0.046875, 0.031250, 0.000000, 0.031250, 0.015625, -0.046875, -0.046875, -0.046875, -0.015625, 0.000000, 0.046875, -0.046875, 0.046875, -0.015625, 0.046875, -0.062500, 0.015625, -0.015625, 0.062500, 0.000000, -0.062500, 0.031250, -0.015625, 0.046875, 0.031250, 0.015625, -0.046875, 0.046875, 0.000000, 0.046875, 0.015625, -0.031250, -0.046875, 0.046875, 0.015625, 0.000000, 0.000000, -0.015625, -0.015625, -0.015625, -0.031250, -0.046875, 0.031250, 0.046875, -0.031250, -0.015625, 0.000000, -0.046875, -0.031250, 0.015625, -0.046875, -0.031250, -0.031250, -0.015625, 0.015625, 0.015625, 0.062500, -0.015625, -0.015625, 0.015625, -0.062500, 0.000000, -0.046875, 0.062500, 0.015625, -0.046875, -0.015625, -0.015625, 0.015625, 0.000000, 0.000000, -0.046875, 0.000000, 0.015625, 0.046875, 0.015625, 0.015625, 0.015625, -0.062500, 0.000000, -0.031250, 0.000000, 0.000000, 0.046875, -0.031250, 0.031250, -0.015625, 0.015625, 0.000000, 0.000000, -0.015625, 0.015625, 0.031250, -0.046875, -0.046875, -0.015625, -0.031250, 0.000000, 0.046875, 0.000000, 0.000000, 0.031250, -0.046875, 0.046875, 0.031250, 0.015625, -0.046875, -0.031250, 0.046875, -0.031250, 0.031250, 0.046875, 0.015625, -0.046875, -0.031250, 0.015625, -0.031250, 0.000000, -0.015625, -0.046875, -0.031250, 0.015625, -0.015625, 0.046875, 0.000000, 0.062500, 0.062500, 0.000000, -0.015625, 0.000000, 0.000000, -0.046875, 0.046875, 0.000000, 0.031250, 0.015625, 0.000000, -0.031250, -0.015625, 0.031250, -0.062500, 0.046875, -0.031250, 0.046875, 0.015625, 0.031250, -0.031250, -0.031250, 0.000000, 0.000000, 0.031250, 0.031250, 0.015625, -0.046875, 0.000000, -0.046875, 0.031250, -0.046875, -0.015625, 0.062500, 0.015625, 0.062500, -0.062500, 0.062500, -0.031250, -0.031250, 0.015625, 0.046875, 0.046875, 0.015625, 0.031250, 0.031250, 0.015625, -0.015625, -0.062500, -0.015625, 0.031250, 0.015625, 0.062500, 0.046875, 0.031250, -0.046875, -0.015625, 0.046875, -0.046875, -0.046875, 0.000000, 0.000000, -0.062500, -0.031250, 0.031250, -0.015625, 0.015625, -0.031250, 0.000000, 0.000000, 0.015625, 0.046875, 0.031250, 0.046875, 0.031250, -0.046875, -0.031250, 0.046875, 0.000000, 0.000000, 0.015625, 0.015625, -0.046875, 0.000000, -0.015625, 0.046875, 0.031250, -0.015625, 0.046875, -0.062500, 0.015625, -0.046875, -0.015625, -0.046875, 0.031250, 0.000000, -0.062500, 0.015625, -0.015625, -0.031250, -0.031250, 0.046875, -0.015625, -0.046875, 0.046875, 0.046875, 0.046875, 0.031250, -0.046875, 0.000000, 0.000000, -0.015625, 0.031250, 0.031250, -0.046875, 0.015625, -0.031250, 0.015625, 0.062500, -0.046875, -0.015625, -0.015625, -0.046875, 0.046875, 0.046875, 0.000000, -0.015625, -0.031250, -0.015625, 0.000000, 0.046875, -0.015625, -0.031250, -0.031250, -0.015625, 0.015625, 0.046875, 0.015625, 0.000000, 0.062500, 0.015625, -0.046875, 0.000000, -0.062500, -0.062500, 0.000000, 0.046875, -0.046875, -0.031250, 0.015625, 0.046875, 0.046875, 0.046875, -0.031250, 0.000000, 0.015625, 0.015625, -0.015625, 0.031250, -0.031250, 0.046875, 0.015625, 0.031250, 0.000000, -0.015625, 0.031250, -0.015625, 0.000000, -0.031250, 0.031250, -0.015625, 0.031250, 0.031250, 0.062500, -0.015625, -0.046875, 0.031250, -0.015625, 0.031250, 0.031250, 0.046875, 0.000000, 0.000000, -0.015625, 0.000000, 0.031250, -0.031250, 0.062500, -0.015625, 0.031250, 0.031250, 0.046875, 0.015625, 0.062500, -0.062500, 0.000000, 0.015625, 0.031250, -0.031250, -0.046875, -0.015625, 0.031250, 0.046875, 0.000000, -0.031250, -0.046875, 0.015625, 0.015625, -0.015625, 0.046875, -0.015625, -0.031250, -0.015625, -0.015625, 0.031250, 0.000000, -0.015625, -0.046875, 0.015625, -0.062500, -0.046875, -0.031250, 0.015625, -0.031250, 0.015625, -0.015625, 0.015625, -0.046875, 0.015625, 0.031250, -0.015625, 0.062500, -0.031250, 0.031250, -0.031250, -0.046875, 0.000000, 0.046875, 0.000000, 0.000000, -0.031250, -0.046875, 0.046875, -0.046875, 0.015625, -0.031250, 0.015625, 0.046875, -0.015625, 0.062500, 0.000000, -0.046875, -0.015625, -0.031250, -0.046875, -0.031250, -0.015625, -0.015625, -0.015625, -0.031250, 0.031250, 0.046875, -0.031250, 0.031250, -0.015625, -0.046875, 0.046875, 0.015625, -0.046875, 0.000000, -0.015625, 0.015625, -0.015625, -0.062500, 0.046875, 0.046875, 0.000000, -0.046875, 0.046875, -0.046875, -0.062500, 0.046875, 0.046875, -0.015625, -0.015625, -0.046875, -0.015625, 0.000000, -0.031250, 0.062500, 0.031250, 0.031250, 0.000000, 0.000000, -0.015625, -0.031250, -0.015625, -0.015625, 0.015625, 0.015625, 0.000000, -0.031250, 0.031250, -0.031250, 0.015625, -0.015625, 0.000000, -0.015625, 0.015625, 0.062500, 0.000000, 0.015625, 0.046875, 0.031250, -0.046875, -0.031250, 0.015625, -0.046875, 0.046875, -0.031250, 0.046875, -0.062500, 0.015625, 0.000000, -0.031250, -0.046875, 0.015625, -0.046875, -0.031250, -0.015625, 0.015625, 0.000000, 0.046875, 0.031250, 0.062500, -0.062500, 0.046875, 0.031250, -0.031250, 0.031250, -0.046875, 0.046875, 0.015625, -0.031250, 0.015625, -0.031250, 0.046875, -0.015625, -0.046875, 0.031250, -0.031250, 0.015625, -0.046875, -0.015625, 0.046875, 0.015625, -0.031250, -0.046875, -0.015625, -0.062500, 0.015625, -0.062500, 0.031250, -0.031250, -0.046875, -0.062500, 0.046875, 0.000000, 0.000000, 0.031250, 0.031250, -0.046875, 0.062500, 0.031250, -0.046875, -0.031250, 0.000000, -0.046875, 0.046875, 0.031250, 0.031250, -0.062500, -0.062500, 0.015625, -0.031250, 0.031250, 0.046875, -0.015625, 0.046875, 0.000000, -0.046875, -0.031250, 0.000000, 0.000000, -0.015625, -0.062500, -0.046875, 0.000000, 0.031250, 0.031250, 0.031250, -0.015625, -0.015625, -0.031250, -0.031250, 0.000000, 0.046875, -0.046875, -0.015625, -0.015625, 0.031250, 0.000000, 0.000000, 0.046875, 0.000000, 0.031250, -0.031250, -0.046875, -0.046875, 0.000000, 0.000000, -0.062500, 0.000000, 0.015625, -0.031250, -0.031250, -0.015625, -0.015625, 0.000000, -0.046875, -0.015625, -0.031250, 0.000000, -0.015625, 0.000000, 0.000000, -0.015625, 0.015625, 0.000000, 0.062500, 0.031250, 0.015625, 0.000000, -0.046875, -0.046875, 0.046875, 0.031250, -0.062500, 0.015625, 0.031250, -0.062500, 0.031250, 0.046875, -0.031250, -0.046875, -0.031250, 0.046875, -0.015625, 0.046875, 0.000000, 0.000000, -0.046875, 0.015625, -0.062500, -0.046875, -0.031250, -0.031250, 0.031250, -0.046875, -0.046875, 0.046875, 0.046875, -0.015625, -0.046875, -0.015625, 0.031250, 0.046875, 0.062500, -0.062500, -0.031250, 0.046875, 0.000000, 0.062500, -0.031250, 0.015625, 0.000000, -0.062500, 0.000000, -0.015625, -0.015625, 0.031250, 0.046875, 0.046875, 0.015625, -0.046875, 0.015625, 0.000000, -0.031250, 0.000000, -0.046875, 0.031250, 0.015625, 0.000000, 0.015625, 0.000000, 0.046875, 0.015625, 0.046875, 0.000000, 0.000000, -0.015625, 0.000000, -0.015625, 0.046875, -0.046875, 0.031250, -0.015625, 0.015625, 0.046875, -0.031250, -0.062500, 0.031250, -0.062500, -0.031250, 0.046875, -0.046875, 0.000000, 0.000000, -0.031250, 0.031250, -0.015625, 0.000000, 0.015625, 0.000000, -0.031250, 0.046875, 0.031250, -0.015625, 0.015625, -0.015625, 0.015625, 0.000000, -0.046875, 0.000000, 0.046875, -0.031250, 0.046875, -0.015625, -0.031250, -0.046875, -0.031250, 0.015625, -0.015625, 0.046875, -0.031250, -0.015625, -0.046875, 0.046875, 0.031250, -0.046875, 0.000000, 0.046875, 0.000000, 0.062500, -0.031250, 0.046875, 0.031250, -0.046875, -0.015625, 0.000000, 0.000000, 0.046875, -0.031250, 0.046875, 0.046875, 0.062500, 0.062500, 0.000000, 0.015625, 0.031250, 0.031250, 0.046875, 0.062500, 0.031250, 0.062500, 0.000000, 0.046875, 0.015625, -0.015625, 0.031250, 0.062500, -0.015625, 0.046875, 0.031250, 0.015625, -0.046875, 0.046875, -0.046875, 0.015625, -0.046875, 0.015625, -0.015625, -0.015625, -0.031250, -0.031250, 0.015625, 0.031250, -0.015625, 0.000000, 0.046875, -0.031250, 0.046875, -0.031250, -0.031250, 0.000000, -0.046875, 0.031250, 0.015625, -0.046875, -0.031250, -0.046875, 0.015625, 0.031250, -0.046875, 0.031250, 0.015625, 0.031250, -0.046875, 0.031250, -0.015625, 0.031250, -0.046875, -0.046875, 0.000000, 0.015625, 0.015625, -0.015625, 0.000000, -0.046875, -0.046875, 0.046875, 0.015625, -0.015625, 0.015625, -0.015625, -0.031250, 0.062500, 0.062500, 0.000000, -0.046875, 0.031250, 0.031250, -0.062500, -0.031250, 0.062500, 0.031250, 0.000000, -0.031250, -0.046875, -0.046875, -0.031250, 0.062500, 0.015625, -0.031250, 0.015625, 0.062500, -0.046875, -0.031250, -0.046875, 0.000000, 0.046875, 0.000000, -0.046875, 0.062500, 0.031250, 0.046875, -0.031250, 0.031250, -0.046875, -0.031250, -0.031250, 0.062500, -0.031250, 0.000000, 0.000000, -0.046875, 0.046875, 0.015625, -0.046875, -0.031250, -0.031250, -0.031250, -0.015625, 0.046875, -0.031250, -0.015625, 0.046875, 0.046875, -0.031250, 0.062500, -0.031250, -0.015625, 0.000000, 0.000000, -0.015625, -0.062500, -0.031250, -0.015625, -0.031250, -0.031250, -0.046875, -0.046875, -0.031250, 0.015625, 0.046875, 0.000000, -0.046875, 0.015625, 0.031250, 0.046875, -0.015625, 0.000000, -0.015625, 0.000000, 0.031250, -0.015625, -0.015625, 0.015625, 0.046875, -0.046875, 0.015625, 0.046875, 0.015625, 0.000000, -0.015625, 0.015625, -0.015625, 0.046875, -0.031250, -0.031250, 0.062500, -0.031250, -0.046875, -0.046875, 0.031250, -0.015625, -0.046875, 0.015625, 0.000000, -0.031250, 0.031250, 0.046875, 0.031250, -0.031250, -0.031250, -0.031250, 0.015625, 0.046875, -0.015625, -0.046875, 0.046875, 0.000000, 0.031250, 0.046875, 0.000000, 0.000000, 0.031250, 0.000000, -0.031250, -0.031250, 0.046875, 0.015625, -0.046875, 0.015625, 0.000000, 0.031250, -0.015625, 0.046875, 0.046875, 0.031250, 0.031250, 0.031250, 0.015625, -0.062500, 0.000000, -0.015625, 0.000000, 0.046875, -0.046875, -0.015625, -0.046875, 0.000000, 0.031250, 0.000000, -0.015625, 0.031250, 0.046875, 0.031250, 0.031250, -0.015625, -0.062500, -0.046875, 0.000000, -0.015625, -0.046875, 0.000000, 0.046875, 0.046875, -0.015625, 0.015625, 0.046875, 0.031250, -0.031250, 0.046875, 0.046875, 0.000000, 0.062500, 0.046875, -0.062500, 0.015625, 0.046875, 0.031250, 0.015625, -0.062500, 0.015625, -0.062500, -0.015625, -0.015625, -0.015625, -0.062500, -0.046875, 0.046875, -0.062500, 0.015625, 0.046875, 0.046875, 0.031250, 0.015625, -0.015625, -0.031250, 0.000000, 0.046875, -0.015625, -0.046875, 0.031250, -0.015625, 0.015625, 0.046875, 0.046875, 0.015625, -0.031250, 0.031250, 0.000000, -0.046875, 0.046875, -0.062500, 0.031250, 0.046875, -0.015625, -0.046875, -0.062500, -0.015625, 0.031250, -0.046875, 0.031250, 0.000000, -0.015625, 0.031250, 0.031250, 0.031250, -0.046875, -0.046875, -0.046875, -0.015625, -0.046875, -0.046875, 0.031250, 0.000000, 0.062500, 0.031250, 0.000000, -0.031250, 0.046875, -0.062500, -0.046875, 0.046875, 0.046875, -0.015625, 0.031250, -0.015625, 0.015625, 0.000000, 0.031250, 0.031250, 0.000000, -0.046875, 0.031250, -0.031250, -0.015625, -0.015625, 0.000000, 0.015625, -0.015625, -0.015625, 0.046875, 0.046875, 0.062500, 0.062500, -0.062500, 0.031250, 0.031250, -0.046875, -0.015625, -0.031250, 0.000000, -0.015625, -0.015625, -0.015625, -0.015625, 0.046875, -0.031250, 0.031250, 0.046875, -0.031250, -0.031250, 0.031250, 0.046875, -0.031250, -0.046875, 0.000000, 0.031250, 0.031250, 0.031250, 0.000000, 0.031250, -0.015625, 0.015625, 0.031250, 0.000000, 0.000000, 0.046875, -0.046875, 0.015625, 0.031250, -0.046875, -0.031250, -0.046875, -0.015625, 0.031250, 0.000000, -0.062500, 0.046875, 0.031250, 0.015625, -0.031250, 0.000000, -0.046875, 0.015625, 0.031250, -0.046875, 0.062500, 0.000000, 0.000000, -0.015625, -0.031250, -0.031250, -0.031250, 0.031250, -0.062500, -0.062500, 0.000000, 0.015625, -0.046875, -0.062500, 0.000000, 0.046875, -0.015625, -0.062500, 0.031250, 0.046875, 0.000000, 0.046875, 0.046875, -0.031250, 0.015625, -0.015625, -0.015625, 0.046875, 0.000000, -0.031250, 0.031250, -0.046875, -0.015625, 0.046875, 0.000000, -0.031250, 0.031250, 0.046875, 0.015625, -0.046875, 0.015625, 0.015625, 0.046875, -0.015625, 0.000000, -0.015625, 0.046875, -0.015625, 0.015625, 0.031250, -0.015625, 0.031250, 0.046875, 0.015625, 0.015625, 0.046875, -0.031250, -0.015625, 0.015625, -0.031250, 0.046875, 0.015625, 0.031250, 0.046875, -0.031250, 0.000000, 0.062500, -0.062500, 0.000000, -0.015625, 0.000000, 0.046875, 0.062500, 0.031250, -0.046875, 0.031250, 0.046875, -0.015625, -0.015625, 0.015625, 0.000000, -0.031250, -0.031250, 0.031250, 0.000000, 0.031250, -0.015625, 0.000000, -0.031250, -0.015625, 0.015625, 0.000000, 0.015625, 0.046875, 0.046875, 0.015625, 0.046875, 0.000000, 0.046875, 0.046875, 0.000000, 0.031250, 0.015625, -0.015625, -0.046875, -0.015625, 0.046875, -0.015625, 0.046875, 0.015625, 0.031250, 0.015625, 0.031250, -0.046875, -0.031250, -0.046875, 0.015625, -0.015625, -0.015625, -0.046875, 0.046875, -0.031250, 0.031250, 0.015625, 0.000000, 0.046875, 0.046875, 0.062500, -0.046875, 0.015625, 0.015625, -0.046875, 0.015625, -0.062500, 0.031250, 0.031250, -0.015625, 0.015625, -0.031250, 0.046875, -0.031250, -0.031250, 0.031250, -0.015625, -0.046875, -0.015625, 0.000000, -0.031250, 0.000000, 0.031250, 0.015625, -0.015625, -0.031250, 0.015625, 0.015625, 0.000000, 0.015625, -0.062500, -0.031250, 0.000000, 0.000000, 0.031250, 0.046875, 0.015625, 0.000000, 0.046875, -0.046875, 0.031250, -0.031250, 0.046875, 0.046875, -0.015625, 0.015625, -0.015625, -0.031250, 0.062500, 0.046875, 0.046875, -0.046875, 0.046875, 0.031250, -0.046875, 0.046875, 0.015625, 0.062500, -0.046875, 0.046875, -0.062500, -0.015625, -0.015625, -0.046875, 0.015625, -0.046875, 0.015625, 0.000000, 0.031250, -0.015625, -0.031250, 0.000000, 0.015625, -0.046875, 0.015625, 0.031250, -0.046875, 0.015625, 0.046875, 0.000000, -0.031250, -0.015625, 0.015625, 0.031250, 0.031250, 0.062500, -0.031250, -0.015625, 0.015625, -0.062500, -0.062500, 0.062500, 0.046875, -0.046875, 0.000000, 0.046875, -0.015625, -0.015625, -0.031250, -0.015625, -0.015625, -0.046875, -0.046875, -0.015625, 0.046875, 0.015625, 0.031250, 0.031250, 0.046875, -0.046875, 0.031250, 0.031250, 0.000000, 0.031250, -0.046875, 0.031250, 0.015625, -0.031250, 0.046875, 0.031250, 0.046875, -0.015625, 0.015625, -0.031250, -0.031250, 0.015625, -0.046875, 0.000000, 0.031250, 0.015625, 0.046875, -0.015625, 0.015625, -0.046875, 0.015625, -0.062500, -0.062500, -0.031250, 0.031250, -0.046875, 0.031250, -0.046875, -0.046875, -0.015625, -0.031250, 0.046875, 0.000000, -0.062500, -0.015625, -0.031250, -0.046875, -0.046875, 0.031250, 0.015625, 0.000000, 0.046875, 0.015625, 0.031250, -0.015625, -0.046875, -0.015625, 0.015625, -0.031250, -0.046875, -0.015625, 0.031250, -0.015625, -0.062500, -0.046875, 0.015625, 0.000000, 0.031250, -0.015625, -0.031250, -0.046875, 0.000000, -0.046875, -0.062500, 0.015625, -0.046875, 0.062500, -0.031250, 0.046875, 0.046875, 0.015625, 0.015625, -0.015625, 0.015625, 0.046875, 0.046875, -0.046875, 0.046875, 0.031250, 0.031250, 0.000000, 0.015625, 0.046875, 0.015625, 0.000000, 0.046875, -0.046875, 0.015625, -0.046875, -0.031250, -0.015625, 0.015625, 0.015625, -0.015625, -0.015625, -0.046875, 0.046875, -0.031250, 0.000000, -0.046875, -0.046875, 0.015625, -0.031250, 0.000000, -0.031250, 0.015625, 0.031250, -0.031250, -0.015625, 0.031250, -0.031250, -0.046875, 0.046875, 0.031250, -0.046875, -0.031250, -0.046875, 0.000000, 0.000000, 0.000000, -0.031250, 0.031250, 0.000000, 0.015625, 0.046875, -0.046875, 0.000000, -0.046875, 0.031250, 0.031250, 0.000000, -0.015625, -0.031250, -0.046875, 0.015625, 0.000000, -0.046875, 0.015625, 0.046875, -0.015625, 0.046875, 0.046875, 0.031250, 0.000000, 0.000000, -0.031250, 0.031250, 0.046875, 0.046875, 0.031250, 0.000000, 0.031250, 0.015625, -0.015625, 0.000000, 0.046875, 0.046875, -0.046875, 0.015625, -0.015625, -0.062500, -0.046875, -0.015625, -0.046875, 0.031250, 0.031250, 0.015625, -0.046875, -0.015625, 0.046875, 0.015625, 0.031250, -0.031250, -0.046875, -0.046875, 0.046875, 0.046875, -0.046875, -0.046875, 0.000000, -0.046875, 0.031250, -0.062500, 0.046875, 0.000000, -0.015625, 0.000000, -0.031250, 0.031250, -0.046875, -0.031250, -0.015625, -0.015625, -0.031250, 0.046875, -0.015625, 0.046875, -0.031250, -0.031250, 0.015625, 0.000000, -0.046875, -0.046875, 0.000000, -0.046875, -0.031250, 0.031250, -0.031250, 0.046875, -0.015625, -0.062500, -0.031250, -0.031250, 0.046875, -0.015625, -0.031250, 0.015625, 0.062500, -0.046875, 0.000000, -0.015625, 0.046875, 0.000000, -0.046875, -0.046875, 0.015625, -0.031250, -0.046875, -0.031250, 0.062500, 0.046875, -0.031250, -0.015625, -0.031250, 0.046875, 0.000000, 0.031250, 0.015625, 0.015625, -0.015625, -0.046875, 0.046875, 0.015625, 0.000000, -0.046875, 0.031250, -0.031250, -0.046875, 0.015625, -0.015625, 0.046875, 0.046875, -0.015625, -0.015625, 0.031250, 0.000000, -0.046875, 0.015625, 0.046875, -0.046875, -0.031250, -0.015625, 0.031250, 0.015625, -0.031250, -0.031250, 0.000000, -0.031250, -0.031250, -0.046875, -0.046875, -0.046875, -0.015625, 0.031250, -0.015625, 0.031250, -0.062500, 0.015625, -0.015625, 0.031250, 0.000000, 0.031250, -0.031250, 0.015625, -0.015625, -0.031250, -0.031250, 0.015625, -0.031250, 0.000000, 0.000000, -0.031250, 0.015625, 0.000000, -0.031250, -0.031250, 0.015625, 0.015625, -0.062500, 0.031250, -0.062500, 0.015625, 0.015625, -0.046875, -0.062500, 0.031250, -0.031250, -0.046875, -0.031250, 0.031250, -0.046875, -0.031250, 0.015625, -0.015625, 0.046875, 0.046875, 0.062500, -0.031250, 0.000000, -0.046875, 0.015625, 0.046875, 0.015625, -0.031250, 0.046875, -0.015625, -0.062500, 0.015625, -0.046875, 0.000000, 0.046875, 0.046875, -0.046875, 0.000000, 0.062500, 0.031250, -0.046875, 0.046875, 0.000000, -0.031250, -0.046875, 0.031250, 0.000000, -0.015625, 0.062500, 0.000000, -0.015625, 0.000000, -0.031250, 0.046875, 0.000000, 0.015625, -0.046875, 0.062500, -0.031250, -0.031250, -0.031250, -0.015625, -0.015625, 0.046875, 0.031250, 0.015625, 0.046875, 0.000000, 0.031250, 0.031250, -0.015625, 0.062500, -0.031250, 0.031250, 0.062500, 0.062500, -0.031250, -0.046875, 0.015625, -0.046875, 0.046875, 0.062500, 0.000000, -0.015625, 0.046875, 0.000000, -0.031250, -0.046875, 0.031250, -0.031250, -0.015625, 0.046875, 0.000000, 0.015625, 0.015625, 0.046875, -0.015625, 0.031250, 0.015625, 0.062500, 0.031250, 0.031250, 0.000000, 0.000000, 0.015625, 0.031250, 0.031250, -0.015625, -0.062500, -0.015625, 0.031250, 0.046875, -0.015625, 0.031250, -0.015625, 0.015625, 0.000000, -0.046875, 0.015625, 0.015625, 0.046875, 0.000000, 0.046875, -0.031250, -0.031250, -0.046875, 0.015625, -0.046875, 0.046875, -0.062500, 0.031250, -0.031250, -0.015625, 0.015625, 0.015625, -0.015625, 0.000000, 0.031250, 0.031250, -0.031250, 0.062500, 0.015625, -0.046875, -0.046875, 0.031250, -0.046875, -0.015625, 0.062500, -0.031250, -0.015625, 0.031250, -0.031250, -0.031250, -0.046875, 0.015625, -0.031250, 0.000000, 0.015625, -0.031250, -0.031250, -0.046875, 0.046875, 0.062500, -0.015625, 0.000000, -0.015625, 